{"learner":{"attributes":{"scikit_learn":"{\"_estimator_type\": \"classifier\"}"},"feature_names":["age_difference","age_weighted_recent_damage_diff","age_x_days_since_last_fight_diff","age_x_fights_in_last_year_diff","age_x_fights_since_last_win_diff","age_x_recent_vs_career_decline_diff","age_x_years_since_last_fight_diff","age_x_years_since_last_win_diff","avg_beaten_opponent_win_rate_diff","avg_opponent_win_rate_diff","both_finishers","both_grapplers","both_strikers","common_opponent_performance_diff","decision_losses_since_last_win_diff","defensive_fight","durability_collapse_diff","early_finish_advantage_diff","early_finish_rate_last_3_diff","early_finish_rate_last_5_diff","experience_difference","f1_activity_rate","f1_age","f1_age_in_prime","f1_age_past_prime","f1_age_x_days_since_last_fight","f1_age_x_fights_in_last_year","f1_age_x_fights_since_last_win","f1_age_x_recent_vs_career_decline","f1_age_x_years_since_last_fight","f1_age_x_years_since_last_win","f1_athleticism_decline","f1_avg_beaten_opponent_total_fights","f1_avg_beaten_opponent_win_rate","f1_avg_fight_duration_rounds","f1_avg_lost_to_opponent_win_rate","f1_avg_opponent_total_fights","f1_avg_opponent_win_rate","f1_current_loss_streak","f1_current_win_streak","f1_days_between_last_2_fights","f1_days_since_last_fight","f1_decision_losses_since_last_win","f1_decision_rate","f1_draws","f1_early_finish_advantage","f1_early_finish_rate_last_3","f1_early_finish_rate_last_5","f1_fights_in_last_year","f1_fights_since_last_win","f1_finish_losses_since_last_win","f1_finish_rate","f1_finish_rate_last_3","f1_finish_rate_last_3_years","f1_finish_rate_last_5","f1_first_round_finish_rate","f1_first_round_ko_rate","f1_has_ever_won","f1_has_fight_history","f1_height_cm","f1_ko_rate","f1_ko_rate_last_3","f1_ko_rate_last_5","f1_long_layoff_over_1yr","f1_long_layoff_over_2yr","f1_losses","f1_losses_last_3_years","f1_losses_since_last_win","f1_opponent_quality_score","f1_performance_trend","f1_power_striker_score","f1_prospect_momentum_score","f1_reach_inches","f1_recent_control_time_diff_last_3","f1_recent_control_time_sec_last_3","f1_recent_finish_loss_last_fight","f1_recent_finish_loss_ratio_last_2","f1_recent_finish_losses_last_2","f1_recent_form_quality_adjusted","f1_recent_knockdown_diff_last_3","f1_recent_losses_last_2","f1_recent_sig_strike_diff_last_3","f1_recent_volume_momentum","f1_recent_vs_career_win_rate","f1_round_3_fight_rate","f1_round_3_finish_rate","f1_round_3_performance_score","f1_round_3_win_rate","f1_sig_strikes_landed_per_min","f1_sig_strikes_landed_per_min_lifetime","f1_stance_orthodox","f1_stance_southpaw","f1_stance_switch","f1_striking_accuracy","f1_striking_differential","f1_striking_volume_control","f1_submission_rate","f1_time_decayed_finish_rate","f1_time_decayed_ko_rate","f1_time_decayed_win_rate","f1_time_decayed_win_rate_adj_opp_quality","f1_title_fight_experience","f1_total_fights","f1_weight_lbs","f1_win_rate_last_3","f1_win_rate_last_3_years","f1_win_rate_last_5","f1_wins","f1_wins_last_3_years","f1_youth_form_score","f2_activity_rate","f2_age","f2_age_in_prime","f2_age_past_prime","f2_age_x_days_since_last_fight","f2_age_x_fights_in_last_year","f2_age_x_fights_since_last_win","f2_age_x_recent_vs_career_decline","f2_age_x_years_since_last_fight","f2_age_x_years_since_last_win","f2_athleticism_decline","f2_avg_beaten_opponent_total_fights","f2_avg_beaten_opponent_win_rate","f2_avg_fight_duration_rounds","f2_avg_lost_to_opponent_win_rate","f2_avg_opponent_total_fights","f2_avg_opponent_win_rate","f2_current_loss_streak","f2_current_win_streak","f2_days_between_last_2_fights","f2_days_since_last_fight","f2_decision_losses_since_last_win","f2_decision_rate","f2_draws","f2_early_finish_advantage","f2_early_finish_rate_last_3","f2_early_finish_rate_last_5","f2_fights_in_last_year","f2_fights_since_last_win","f2_finish_losses_since_last_win","f2_finish_rate","f2_finish_rate_last_3","f2_finish_rate_last_3_years","f2_finish_rate_last_5","f2_first_round_finish_rate","f2_first_round_ko_rate","f2_has_ever_won","f2_has_fight_history","f2_height_cm","f2_ko_rate","f2_ko_rate_last_3","f2_ko_rate_last_5","f2_long_layoff_over_1yr","f2_long_layoff_over_2yr","f2_losses","f2_losses_last_3_years","f2_losses_since_last_win","f2_opponent_quality_score","f2_performance_trend","f2_power_striker_score","f2_prospect_momentum_score","f2_reach_inches","f2_recent_control_time_diff_last_3","f2_recent_control_time_sec_last_3","f2_recent_finish_loss_last_fight","f2_recent_finish_loss_ratio_last_2","f2_recent_finish_losses_last_2","f2_recent_form_quality_adjusted","f2_recent_knockdown_diff_last_3","f2_recent_losses_last_2","f2_recent_sig_strike_diff_last_3","f2_recent_volume_momentum","f2_recent_vs_career_win_rate","f2_round_3_fight_rate","f2_round_3_finish_rate","f2_round_3_performance_score","f2_round_3_win_rate","f2_sig_strikes_landed_per_min","f2_sig_strikes_landed_per_min_lifetime","f2_stance_orthodox","f2_stance_southpaw","f2_stance_switch","f2_striking_accuracy","f2_striking_differential","f2_striking_volume_control","f2_submission_rate","f2_time_decayed_finish_rate","f2_time_decayed_ko_rate","f2_time_decayed_win_rate","f2_time_decayed_win_rate_adj_opp_quality","f2_title_fight_experience","f2_total_fights","f2_weight_lbs","f2_win_rate_last_3","f2_win_rate_last_3_years","f2_win_rate_last_5","f2_wins","f2_wins_last_3_years","f2_youth_form_score","fights_since_last_win_diff","finish_losses_since_last_win_diff","finish_rate_diff","finish_rate_last_3_years_diff","first_round_finish_rate_diff","first_round_ko_rate_diff","has_ever_won_diff","height_advantage","is_title_fight","long_layoff_over_1yr_diff","long_layoff_over_2yr_diff","losses_last_3_years_diff","losses_since_last_win_diff","num_common_opponents","opponent_quality_score_diff","opponent_quality_score_diff_squared","orthodox_vs_orthodox","orthodox_vs_southpaw","power_striker_matchup","power_striker_score_diff","prospect_momentum_score_diff","reach_advantage","recent_control_time_diff_last_3_diff","recent_control_time_sec_last_3_diff","recent_finish_loss_last_fight_diff","recent_finish_loss_ratio_last_2_diff","recent_finish_losses_last_2_diff","recent_form_diff","recent_form_quality_adjusted_diff","recent_knockdown_diff_last_3_diff","recent_sig_strike_diff_last_3_diff","recent_volume_momentum_diff","recent_vs_career_win_rate_diff","round_3_performance_diff","round_3_win_rate_diff","southpaw_vs_southpaw","striker_vs_grappler","striking_accuracy_diff","striking_differential","striking_differential_x_opponent_quality_diff","striking_output_diff","style_volatility_mismatch_diff","takedown_ability_diff","takedown_matchup","time_decayed_finish_rate_diff","time_decayed_ko_rate_diff","time_decayed_win_rate_adj_opp_quality_diff","time_decayed_win_rate_diff","win_rate_last_3_years_diff","win_streak_diff","wins_last_3_years_diff","youth_form_score_diff"],"feature_types":["float","float","float","float","float","float","float","float","float","float","float","float","float","float","float","float","float","float","float","float","float","float","float","float","float","float","float","float","float","float","float","float","float","float","float","float","float","float","float","float","float","float","float","float","float","float","float","float","float","float","float","float","float","float","float","float","float","float","float","float","float","float","float","float","float","float","float","float","float","float","float","float","float","float","float","float","float","float","float","float","float","float","float","float","float","float","float","float","float","float","float","float","float","float","float","float","float","float","float","float","float","float","float","float","float","float","float","float","float","float","float","float","float","float","float","float","float","float","float","float","float","float","float","float","float","float","float","float","float","float","float","float","float","float","float","float","float","float","float","float","float","float","float","float","float","float","float","float","float","float","float","float","float","float","float","float","float","float","float","float","float","float","float","float","float","float","float","float","float","float","float","float","float","float","float","float","float","float","float","float","float","float","float","float","float","float","float","float","float","float","float","float","float","float","float","float","float","float","float","float","float","float","float","float","float","float","float","float","float","float","float","float","float","float","float","float","float","float","float","float","float","float","float","float","float","float","float","float","float","float","float","float","float","float","float","float","float","float","float","float","float","float","float","float","float","float","float","float","float","float","float"],"gradient_booster":{"model":{"cats":{"enc":[],"feature_segments":[],"sorted_idx":[]},"gbtree_model_param":{"num_parallel_tree":"1","num_trees":"200"},"iteration_indptr":[0,1,2,3,4,5,6,7,8,9,10,11,12,13,14,15,16,17,18,19,20,21,22,23,24,25,26,27,28,29,30,31,32,33,34,35,36,37,38,39,40,41,42,43,44,45,46,47,48,49,50,51,52,53,54,55,56,57,58,59,60,61,62,63,64,65,66,67,68,69,70,71,72,73,74,75,76,77,78,79,80,81,82,83,84,85,86,87,88,89,90,91,92,93,94,95,96,97,98,99,100,101,102,103,104,105,106,107,108,109,110,111,112,113,114,115,116,117,118,119,120,121,122,123,124,125,126,127,128,129,130,131,132,133,134,135,136,137,138,139,140,141,142,143,144,145,146,147,148,149,150,151,152,153,154,155,156,157,158,159,160,161,162,163,164,165,166,167,168,169,170,171,172,173,174,175,176,177,178,179,180,181,182,183,184,185,186,187,188,189,190,191,192,193,194,195,196,197,198,199,200],"tree_info":[0,0,0,0,0,0,0,0,0,0,0,0,0,0,0,0,0,0,0,0,0,0,0,0,0,0,0,0,0,0,0,0,0,0,0,0,0,0,0,0,0,0,0,0,0,0,0,0,0,0,0,0,0,0,0,0,0,0,0,0,0,0,0,0,0,0,0,0,0,0,0,0,0,0,0,0,0,0,0,0,0,0,0,0,0,0,0,0,0,0,0,0,0,0,0,0,0,0,0,0,0,0,0,0,0,0,0,0,0,0,0,0,0,0,0,0,0,0,0,0,0,0,0,0,0,0,0,0,0,0,0,0,0,0,0,0,0,0,0,0,0,0,0,0,0,0,0,0,0,0,0,0,0,0,0,0,0,0,0,0,0,0,0,0,0,0,0,0,0,0,0,0,0,0,0,0,0,0,0,0,0,0,0,0,0,0,0,0,0,0,0,0,0,0,0,0,0,0,0,0],"trees":[{"base_weights":[8.690474E-3,-3.0443057E-1,3.7731072E-1,2.5597531E-2,-5.485173E-1,6.288567E-1,3.6440074E-2,3.6440074E-2,-4.2744517E-1,-7.0870525E-1,-2.3402952E-1,7.22863E-1,3.6440074E-2,4.7452906E-1,3.6440074E-2,-2.6027715E-2,1.8220037E-3,-4.749611E-2,-3.8988243E-3,-3.9885756E-2,-5.4324768E-3,1.8220037E-3,-3.1263642E-2,2.5944501E-2,5.208542E-2,1.8220037E-3,2.4923494E-2,3.9543536E-2,1.8220037E-3,1.8220037E-3,2.2094691E-2],"categories":[],"categories_nodes":[],"categories_segments":[],"categories_sizes":[],"default_left":[0,0,0,0,0,0,0,0,0,0,0,0,0,0,0,0,0,0,0,0,0,0,0,0,0,0,0,0,0,0,0],"id":0,"left_children":[1,3,5,7,9,11,13,15,17,19,21,23,25,27,29,-1,-1,-1,-1,-1,-1,-1,-1,-1,-1,-1,-1,-1,-1,-1,-1],"loss_changes":[4.3899902E1,1.6622486E1,1.4990473E1,7.912512E0,5.762169E0,6.009094E0,5.6378937E0,3.163566E0,6.5863647E0,3.9995003E0,5.102849E0,5.155102E0,1.2414992E0,3.974207E0,1.5744196E0,0E0,0E0,0E0,0E0,0E0,0E0,0E0,0E0,0E0,0E0,0E0,0E0,0E0,0E0,0E0,0E0],"parents":[2147483647,0,0,1,1,2,2,3,3,4,4,5,5,6,6,7,7,8,8,9,9,10,10,11,11,12,12,13,13,14,14],"right_children":[2,4,6,8,10,12,14,16,18,20,22,24,26,28,30,-1,-1,-1,-1,-1,-1,-1,-1,-1,-1,-1,-1,-1,-1,-1,-1],"split_conditions":[4.59509E-2,0E0,1.9120039E-1,2.5740516E-1,1.8076076E-1,7.474353E-1,-3.17512E-1,-9.4258976E-1,-7.5754106E-1,7.955015E-1,4.5540306E-1,4.3820202E-1,2.3931311E-1,1.065442E0,1.3429761E-1,-2.6027715E-2,1.8220037E-3,-4.749611E-2,-3.8988243E-3,-3.9885756E-2,-5.4324768E-3,1.8220037E-3,-3.1263642E-2,2.5944501E-2,5.208542E-2,1.8220037E-3,2.4923494E-2,3.9543536E-2,1.8220037E-3,1.8220037E-3,2.2094691E-2],"split_indices":[227,0,0,183,236,183,183,94,70,213,143,219,144,76,95,0,0,0,0,0,0,0,0,0,0,0,0,0,0,0,0],"split_type":[0,0,0,0,0,0,0,0,0,0,0,0,0,0,0,0,0,0,0,0,0,0,0,0,0,0,0,0,0,0,0],"sum_hessian":[3.7711554E2,2.0385535E2,1.7326018E2,8.6876114E1,1.1697923E2,9.926648E1,7.39937E1,5.149319E1,3.5382927E1,7.646129E1,4.0517944E1,8.640016E1,1.2866323E1,2.7926367E1,4.606733E1,8.842277E0,4.2650913E1,1.3377864E1,2.2005062E1,6.615245E1,1.0308834E1,2.3103266E1,1.7414679E1,5.448551E1,3.1914646E1,8.477215E0,4.389109E0,1.5627621E1,1.2298745E1,3.797534E1,8.091989E0],"tree_param":{"num_deleted":"0","num_feature":"251","num_nodes":"31","size_leaf_vector":"1"}},{"base_weights":[1.1538219E-2,-3.580242E-1,3.358638E-1,-1.21180445E-1,-7.717596E-1,5.7451E-1,3.884168E-2,-4.3278468E-1,-1.1080205E-2,-9.846604E-1,-3.2083672E-1,1.0625695E0,4.343633E-1,-1.1080205E-2,4.525075E-1,-5.2423E-2,-1.30127715E-2,-2.9621912E-2,-5.540103E-4,-5.2342046E-2,-9.357615E-3,-4.3906048E-2,-5.540103E-4,6.2258746E-2,1.2924717E-3,5.2390443E-3,3.3362124E-2,-5.540103E-4,2.9651934E-2,3.988759E-2,2.860964E-3],"categories":[],"categories_nodes":[],"categories_segments":[],"categories_sizes":[],"default_left":[0,0,0,0,0,0,0,0,0,0,0,0,0,0,0,0,0,0,0,0,0,0,0,0,0,0,0,0,0,0,0],"id":1,"left_children":[1,3,5,7,9,11,13,15,17,19,21,23,25,27,29,-1,-1,-1,-1,-1,-1,-1,-1,-1,-1,-1,-1,-1,-1,-1,-1],"loss_changes":[4.5734856E1,1.7336737E1,1.43437E1,6.037789E0,5.838043E0,7.245369E0,7.153724E0,4.1686444E0,3.1306658E0,1.8667755E0,4.620749E0,4.4585E0,6.7508965E0,1.5975674E0,4.58448E0,0E0,0E0,0E0,0E0,0E0,0E0,0E0,0E0,0E0,0E0,0E0,0E0,0E0,0E0,0E0,0E0],"parents":[2147483647,0,0,1,1,2,2,3,3,4,4,5,5,6,6,7,7,8,8,9,9,10,10,11,11,12,12,13,13,14,14],"right_children":[2,4,6,8,10,12,14,16,18,20,22,24,26,28,30,-1,-1,-1,-1,-1,-1,-1,-1,-1,-1,-1,-1,-1,-1,-1,-1],"split_conditions":[-2.8723389E-2,5.736012E-1,1.9120039E-1,-3.1089744E-1,1.510863E-1,-7.4580604E-1,3.6833718E-1,-2.8433186E-1,-1.3651544E0,9.174922E-1,-3.9781907E-1,3.304841E-1,1.4280382E-2,2.0325723E0,3.2512438E-1,-5.2423E-2,-1.30127715E-2,-2.9621912E-2,-5.540103E-4,-5.2342046E-2,-9.357615E-3,-4.3906048E-2,-5.540103E-4,6.2258746E-2,1.2924717E-3,5.2390443E-3,3.3362124E-2,-5.540103E-4,2.9651934E-2,3.988759E-2,2.860964E-3],"split_indices":[245,0,0,94,236,183,94,114,221,213,243,114,229,28,98,0,0,0,0,0,0,0,0,0,0,0,0,0,0,0,0],"split_type":[0,0,0,0,0,0,0,0,0,0,0,0,0,0,0,0,0,0,0,0,0,0,0,0,0,0,0,0,0,0,0],"sum_hessian":[3.7845023E2,1.7669623E2,2.01754E2,1.1334578E2,6.3350452E1,1.1116565E2,9.0588356E1,4.0396305E1,7.294947E1,4.207809E1,2.1272362E1,2.3172441E1,8.799321E1,5.7624134E1,3.2964222E1,7.6041346E0,3.279217E1,7.9192924E0,6.503018E1,3.862827E1,3.4498217E0,7.841161E0,1.3431201E1,1.9449183E1,3.72326E0,3.7210438E1,5.0782772E1,5.4577477E1,3.0466573E0,1.6917429E1,1.6046791E1],"tree_param":{"num_deleted":"0","num_feature":"251","num_nodes":"31","size_leaf_vector":"1"}},{"base_weights":[-1.1152346E-2,-2.975462E-1,3.3418113E-1,1.8317461E-2,-5.414019E-1,6.010147E-1,1.8317461E-2,1.8317461E-2,-3.0479568E-1,-6.847216E-1,-1.5485394E-1,3.155041E-1,8.269496E-1,4.4668832E-1,1.8317461E-2,-1.9280106E-2,9.1587304E-4,-3.3595577E-2,9.1587304E-4,-2.535837E-2,-5.337856E-2,-3.238526E-2,9.1587304E-4,3.4112144E-2,6.3305064E-3,9.1587304E-4,4.4657104E-2,1.9828898E-3,3.2214932E-2,9.1587304E-4,2.0903619E-2],"categories":[],"categories_nodes":[],"categories_segments":[],"categories_sizes":[],"default_left":[0,0,0,0,0,0,0,0,0,0,0,0,0,0,0,0,0,0,0,0,0,0,0,0,0,0,0,0,0,0,0],"id":2,"left_children":[1,3,5,7,9,11,13,15,17,19,21,23,25,27,29,-1,-1,-1,-1,-1,-1,-1,-1,-1,-1,-1,-1,-1,-1,-1,-1],"loss_changes":[3.7440006E1,1.6636005E1,1.6129234E1,4.629308E0,6.4445763E0,6.027214E0,5.1644664E0,8.509639E-1,7.783885E0,5.3318214E0,4.6510344E0,3.042931E0,3.514923E0,2.1798158E0,1.581953E0,0E0,0E0,0E0,0E0,0E0,0E0,0E0,0E0,0E0,0E0,0E0,0E0,0E0,0E0,0E0,0E0],"parents":[2147483647,0,0,1,1,2,2,3,3,4,4,5,5,6,6,7,7,8,8,9,9,10,10,11,11,12,12,13,13,14,14],"right_children":[2,4,6,8,10,12,14,16,18,20,22,24,26,28,30,-1,-1,-1,-1,-1,-1,-1,-1,-1,-1,-1,-1,-1,-1,-1,-1],"split_conditions":[3.8292415E-2,0E0,1.9120039E-1,8.597732E-2,2.724902E-1,7.192599E-2,-3.1172425E-1,-1.71929E0,2.7879277E-1,2.9831752E-2,-4.7325817E-1,-9.56002E-1,-6.32372E-2,5.2281445E-1,9.0402335E-2,-1.9280106E-2,9.1587304E-4,-3.3595577E-2,9.1587304E-4,-2.535837E-2,-5.337856E-2,-3.238526E-2,9.1587304E-4,3.4112144E-2,6.3305064E-3,9.1587304E-4,4.4657104E-2,1.9828898E-3,3.2214932E-2,9.1587304E-4,2.0903619E-2],"split_indices":[227,0,0,183,241,236,183,245,33,184,219,0,246,249,95,0,0,0,0,0,0,0,0,0,0,0,0,0,0,0,0],"split_type":[0,0,0,0,0,0,0,0,0,0,0,0,0,0,0,0,0,0,0,0,0,0,0,0,0,0,0,0,0,0,0],"sum_hessian":[3.7533563E2,2.05411E2,1.6992462E2,8.772968E1,1.17681305E2,9.6572334E1,7.3352295E1,4.5004314E1,4.272537E1,8.509917E1,3.258214E1,4.3915726E1,5.2656612E1,2.6678926E1,4.6673363E1,3.7227135E0,4.12816E1,2.4767008E1,1.795836E1,5.9903584E1,2.5195581E1,1.1533917E1,2.1048223E1,1.38617935E1,3.005393E1,3.2366273E0,4.9419987E1,9.277074E0,1.7401854E1,3.8272236E1,8.401128E0],"tree_param":{"num_deleted":"0","num_feature":"251","num_nodes":"31","size_leaf_vector":"1"}},{"base_weights":[-4.489641E-3,2.1598205E-1,-3.4511447E-1,-9.953048E-2,4.507391E-1,-4.9970514E-1,2.150278E-1,1.756043E-1,-4.2844886E-1,3.1509346E-1,8.043399E-1,2.8711113E-1,-5.9548527E-1,-1.2688023E-1,8.285565E-1,-1.1374875E-2,8.780215E-3,-9.712138E-3,-3.570571E-2,3.0634448E-2,8.780215E-3,1.7207943E-2,5.473562E-2,-1.8516453E-2,3.8341727E-2,-4.2672537E-2,-1.6042178E-2,-3.2312106E-2,1.5679805E-2,5.937772E-2,2.0134922E-3],"categories":[],"categories_nodes":[],"categories_segments":[],"categories_sizes":[],"default_left":[0,0,0,0,0,0,0,0,0,0,0,0,0,0,0,0,0,0,0,0,0,0,0,0,0,0,0,0,0,0,0],"id":3,"left_children":[1,3,5,7,9,11,13,15,17,19,21,23,25,27,29,-1,-1,-1,-1,-1,-1,-1,-1,-1,-1,-1,-1,-1,-1,-1,-1],"loss_changes":[2.8544525E1,1.715119E1,1.3101288E1,1.1907709E1,6.0994606E0,9.104324E0,7.19535E0,2.9086673E0,3.411728E0,4.2421045E0,4.383053E0,4.679114E0,7.152508E0,5.3893714E0,3.2940245E0,0E0,0E0,0E0,0E0,0E0,0E0,0E0,0E0,0E0,0E0,0E0,0E0,0E0,0E0,0E0,0E0],"parents":[2147483647,0,0,1,1,2,2,3,3,4,4,5,5,6,6,7,7,8,8,9,9,10,10,11,11,12,12,13,13,14,14],"right_children":[2,4,6,8,10,12,14,16,18,20,22,24,26,28,30,-1,-1,-1,-1,-1,-1,-1,-1,-1,-1,-1,-1,-1,-1,-1,-1],"split_conditions":[-8.686983E-2,-3.4855916E-3,6.18704E-2,0E0,3.9228075E-3,-9.56002E-1,4.4885732E-2,-4.0680882E-1,1.5271606E-1,-8.4556293E-1,-1.690348E-1,4.7990665E-2,-1.6792114E-3,-1.5427755E-1,7.67921E-1,-1.1374875E-2,8.780215E-3,-9.712138E-3,-3.570571E-2,3.0634448E-2,8.780215E-3,1.7207943E-2,5.473562E-2,-1.8516453E-2,3.8341727E-2,-4.2672537E-2,-1.6042178E-2,-3.2312106E-2,1.5679805E-2,5.937772E-2,2.0134922E-3],"split_indices":[184,227,95,0,95,0,231,94,160,22,9,36,241,241,170,0,0,0,0,0,0,0,0,0,0,0,0,0,0,0,0],"split_type":[0,0,0,0,0,0,0,0,0,0,0,0,0,0,0,0,0,0,0,0,0,0,0,0,0,0,0,0,0,0,0],"sum_hessian":[3.7644946E2,2.2857507E2,1.4787439E2,9.757915E1,1.3099593E2,1.1611489E2,3.1759502E1,4.5588825E1,5.1990322E1,9.624793E1,3.4747997E1,1.2270804E1,1.03844086E2,2.0798882E1,1.0960622E1,1.6594099E1,2.8994724E1,2.9683767E1,2.2306557E1,3.0959274E1,6.528866E1,1.4421884E1,2.0326115E1,5.1848183E0,7.0859866E0,5.2273247E1,5.157084E1,9.434558E0,1.1364324E1,7.0957494E0,3.8648725E0],"tree_param":{"num_deleted":"0","num_feature":"251","num_nodes":"31","size_leaf_vector":"1"}},{"base_weights":[6.0686846E-3,-2.9143792E-1,2.787094E-1,-8.0656946E-2,-6.8009716E-1,4.9740145E-1,-6.364256E-3,-6.364256E-3,-5.2132E-1,-3.182128E-4,-7.3153263E-1,5.852321E-1,-6.364256E-3,-6.364256E-3,4.501315E-2,-3.182128E-4,-3.7876274E-2,-3.5905253E-2,-3.182128E-4,-3.931125E-2,-3.182128E-4,3.2106616E-2,-3.182128E-4,-3.182128E-4,1.93003E-2,-3.182128E-4,1.4443372E-2],"categories":[],"categories_nodes":[],"categories_segments":[],"categories_sizes":[],"default_left":[0,0,0,0,0,0,0,0,0,0,0,0,0,0,0,0,0,0,0,0,0,0,0,0,0,0,0],"id":4,"left_children":[1,3,5,7,9,11,13,15,17,-1,19,21,23,25,-1,-1,-1,-1,-1,-1,-1,-1,-1,-1,-1,-1,-1],"loss_changes":[3.052993E1,1.4640432E1,1.4343858E1,5.8804297E0,2.8625164E0,7.097912E0,5.78346E0,4.543173E0,3.7902222E0,0E0,2.790619E0,4.1456223E0,7.7050924E-1,2.89581E0,0E0,0E0,0E0,0E0,0E0,0E0,0E0,0E0,0E0,0E0,0E0,0E0,0E0],"parents":[2147483647,0,0,1,1,2,2,3,3,4,4,5,5,6,6,7,7,8,8,10,10,11,11,12,12,13,13],"right_children":[2,4,6,8,10,12,14,16,18,-1,20,22,24,26,-1,-1,-1,-1,-1,-1,-1,-1,-1,-1,-1,-1,-1],"split_conditions":[-1.3281769E-2,5.736012E-1,-1.1870155E-1,6.0169823E-2,-7.472901E-1,9.430274E-1,1.9193248E0,1.2467829E0,7.4098307E-1,-3.182128E-4,1.2524843E0,2.293767E0,1.4004084E0,3.5882872E-1,4.501315E-2,-3.182128E-4,-3.7876274E-2,-3.5905253E-2,-3.182128E-4,-3.931125E-2,-3.182128E-4,3.2106616E-2,-3.182128E-4,-3.182128E-4,1.93003E-2,-3.182128E-4,1.4443372E-2],"split_indices":[245,0,184,184,7,7,219,203,93,0,243,38,227,94,0,0,0,0,0,0,0,0,0,0,0,0,0],"split_type":[0,0,0,0,0,0,0,0,0,0,0,0,0,0,0,0,0,0,0,0,0,0,0,0,0,0,0],"sum_hessian":[3.730137E2,1.7816435E2,1.9484935E2,1.1646622E2,6.1698128E1,1.1806478E2,7.678457E1,9.317821E1,2.3288015E1,3.1548886E0,5.854324E1,1.0556601E2,1.2498778E1,7.096905E1,5.8155236E0,8.6392586E1,6.7856164E0,1.9118612E1,4.1694036E0,5.5055E1,3.4882388E0,9.751656E1,8.049444E0,9.00345E0,3.4953282E0,3.942261E1,3.1546432E1],"tree_param":{"num_deleted":"0","num_feature":"251","num_nodes":"27","size_leaf_vector":"1"}},{"base_weights":[-4.7725015E-3,2.4939315E-1,-2.9644853E-1,-2.2891045E-2,5.3211194E-1,1.0213025E-1,-4.967908E-1,2.5461045E-1,-3.474075E-1,2.5461045E-1,7.6236075E-1,-9.434856E-2,5.981418E-1,-6.740887E-1,-2.081961E-1,1.2730523E-2,-1.8148918E-2,-4.762023E-2,-1.0067136E-2,1.2730523E-2,4.590735E-2,4.313605E-2,1.2730523E-2,-3.4338277E-2,3.3595834E-3,4.6099294E-2,1.2594831E-2,-4.1437484E-2,-1.6806414E-2,-2.1061243E-3,-3.263085E-2],"categories":[],"categories_nodes":[],"categories_segments":[],"categories_sizes":[],"default_left":[0,0,0,0,0,0,0,0,0,0,0,0,0,0,0,0,0,0,0,0,0,0,0,0,0,0,0,0,0,0,0],"id":5,"left_children":[1,3,5,7,9,11,13,15,17,19,21,23,25,27,29,-1,-1,-1,-1,-1,-1,-1,-1,-1,-1,-1,-1,-1,-1,-1,-1],"loss_changes":[2.859785E1,1.5916427E1,1.4451516E1,1.08985195E1,6.5000515E0,6.1277275E0,5.9641247E0,3.9619765E0,4.488239E0,1.8746972E0,3.3353615E0,4.4606986E0,2.9952097E0,3.538391E0,3.4800391E0,0E0,0E0,0E0,0E0,0E0,0E0,0E0,0E0,0E0,0E0,0E0,0E0,0E0,0E0,0E0,0E0],"parents":[2147483647,0,0,1,1,2,2,3,3,4,4,5,5,6,6,7,7,8,8,9,9,10,10,11,11,12,12,13,13,14,14],"right_children":[2,4,6,8,10,12,14,16,18,20,22,24,26,28,30,-1,-1,-1,-1,-1,-1,-1,-1,-1,-1,-1,-1,-1,-1,-1,-1],"split_conditions":[1.9120039E-1,3.8292415E-2,-2.1754166E-1,6.9496E-2,7.192599E-2,6.8338037E-1,5.16259E-2,1.4117625E0,-8.0848354E-1,1.9247586E0,2.9716894E-1,-7.5738156E-1,1.3515066E0,2.3141631E-1,1.3384027E0,1.2730523E-2,-1.8148918E-2,-4.762023E-2,-1.0067136E-2,1.2730523E-2,4.590735E-2,4.313605E-2,1.2730523E-2,-3.4338277E-2,3.3595834E-3,4.6099294E-2,1.2594831E-2,-4.1437484E-2,-1.6806414E-2,-2.1061243E-3,-3.263085E-2],"split_indices":[0,227,183,183,236,245,238,225,163,171,25,94,50,241,0,0,0,0,0,0,0,0,0,0,0,0,0,0,0,0,0],"split_type":[0,0,0,0,0,0,0,0,0,0,0,0,0,0,0,0,0,0,0,0,0,0,0,0,0,0,0,0,0,0,0],"sum_hessian":[3.822383E2,2.0414717E2,1.7809116E2,1.0428065E2,9.986652E1,5.9569454E1,1.185217E2,5.2840096E1,5.1440548E1,4.545269E1,5.4413837E1,4.310356E1,1.6465893E1,7.237556E1,4.6146137E1,4.3606422E1,9.233673E0,8.797294E0,4.2643253E1,4.2348904E1,3.1037836E0,4.6773006E1,7.6408334E0,8.6712265E0,3.4432335E1,1.0330917E1,6.134975E0,4.8453617E1,2.3921942E1,3.455371E1,1.1592425E1],"tree_param":{"num_deleted":"0","num_feature":"251","num_nodes":"31","size_leaf_vector":"1"}},{"base_weights":[-1.5185803E-2,2.7014333E-1,-2.589007E-1,3.693299E-1,-3.4237188E-1,-4.9816936E-1,-4.43252E-3,1.07652485E-1,6.012333E-1,-5.0552225E-1,2.2516096E-2,-4.2691723E-1,-6.1276533E-2,3.314896E-1,-2.5130093E-1,1.4891055E-4,4.178888E-2,1.1537431E-2,3.9496448E-2,-3.2081228E-2,7.297311E-3,-2.7938778E-2,-1.2565047E-2,2.7071327E-2,-5.1605133E-3,-1.2565047E-2,8.093397E-3],"categories":[],"categories_nodes":[],"categories_segments":[],"categories_sizes":[],"default_left":[0,0,0,0,0,0,0,0,0,0,0,0,0,0,0,0,0,0,0,0,0,0,0,0,0,0,0],"id":6,"left_children":[1,3,5,7,9,11,13,15,17,19,-1,21,-1,23,25,-1,-1,-1,-1,-1,-1,-1,-1,-1,-1,-1,-1],"loss_changes":[2.6420755E1,1.0800168E1,1.2434286E1,9.067457E0,3.5444126E0,4.9879913E0,9.722128E0,5.558744E0,5.349474E0,2.0635815E0,0E0,3.9176388E0,0E0,4.387892E0,3.778592E0,0E0,0E0,0E0,0E0,0E0,0E0,0E0,0E0,0E0,0E0,0E0,0E0],"parents":[2147483647,0,0,1,1,2,2,3,3,4,4,5,5,6,6,7,7,8,8,9,9,11,11,13,13,14,14],"right_children":[2,4,6,8,10,12,14,16,18,20,-1,22,-1,24,26,-1,-1,-1,-1,-1,-1,-1,-1,-1,-1,-1,-1],"split_conditions":[0E0,6.0169823E-2,0E0,-1.3239108E-1,1.2302654E0,1.912004E0,-1.5082462E-1,1.4294674E0,-1.6339135E-1,6.480364E-1,2.2516096E-2,2.968006E-1,-6.1276533E-2,2.3023362E-1,3.770188E-1,1.4891055E-4,4.178888E-2,1.1537431E-2,3.9496448E-2,-3.2081228E-2,7.297311E-3,-2.7938778E-2,-1.2565047E-2,2.7071327E-2,-5.1605133E-3,-1.2565047E-2,8.093397E-3],"split_indices":[0,184,227,95,33,0,183,119,213,241,0,241,0,41,94,0,0,0,0,0,0,0,0,0,0,0,0],"split_type":[0,0,0,0,0,0,0,0,0,0,0,0,0,0,0,0,0,0,0,0,0,0,0,0,0,0,0],"sum_hessian":[3.7647427E2,1.7319157E2,2.0328271E2,1.4953687E2,2.36547E1,1.0407423E2,9.920849E1,7.1148766E1,7.838811E1,2.0022202E1,3.6324978E0,9.6359314E1,7.7149153E0,4.530265E1,5.3905838E1,6.3204063E1,7.944701E0,2.7381037E1,5.100707E1,1.6701582E1,3.3206203E0,7.258829E1,2.3771025E1,3.0538637E1,1.4764012E1,3.2885193E1,2.1020645E1],"tree_param":{"num_deleted":"0","num_feature":"251","num_nodes":"27","size_leaf_vector":"1"}},{"base_weights":[1.4116241E-3,-2.3748966E-1,2.8365925E-1,6.0931426E-2,-4.2839095E-1,5.780051E-1,1.3372333E-2,-3.2686093E-1,3.3228013E-1,-6.4305633E-1,-1.4438581E-1,9.2584544E-1,3.4299254E-1,-3.8172632E-1,2.158511E-1,-3.1809796E-2,1.3547987E-4,2.572388E-2,1.3547987E-4,-4.3214466E-2,-1.9686054E-2,-1.9686054E-2,4.968075E-3,5.464047E-2,3.1720947E-2,-1.802334E-2,2.1673908E-2,2.1735802E-2,-2.8251303E-2,-2.7836522E-3,2.9465452E-2],"categories":[],"categories_nodes":[],"categories_segments":[],"categories_sizes":[],"default_left":[0,0,0,0,0,0,0,0,0,0,0,0,0,0,0,0,0,0,0,0,0,0,0,0,0,0,0,0,0,0,0],"id":7,"left_children":[1,3,5,7,9,11,13,15,17,19,21,23,25,27,29,-1,-1,-1,-1,-1,-1,-1,-1,-1,-1,-1,-1,-1,-1,-1,-1],"loss_changes":[2.5791195E1,1.185408E1,1.3900656E1,8.760039E0,7.5830154E0,6.5171967E0,7.5681753E0,5.0024343E0,4.8825536E0,3.9133282E0,5.8031836E0,1.9187126E0,3.5366135E0,5.0926013E0,6.4432745E0,0E0,0E0,0E0,0E0,0E0,0E0,0E0,0E0,0E0,0E0,0E0,0E0,0E0,0E0,0E0,0E0],"parents":[2147483647,0,0,1,1,2,2,3,3,4,4,5,5,6,6,7,7,8,8,9,9,10,10,11,11,12,12,13,13,14,14],"right_children":[2,4,6,8,10,12,14,16,18,20,22,24,26,28,30,-1,-1,-1,-1,-1,-1,-1,-1,-1,-1,-1,-1,-1,-1,-1,-1],"split_conditions":[-1.1919364E-1,-2.094739E-1,-1.0208821E-1,-8.549805E-2,-5.697035E-1,-8.4556293E-1,-2.821075E-1,1.3515066E0,3.304841E-1,4.058386E-1,-1.5471384E-1,5.330748E-1,-4.7325817E-1,-7.6480156E-1,1.814992E-1,-3.1809796E-2,1.3547987E-4,2.572388E-2,1.3547987E-4,-4.3214466E-2,-1.9686054E-2,-1.9686054E-2,4.968075E-3,5.464047E-2,3.1720947E-2,-1.802334E-2,2.1673908E-2,2.1735802E-2,-2.8251303E-2,-2.7836522E-3,2.9465452E-2],"split_indices":[95,183,170,227,111,22,241,139,25,37,100,37,219,0,245,0,0,0,0,0,0,0,0,0,0,0,0,0,0,0,0],"split_type":[0,0,0,0,0,0,0,0,0,0,0,0,0,0,0,0,0,0,0,0,0,0,0,0,0,0,0,0,0,0,0],"sum_hessian":[3.7888315E2,2.050923E2,1.7379085E2,8.007472E1,1.2501757E2,8.247073E1,9.132012E1,3.2728443E1,4.7346283E1,7.028004E1,5.4737534E1,3.1896252E1,5.057448E1,3.0474945E1,6.084518E1,2.0078007E1,1.2650435E1,3.7553215E1,9.793067E0,3.7184856E1,3.309518E1,1.7590061E1,3.7147472E1,2.31844E1,8.711852E0,5.2979517E0,4.5276527E1,5.235983E0,2.5238962E1,3.5568275E1,2.5276905E1],"tree_param":{"num_deleted":"0","num_feature":"251","num_nodes":"31","size_leaf_vector":"1"}},{"base_weights":[1.9872684E-2,2.8485394E-1,-2.0572484E-1,1.7477317E-2,5.060416E-1,-6.061589E-1,-8.827488E-2,3.3687875E-1,-1.8940702E-1,6.261389E-1,5.7632588E-2,-7.9919183E-1,-3.0407034E-2,2.0145155E-1,-3.469996E-1,1.0891144E-4,3.8085803E-2,-3.322491E-2,1.1870505E-3,-1.0084161E-2,3.465871E-2,-6.226537E-3,4.1560233E-2,1.0259953E-2,-4.5411896E-2,-1.4912776E-2,2.9703757E-2,-7.7314875E-3,1.8145988E-2,-2.4033895E-2,-0E0],"categories":[],"categories_nodes":[],"categories_segments":[],"categories_sizes":[],"default_left":[0,0,0,0,0,0,0,0,0,0,0,0,0,0,0,0,0,0,0,0,0,0,0,0,0,0,0,0,0,0,0],"id":8,"left_children":[1,3,5,7,9,11,13,15,17,19,21,23,25,27,29,-1,-1,-1,-1,-1,-1,-1,-1,-1,-1,-1,-1,-1,-1,-1,-1],"loss_changes":[2.265264E1,1.0256041E1,9.550545E0,5.457085E0,5.035837E0,5.0289E0,1.2079565E1,4.549182E0,5.132887E0,4.376333E0,3.3555899E0,4.0586243E0,2.4396613E0,4.473003E0,3.9305954E0,0E0,0E0,0E0,0E0,0E0,0E0,0E0,0E0,0E0,0E0,0E0,0E0,0E0,0E0,0E0,0E0],"parents":[2147483647,0,0,1,1,2,2,3,3,4,4,5,5,6,6,7,7,8,8,9,9,10,10,11,11,12,12,13,13,14,14],"right_children":[2,4,6,8,10,12,14,16,18,20,22,24,26,28,30,-1,-1,-1,-1,-1,-1,-1,-1,-1,-1,-1,-1,-1,-1,-1,-1],"split_conditions":[0E0,2.8560763E-2,-2.7176768E-1,-2.1908328E-2,3.073425E-1,3.229273E-1,2.3567271E-1,6.3056804E-2,-7.1929425E-1,-1.1837482E0,1.4952716E0,-8.689961E-1,2.739946E-3,0E0,4.5165688E-1,1.0891144E-4,3.8085803E-2,-3.322491E-2,1.1870505E-3,-1.0084161E-2,3.465871E-2,-6.226537E-3,4.1560233E-2,1.0259953E-2,-4.5411896E-2,-1.4912776E-2,2.9703757E-2,-7.7314875E-3,1.8145988E-2,-2.4033895E-2,-0E0],"split_indices":[0,229,95,182,65,222,188,222,242,222,119,7,239,230,213,0,0,0,0,0,0,0,0,0,0,0,0,0,0,0,0],"split_type":[0,0,0,0,0,0,0,0,0,0,0,0,0,0,0,0,0,0,0,0,0,0,0,0,0,0,0,0,0,0,0],"sum_hessian":[3.7525153E2,1.726462E2,2.0260533E2,7.885528E1,9.3790924E1,4.481173E1,1.5779361E2,3.0941225E1,4.791405E1,7.3489E1,2.0301922E1,3.313931E1,1.1672419E1,7.435918E1,8.3434425E1,1.8000423E1,1.2940802E1,1.4328499E1,3.3585552E1,5.242965E0,6.824603E1,1.7006844E1,3.2950797E0,3.069378E0,3.0069931E1,8.646396E0,3.026023E0,2.3019018E1,5.1340164E1,5.989775E1,2.3536673E1],"tree_param":{"num_deleted":"0","num_feature":"251","num_nodes":"31","size_leaf_vector":"1"}},{"base_weights":[1.2099597E-2,2.0869716E-1,-2.5570893E-1,-3.2019714E-1,3.1979126E-1,4.123327E-1,-3.5418922E-1,-4.534073E-1,4.2438343E-2,6.246749E-2,4.909703E-1,-1.145302E-2,6.108282E-1,-7.06775E-1,-2.126418E-1,-1.5798006E-2,-5.8233995E-2,-1.3145852E-2,1.1705288E-2,3.6019783E-2,8.767961E-3,1.4887915E-3,4.1561898E-2,-3.895338E-2,-9.6080237E-4,-2.8623167E-2,-5.6045793E-4],"categories":[],"categories_nodes":[],"categories_segments":[],"categories_sizes":[],"default_left":[0,0,0,0,0,0,0,0,0,0,0,0,0,0,0,0,0,0,0,0,0,0,0,0,0,0,0],"id":9,"left_children":[1,3,5,7,9,11,13,15,-1,17,19,-1,21,23,25,-1,-1,-1,-1,-1,-1,-1,-1,-1,-1,-1,-1],"loss_changes":[1.9808203E1,1.2891696E1,1.0662128E1,6.439127E0,7.8596706E0,2.8964434E0,6.7930717E0,3.0843692E0,0E0,4.2234054E0,7.6351624E0,0E0,2.0119042E0,1.8669357E0,7.3010516E0,0E0,0E0,0E0,0E0,0E0,0E0,0E0,0E0,0E0,0E0,0E0,0E0],"parents":[2147483647,0,0,1,1,2,2,3,3,4,4,5,5,6,6,7,7,9,9,10,10,12,12,13,13,14,14],"right_children":[2,4,6,8,10,12,14,16,-1,18,20,-1,22,24,26,-1,-1,-1,-1,-1,-1,-1,-1,-1,-1,-1,-1],"split_conditions":[-1.02592446E-1,-1.7747182E-1,-9.56002E-1,1.3857114E0,-1.7199127E-1,-8.1224656E-1,-3.3657756E-1,1.3483672E0,4.2438343E-2,-7.131525E-1,4.899439E-1,-1.145302E-2,-8.983092E-3,8.128037E-1,-3.3167046E-1,-1.5798006E-2,-5.8233995E-2,-1.3145852E-2,1.1705288E-2,3.6019783E-2,8.767961E-3,1.4887915E-3,4.1561898E-2,-3.895338E-2,-9.6080237E-4,-2.8623167E-2,-5.6045793E-4],"split_indices":[184,219,0,33,94,74,94,204,0,74,126,0,129,105,245,0,0,0,0,0,0,0,0,0,0,0,0],"split_type":[0,0,0,0,0,0,0,0,0,0,0,0,0,0,0,0,0,0,0,0,0,0,0,0,0,0,0],"sum_hessian":[3.7257812E2,2.1519681E2,1.573813E2,3.687253E1,1.7832428E2,1.9679941E1,1.3770137E2,3.3726837E1,3.145692E0,7.201593E1,1.0630835E2,4.495614E0,1.5184328E1,3.809913E1,9.9602234E1,2.9593052E1,4.133786E0,2.4484612E1,4.753132E1,6.063321E1,4.5675137E1,4.6127677E0,1.057156E1,3.4222332E1,3.8767989E0,3.4907734E1,6.46945E1],"tree_param":{"num_deleted":"0","num_feature":"251","num_nodes":"27","size_leaf_vector":"1"}},{"base_weights":[-1.0985143E-2,2.0084164E-1,-2.7187696E-1,4.8118173E-3,4.532515E-1,-9.2020917E-1,-1.9414875E-1,-4.5617732E-1,1.081214E-1,-2.0734148E-1,5.661189E-1,-1.1083474E0,-1.0201243E-4,-3.5586154E-1,1.8576613E-1,-3.7480395E-2,6.2840716E-3,1.0594688E-2,-2.1345668E-2,-2.8751722E-2,2.7699703E-2,8.8520525E-3,3.8321536E-2,-6.085027E-2,-2.7759692E-2,-2.4958817E-2,-5.898881E-3,1.9153746E-2,-4.2523853E-3],"categories":[],"categories_nodes":[],"categories_segments":[],"categories_sizes":[],"default_left":[0,0,0,0,0,0,0,0,0,0,0,0,0,0,0,0,0,0,0,0,0,0,0,0,0,0,0,0,0],"id":10,"left_children":[1,3,5,7,9,11,13,15,17,19,21,23,-1,25,27,-1,-1,-1,-1,-1,-1,-1,-1,-1,-1,-1,-1,-1,-1],"loss_changes":[2.0714949E1,1.018129E1,8.311942E0,5.699089E0,6.9040794E0,2.9495983E0,9.41992E0,3.9004064E0,5.5371685E0,4.337295E0,5.8461113E0,2.5743866E-1,0E0,3.5567932E0,3.6250398E0,0E0,0E0,0E0,0E0,0E0,0E0,0E0,0E0,0E0,0E0,0E0,0E0,0E0,0E0],"parents":[2147483647,0,0,1,1,2,2,3,3,4,4,5,5,6,6,7,7,8,8,9,9,10,10,11,11,13,13,14,14],"right_children":[2,4,6,8,10,12,14,16,18,20,22,24,-1,26,28,-1,-1,-1,-1,-1,-1,-1,-1,-1,-1,-1,-1,-1,-1],"split_conditions":[-1.2275773E-1,-1.272631E-1,-1.1417414E0,-6.8216E-1,-2.4648863E-1,4.8977622E-1,1.814992E-1,1.226472E-2,9.004835E-1,-1.8912478E-3,-6.779622E-2,4.458306E-1,-1.0201243E-4,-4.3177378E-1,1.2484622E-1,-3.7480395E-2,6.2840716E-3,1.0594688E-2,-2.1345668E-2,-2.8751722E-2,2.7699703E-2,8.8520525E-3,3.8321536E-2,-6.085027E-2,-2.7759692E-2,-2.4958817E-2,-5.898881E-3,1.9153746E-2,-4.2523853E-3],"split_indices":[184,95,115,222,219,78,245,245,30,243,238,241,0,111,2,0,0,0,0,0,0,0,0,0,0,0,0,0,0],"split_type":[0,0,0,0,0,0,0,0,0,0,0,0,0,0,0,0,0,0,0,0,0,0,0,0,0,0,0,0,0],"sum_hessian":[3.7104947E2,2.0469646E2,1.6635301E2,1.1601255E2,8.8683914E1,1.6510805E1,1.4984221E2,2.0436588E1,9.557596E1,1.2689785E1,7.5994125E1,1.3440687E1,3.070118E0,1.0533313E2,4.450908E1,1.3508057E1,6.928531E0,8.071232E1,1.4863646E1,8.810658E0,3.8791258E0,2.6637512E1,4.9356613E1,1.0330034E1,3.110653E0,6.478449E1,4.0548634E1,3.0625864E1,1.3883213E1],"tree_param":{"num_deleted":"0","num_feature":"251","num_nodes":"29","size_leaf_vector":"1"}},{"base_weights":[-1.1340199E-2,-2.196637E-1,2.1571486E-1,4.4783676E-1,-3.0332345E-1,-3.4719035E-1,2.9313335E-1,7.4826574E-1,-1.8226486E-1,-3.88631E-1,4.4974214E-1,-6.748653E-1,2.2988571E-1,-4.9392406E-2,4.3397054E-1,-3.1746544E-3,4.844711E-2,1.269337E-2,-3.113026E-2,-2.9499514E-2,-8.668968E-3,-0E0,3.9161783E-2,-4.567151E-2,-4.8484257E-3,-6.6931644E-3,3.489288E-2,-1.9637922E-2,9.194366E-3,6.790367E-3,3.0213485E-2],"categories":[],"categories_nodes":[],"categories_segments":[],"categories_sizes":[],"default_left":[0,0,0,0,0,0,0,0,0,0,0,0,0,0,0,0,0,0,0,0,0,0,0,0,0,0,0,0,0,0,0],"id":11,"left_children":[1,3,5,7,9,11,13,15,17,19,21,23,25,27,29,-1,-1,-1,-1,-1,-1,-1,-1,-1,-1,-1,-1,-1,-1,-1,-1],"loss_changes":[1.7655779E1,1.10570545E1,7.9182043E0,4.4293294E0,1.1393208E1,4.4270945E0,7.660576E0,2.9159546E0,1.8235226E0,6.662285E0,2.8023527E0,1.8418136E0,1.7202685E0,3.9127238E0,5.5617523E0,0E0,0E0,0E0,0E0,0E0,0E0,0E0,0E0,0E0,0E0,0E0,0E0,0E0,0E0,0E0,0E0],"parents":[2147483647,0,0,1,1,2,2,3,3,4,4,5,5,6,6,7,7,8,8,9,9,10,10,11,11,12,12,13,13,14,14],"right_children":[2,4,6,8,10,12,14,16,18,20,22,24,26,28,30,-1,-1,-1,-1,-1,-1,-1,-1,-1,-1,-1,-1,-1,-1,-1,-1],"split_conditions":[2.8560763E-2,-2.9027772E-1,-9.229224E-1,-4.7319084E-1,1.0127306E0,-2.821075E-1,-1.3659877E-1,-6.288491E-1,-5.1845465E-2,-1.7086442E-1,1.5309438E-1,3.2266006E-1,1.7538145E-1,9.554062E-3,-1.16781525E-1,-3.1746544E-3,4.844711E-2,1.269337E-2,-3.113026E-2,-2.9499514E-2,-8.668968E-3,-0E0,3.9161783E-2,-4.567151E-2,-4.8484257E-3,-6.6931644E-3,3.489288E-2,-1.9637922E-2,9.194366E-3,6.790367E-3,3.0213485E-2],"split_indices":[229,184,222,188,222,241,93,191,41,236,36,116,143,222,213,0,0,0,0,0,0,0,0,0,0,0,0,0,0,0,0],"split_type":[0,0,0,0,0,0,0,0,0,0,0,0,0,0,0,0,0,0,0,0,0,0,0,0,0,0,0,0,0,0,0],"sum_hessian":[3.6946207E2,1.9292549E2,1.7653658E2,2.0868946E1,1.7205655E2,2.076672E1,1.5576987E2,1.4111726E1,6.7572203E0,1.5510313E2,1.6953411E1,1.3248051E1,7.518669E0,4.536888E1,1.1040098E2,3.0716777E0,1.1040048E1,3.4934914E0,3.2637286E0,7.8998085E1,7.610506E1,7.5744534E0,9.378958E0,8.843616E0,4.4044356E0,4.5118914E0,3.0067778E0,1.8250652E1,2.7118229E1,4.1000725E1,6.940025E1],"tree_param":{"num_deleted":"0","num_feature":"251","num_nodes":"31","size_leaf_vector":"1"}},{"base_weights":[-1.2872557E-3,2.1009208E-1,-2.4716875E-1,2.6888847E-2,4.208825E-1,-8.724752E-3,-4.677634E-1,2.2388567E-1,-2.1973395E-1,2.2388567E-1,5.850184E-1,-6.0841984E-1,1.4592429E-1,-9.8859257E-1,-3.4606043E-1,1.1194284E-2,-1.0822133E-2,-1.926792E-2,1.1194284E-2,4.211615E-2,1.1194284E-2,2.1417353E-2,4.187437E-2,-4.1035358E-2,1.160272E-2,-3.1543687E-2,1.221076E-2,-6.080955E-2,-1.6133202E-2,-2.6900468E-2,-3.2296702E-3],"categories":[],"categories_nodes":[],"categories_segments":[],"categories_sizes":[],"default_left":[0,0,0,0,0,0,0,0,0,0,0,0,0,0,0,0,0,0,0,0,0,0,0,0,0,0,0,0,0,0,0],"id":12,"left_children":[1,3,5,7,9,11,13,15,17,19,21,23,25,27,29,-1,-1,-1,-1,-1,-1,-1,-1,-1,-1,-1,-1,-1,-1,-1,-1],"loss_changes":[1.9691303E1,7.81262E0,9.173368E0,6.6934476E0,3.36026E0,8.176517E0,5.4286957E0,3.1999102E0,4.592819E0,2.0510585E0,1.779892E0,3.5091786E0,5.4781885E0,2.0540714E0,4.007324E0,0E0,0E0,0E0,0E0,0E0,0E0,0E0,0E0,0E0,0E0,0E0,0E0,0E0,0E0,0E0,0E0],"parents":[2147483647,0,0,1,1,2,2,3,3,4,4,5,5,6,6,7,7,8,8,9,9,10,10,11,11,12,12,13,13,14,14],"right_children":[2,4,6,8,10,12,14,16,18,20,22,24,26,28,30,-1,-1,-1,-1,-1,-1,-1,-1,-1,-1,-1,-1,-1,-1,-1,-1],"split_conditions":[1.9120039E-1,8.908364E-2,-1.2771367E-1,6.9496E-2,3.8004E-2,-4.5280874E-1,-2.8291264E-1,8.712725E-1,1.3475853E-1,-8.4612286E-1,7.672094E-1,8.085512E-1,-8.911063E-1,5.3178954E-1,1.433271E-1,1.1194284E-2,-1.0822133E-2,-1.926792E-2,1.1194284E-2,4.211615E-2,1.1194284E-2,2.1417353E-2,4.187437E-2,-4.1035358E-2,1.160272E-2,-3.1543687E-2,1.221076E-2,-6.080955E-2,-1.6133202E-2,-2.6900468E-2,-3.2296702E-3],"split_indices":[0,227,184,183,236,219,95,142,8,237,71,8,237,27,144,0,0,0,0,0,0,0,0,0,0,0,0,0,0,0,0],"split_type":[0,0,0,0,0,0,0,0,0,0,0,0,0,0,0,0,0,0,0,0,0,0,0,0,0,0,0,0,0,0,0],"sum_hessian":[3.7504135E2,2.0152945E2,1.7351192E2,1.0867728E2,9.285217E1,8.409993E1,8.941199E1,5.4434044E1,5.424323E1,4.002669E1,5.2825478E1,1.6772455E1,6.732748E1,1.5430845E1,7.398114E1,3.9125904E1,1.5308141E1,4.070932E1,1.353391E1,4.1704016E0,3.5856293E1,3.450555E1,1.831993E1,1.35040865E1,3.2683682E0,6.839416E0,6.048806E1,1.0772567E1,4.658278E0,4.323198E1,3.074916E1],"tree_param":{"num_deleted":"0","num_feature":"251","num_nodes":"31","size_leaf_vector":"1"}},{"base_weights":[-1.309924E-2,-1.9796579E-1,1.9871162E-1,1.3131434E-1,-3.327551E-1,3.502548E-1,-2.318343E-1,3.7370002E-1,-2.3017259E-1,-3.94475E-1,3.5693774E-1,-9.036556E-2,4.6075588E-1,-4.3449625E-1,1.3242026E-1,-2.6505863E-2,2.4266917E-2,1.4847231E-2,-2.4415344E-2,-3.5151433E-2,-1.1420286E-2,3.756726E-2,-7.0546097E-3,-2.5713509E-2,7.0071034E-3,3.6005434E-2,1.4046843E-2,4.5731673E-3,-3.0379811E-2,-1.35562075E-2,2.634168E-2],"categories":[],"categories_nodes":[],"categories_segments":[],"categories_sizes":[],"default_left":[0,0,0,0,0,0,0,0,0,0,0,0,0,0,0,0,0,0,0,0,0,0,0,0,0,0,0,0,0,0,0],"id":13,"left_children":[1,3,5,7,9,11,13,15,17,19,21,23,25,27,29,-1,-1,-1,-1,-1,-1,-1,-1,-1,-1,-1,-1,-1,-1,-1,-1],"loss_changes":[1.4844395E1,9.064656E0,1.1623205E1,5.369301E0,6.3385525E0,6.468437E0,3.5601935E0,4.0033283E0,3.562172E0,6.635952E0,2.667047E0,2.8412316E0,4.6842422E0,2.8959742E0,3.020196E0,0E0,0E0,0E0,0E0,0E0,0E0,0E0,0E0,0E0,0E0,0E0,0E0,0E0,0E0,0E0,0E0],"parents":[2147483647,0,0,1,1,2,2,3,3,4,4,5,5,6,6,7,7,8,8,9,9,10,10,11,11,12,12,13,13,14,14],"right_children":[2,4,6,8,10,12,14,16,18,20,22,24,26,28,30,-1,-1,-1,-1,-1,-1,-1,-1,-1,-1,-1,-1,-1,-1,-1,-1],"split_conditions":[-1.2257394E-1,-2.4347396E-1,4.620713E-3,1.575118E-1,1.1837482E0,-7.578242E-1,1.7843501E-1,-6.1767846E-1,0E0,-8.4556293E-1,3.3013046E-1,-3.7212685E-1,-1.7031033E-1,-7.398292E-1,-1.9978829E-1,-2.6505863E-2,2.4266917E-2,1.4847231E-2,-2.4415344E-2,-3.5151433E-2,-1.1420286E-2,3.756726E-2,-7.0546097E-3,-2.5713509E-2,7.0071034E-3,3.6005434E-2,1.4046843E-2,4.5731673E-3,-3.0379811E-2,-1.35562075E-2,2.634168E-2],"split_indices":[95,184,184,20,222,238,233,69,224,111,3,245,66,60,214,0,0,0,0,0,0,0,0,0,0,0,0,0,0,0,0],"split_type":[0,0,0,0,0,0,0,0,0,0,0,0,0,0,0,0,0,0,0,0,0,0,0,0,0,0,0,0,0,0,0],"sum_hessian":[3.7513995E2,2.0059767E2,1.745423E2,5.805574E1,1.4254193E2,1.2941106E2,4.5131245E1,3.489838E1,2.3157356E1,1.3135971E2,1.1182217E1,2.580229E1,1.0360876E2,2.905017E1,1.6081076E1,3.3261101E0,3.1572271E1,7.4357038E0,1.5721653E1,4.4620377E1,8.6739334E1,6.0685077E0,5.113709E0,8.8076935E0,1.6994598E1,4.0964687E1,6.264407E1,7.1670856E0,2.1883085E1,7.977716E0,8.10336E0],"tree_param":{"num_deleted":"0","num_feature":"251","num_nodes":"31","size_leaf_vector":"1"}},{"base_weights":[-1.5556585E-2,2.0855524E-1,-2.102988E-1,-2.7732098E-2,4.0725207E-1,-3.4368047E-1,9.8448254E-2,5.938534E-1,-1.277593E-1,1.6450101E-1,6.035403E-1,-8.0813926E-1,-2.7539352E-1,4.952392E-1,-1.2261611E-1,4.1119706E-2,6.7103683E-4,-5.016916E-2,-2.779433E-3,2.2729432E-2,-5.400174E-3,4.0914835E-3,3.7623007E-2,-1.1677763E-2,-4.9362633E-2,-9.747256E-3,-4.26102E-2,9.315577E-3,3.6610927E-2,-6.1308057E-3,9.315577E-3],"categories":[],"categories_nodes":[],"categories_segments":[],"categories_sizes":[],"default_left":[0,0,0,0,0,0,0,0,0,0,0,0,0,0,0,0,0,0,0,0,0,0,0,0,0,0,0,0,0,0,0],"id":14,"left_children":[1,3,5,7,9,11,13,15,17,19,21,23,25,27,29,-1,-1,-1,-1,-1,-1,-1,-1,-1,-1,-1,-1,-1,-1,-1,-1],"loss_changes":[1.6489012E1,8.291578E0,8.39685E0,5.170593E0,4.429125E0,4.2909985E0,6.7205577E0,1.438333E0,4.4650655E0,3.652292E0,3.941063E0,1.5181761E0,5.6692753E0,2.9593034E0,1.5836854E0,0E0,0E0,0E0,0E0,0E0,0E0,0E0,0E0,0E0,0E0,0E0,0E0,0E0,0E0,0E0,0E0],"parents":[2147483647,0,0,1,1,2,2,3,3,4,4,5,5,6,6,7,7,8,8,9,9,10,10,11,11,12,12,13,13,14,14],"right_children":[2,4,6,8,10,12,14,16,18,20,22,24,26,28,30,-1,-1,-1,-1,-1,-1,-1,-1,-1,-1,-1,-1,-1,-1,-1,-1],"split_conditions":[0E0,1.4280382E-2,3.8323537E-1,-2.7168816E-1,6.021344E-2,-3.4421197E-1,-5.697035E-1,-3.5501868E-1,-1.1214223E0,-3.863843E-2,-6.0938925E-1,-3.4845114E-1,1.9398577E0,-1.21244594E-1,8.211463E-1,4.1119706E-2,6.7103683E-4,-5.016916E-2,-2.779433E-3,2.2729432E-2,-5.400174E-3,4.0914835E-3,3.7623007E-2,-1.1677763E-2,-4.9362633E-2,-9.747256E-3,-4.26102E-2,9.315577E-3,3.6610927E-2,-6.1308057E-3,9.315577E-3],"split_indices":[0,229,245,184,129,95,22,188,111,182,213,7,36,237,213,0,0,0,0,0,0,0,0,0,0,0,0,0,0,0,0],"split_type":[0,0,0,0,0,0,0,0,0,0,0,0,0,0,0,0,0,0,0,0,0,0,0,0,0,0,0,0,0,0,0],"sum_hessian":[3.739497E2,1.7359265E2,2.0035706E2,7.9458694E1,9.413395E1,1.4006038E2,6.029667E1,1.0191344E1,6.926735E1,4.3135487E1,5.0998466E1,1.6376375E1,1.2368401E2,2.4283276E1,3.6013393E1,6.8895073E0,3.301837E0,4.1864095E0,6.508094E1,2.0747766E1,2.2387722E1,1.1817883E1,3.9180584E1,4.571989E0,1.1804385E1,1.0987145E2,1.3812557E1,7.299044E0,1.6984232E1,2.8066614E1,7.9467807E0],"tree_param":{"num_deleted":"0","num_feature":"251","num_nodes":"31","size_leaf_vector":"1"}},{"base_weights":[7.746206E-3,1.9648392E-1,-2.0870768E-1,2.986085E-1,-1.08494654E-1,-5.926318E-1,-9.409814E-2,4.1610572E-1,1.5958546E-2,-4.272405E-1,1.7331608E-1,-8.392329E-1,9.821525E-2,1.6974244E-1,-2.96061E-1,-0E0,2.753566E-2,-9.0990355E-3,2.3783106E-2,-3.636861E-2,-6.3481107E-3,4.6750404E-2,3.6794975E-4,-4.647751E-2,-6.0147312E-3,-2.0199083E-2,2.757345E-2,3.4318425E-2,5.1680504E-4,-1.0568592E-2,-5.1283337E-2],"categories":[],"categories_nodes":[],"categories_segments":[],"categories_sizes":[],"default_left":[0,0,0,0,0,0,0,0,0,0,0,0,0,0,0,0,0,0,0,0,0,0,0,0,0,0,0,0,0,0,0],"id":15,"left_children":[1,3,5,7,9,11,13,15,17,19,21,23,25,27,29,-1,-1,-1,-1,-1,-1,-1,-1,-1,-1,-1,-1,-1,-1,-1,-1],"loss_changes":[1.5176593E1,6.2496295E0,7.5358353E0,4.9113836E0,4.6955066E0,6.8924465E0,7.266111E0,5.900568E0,4.3316035E0,2.4392643E0,3.4808786E0,1.7116604E0,2.9316964E0,4.840333E0,4.5658216E0,0E0,0E0,0E0,0E0,0E0,0E0,0E0,0E0,0E0,0E0,0E0,0E0,0E0,0E0,0E0,0E0],"parents":[2147483647,0,0,1,1,2,2,3,3,4,4,5,5,6,6,7,7,8,8,9,9,10,10,11,11,12,12,13,13,14,14],"right_children":[2,4,6,8,10,12,14,16,18,20,22,24,26,28,30,-1,-1,-1,-1,-1,-1,-1,-1,-1,-1,-1,-1,-1,-1,-1,-1],"split_conditions":[1.9120039E-1,3.073425E-1,-2.7176768E-1,7.1292573E-1,1.6056286E-2,3.229273E-1,1.9540675E-1,-5.041672E-1,7.894977E-1,7.43357E-1,-4.6982872E-1,6.192431E-1,8.8077885E-1,-3.3870554E-1,1.912004E0,-0E0,2.753566E-2,-9.0990355E-3,2.3783106E-2,-3.636861E-2,-6.3481107E-3,4.6750404E-2,3.6794975E-4,-4.647751E-2,-6.0147312E-3,-2.0199083E-2,2.757345E-2,3.4318425E-2,5.1680504E-4,-1.0568592E-2,-5.1283337E-2],"split_indices":[0,65,95,126,100,222,188,94,206,102,96,227,215,41,0,0,0,0,0,0,0,0,0,0,0,0,0,0,0,0,0],"split_type":[0,0,0,0,0,0,0,0,0,0,0,0,0,0,0,0,0,0,0,0,0,0,0,0,0,0,0,0,0,0,0],"sum_hessian":[3.6757306E2,1.966541E2,1.7091898E2,1.4758336E2,4.9070732E1,3.8133675E1,1.3278531E2,1.0366431E2,4.391906E1,2.2950758E1,2.6119974E1,2.8050777E1,1.0082896E1,5.7427483E1,7.535782E1,2.5545216E1,7.811909E1,3.0970415E1,1.2948645E1,1.1635301E1,1.1315457E1,3.7360504E0,2.2383923E1,2.4536335E1,3.514443E0,4.7301054E0,5.352791E0,1.261381E1,4.4813675E1,6.879875E1,6.5590663E0],"tree_param":{"num_deleted":"0","num_feature":"251","num_nodes":"31","size_leaf_vector":"1"}},{"base_weights":[9.454452E-3,1.795626E-1,-1.9873568E-1,2.54585E-1,-3.3496848E-1,-3.26846E-1,1.6666733E-1,-1.10969745E-1,3.593936E-1,-5.8075166E-1,7.900975E-3,-8.9810616E-1,-2.3809735E-1,-2.599527E-2,2.8621104E-1,-1.2957211E-2,2.3099188E-2,-3.4987327E-2,1.9479463E-2,-0E0,-3.9766576E-2,-2.028948E-2,2.0765709E-2,-1.4177238E-2,-5.0887365E-2,-2.1014022E-2,-7.9440273E-4,2.4802468E-3,3.3324953E-2],"categories":[],"categories_nodes":[],"categories_segments":[],"categories_sizes":[],"default_left":[0,0,0,0,0,0,0,0,0,0,0,0,0,0,0,0,0,0,0,0,0,0,0,0,0,0,0,0,0],"id":16,"left_children":[1,3,5,7,9,11,13,15,17,19,21,23,25,-1,27,-1,-1,-1,-1,-1,-1,-1,-1,-1,-1,-1,-1,-1,-1],"loss_changes":[1.3303211E1,8.105153E0,7.982491E0,7.019167E0,2.342152E0,6.1590567E0,3.865262E0,3.6807334E0,4.8855267E0,1.9642549E0,2.331596E0,8.576498E-1,4.421682E0,0E0,3.4230187E0,0E0,0E0,0E0,0E0,0E0,0E0,0E0,0E0,0E0,0E0,0E0,0E0,0E0,0E0],"parents":[2147483647,0,0,1,1,2,2,3,3,4,4,5,5,6,6,7,7,8,8,9,9,10,10,11,11,12,12,14,14],"right_children":[2,4,6,8,10,12,14,16,18,20,22,24,26,-1,28,-1,-1,-1,-1,-1,-1,-1,-1,-1,-1,-1,-1,-1,-1],"split_conditions":[-1.207758E-1,8.5253316E-1,8.2692215E-3,-5.5031395E-1,1.0579032E-1,-1.1417414E0,-9.2566526E-1,4.7203827E-1,-1.5775273E0,6.5477215E-2,-3.7649685E-1,-5.1319146E-1,5.054431E-1,-2.599527E-2,8.9771464E-2,-1.2957211E-2,2.3099188E-2,-3.4987327E-2,1.9479463E-2,-0E0,-3.9766576E-2,-2.028948E-2,2.0765709E-2,-1.4177238E-2,-5.0887365E-2,-2.1014022E-2,-7.9440273E-4,2.4802468E-3,3.3324953E-2],"split_indices":[184,30,95,222,241,115,241,27,219,25,214,81,37,0,231,0,0,0,0,0,0,0,0,0,0,0,0,0,0],"split_type":[0,0,0,0,0,0,0,0,0,0,0,0,0,0,0,0,0,0,0,0,0,0,0,0,0,0,0,0,0],"sum_hessian":[3.7160297E2,2.048455E2,1.6675746E2,1.7938885E2,2.5456646E1,1.2374992E2,4.3007538E1,3.974658E1,1.3964227E2,1.4593369E1,1.0863278E1,1.5262342E1,1.0848759E2,5.7571335E0,3.7250404E1,3.215345E1,7.5931315E0,3.164349E0,1.3647792E2,4.2416544E0,1.0351714E1,5.270304E0,5.592974E0,3.1724083E0,1.2089933E1,5.8875687E1,4.9611897E1,2.3822199E1,1.3428206E1],"tree_param":{"num_deleted":"0","num_feature":"251","num_nodes":"29","size_leaf_vector":"1"}},{"base_weights":[-2.2300612E-2,1.6242133E-1,-1.8571088E-1,-5.052865E-2,3.4429568E-1,-2.567683E-1,2.5313607E-1,-1.9228487E-1,3.7891334E-1,6.2020693E-2,5.223217E-1,-5.829193E-1,-1.5947208E-1,-2.416487E-1,6.2265027E-1,1.6836332E-3,-3.029812E-2,-8.935387E-3,2.9262496E-2,8.800586E-3,-3.5567835E-2,1.4608561E-2,3.496136E-2,-8.1675025E-3,-3.755257E-2,3.5268445E-3,-1.7659847E-2,1.1503896E-2,-2.2782413E-2,-8.677742E-3,4.1643433E-2],"categories":[],"categories_nodes":[],"categories_segments":[],"categories_sizes":[],"default_left":[0,0,0,0,0,0,0,0,0,0,0,0,0,0,0,0,0,0,0,0,0,0,0,0,0,0,0,0,0,0,0],"id":17,"left_children":[1,3,5,7,9,11,13,15,17,19,21,23,25,27,29,-1,-1,-1,-1,-1,-1,-1,-1,-1,-1,-1,-1,-1,-1,-1,-1],"loss_changes":[1.1166055E1,6.7688766E0,6.220839E0,5.0294437E0,4.648012E0,5.28623E0,5.343329E0,5.8687325E0,2.5256624E0,3.538645E0,3.5079165E0,2.5448523E0,5.970846E0,1.4652338E0,2.9908652E0,0E0,0E0,0E0,0E0,0E0,0E0,0E0,0E0,0E0,0E0,0E0,0E0,0E0,0E0,0E0,0E0],"parents":[2147483647,0,0,1,1,2,2,3,3,4,4,5,5,6,6,7,7,8,8,9,9,10,10,11,11,12,12,13,13,14,14],"right_children":[2,4,6,8,10,12,14,16,18,20,22,24,26,28,30,-1,-1,-1,-1,-1,-1,-1,-1,-1,-1,-1,-1,-1,-1,-1,-1],"split_conditions":[0E0,1.4280382E-2,9.229224E-1,7.894977E-1,-1.16781525E-1,-2.7176768E-1,2.1464767E0,5.357155E-1,-2.1749406E-1,9.0140826E-1,-1.3094859E-1,-1.2015504E0,2.3567271E-1,-3.141684E-1,-3.5295984E-1,1.6836332E-3,-3.029812E-2,-8.935387E-3,2.9262496E-2,8.800586E-3,-3.5567835E-2,1.4608561E-2,3.496136E-2,-8.1675025E-3,-3.755257E-2,3.5268445E-3,-1.7659847E-2,1.1503896E-2,-2.2782413E-2,-8.677742E-3,4.1643433E-2],"split_indices":[0,229,222,206,213,95,112,126,34,182,95,81,188,229,82,0,0,0,0,0,0,0,0,0,0,0,0,0,0,0,0],"split_type":[0,0,0,0,0,0,0,0,0,0,0,0,0,0,0,0,0,0,0,0,0,0,0,0,0,0,0,0,0,0,0],"sum_hessian":[3.656797E2,1.713625E2,1.943172E2,7.9016884E1,9.234562E1,1.6779144E2,2.6525757E1,5.9997253E1,1.9019627E1,3.6454346E1,5.589127E1,3.7170746E1,1.3062068E2,1.1372812E1,1.51529455E1,3.9240376E1,2.0756878E1,5.04226E0,1.3977366E1,3.2557316E1,3.8970308E0,1.7231642E1,3.865963E1,1.1368149E1,2.5802597E1,5.977257E1,7.0848114E1,3.3799183E0,7.992894E0,3.1021643E0,1.2050781E1],"tree_param":{"num_deleted":"0","num_feature":"251","num_nodes":"31","size_leaf_vector":"1"}},{"base_weights":[-1.300957E-2,1.5191041E-1,-2.0582308E-1,2.655533E-2,4.3779525E-1,-8.369017E-1,-1.4673223E-1,2.3217529E-1,-9.136082E-2,2.3217529E-1,6.3620937E-1,-9.8352045E-1,-1.2127595E-2,-2.7297762E-1,1.1702147E-1,1.16087645E-2,-1.7355643E-2,-1.0854631E-2,1.0725606E-2,1.16087645E-2,3.7867304E-2,4.5107137E-2,1.76355E-2,-5.6070443E-2,-2.4110552E-2,-9.557373E-3,-3.7135098E-2,1.28310835E-2,-1.9196218E-2],"categories":[],"categories_nodes":[],"categories_segments":[],"categories_sizes":[],"default_left":[0,0,0,0,0,0,0,0,0,0,0,0,0,0,0,0,0,0,0,0,0,0,0,0,0,0,0,0,0],"id":18,"left_children":[1,3,5,7,9,11,13,15,17,19,21,23,-1,25,27,-1,-1,-1,-1,-1,-1,-1,-1,-1,-1,-1,-1,-1,-1],"loss_changes":[1.1976307E1,7.225715E0,6.3784127E0,5.180827E0,2.8086843E0,9.748039E-1,5.402714E0,1.4972396E0,4.195504E0,1.2186874E0,2.1771173E0,1.9146347E-1,0E0,4.0609493E0,3.829166E0,0E0,0E0,0E0,0E0,0E0,0E0,0E0,0E0,0E0,0E0,0E0,0E0,0E0,0E0],"parents":[2147483647,0,0,1,1,2,2,3,3,4,4,5,5,6,6,7,7,8,8,9,9,10,10,11,11,13,13,14,14],"right_children":[2,4,6,8,10,12,14,16,18,20,22,24,-1,26,28,-1,-1,-1,-1,-1,-1,-1,-1,-1,-1,-1,-1,-1,-1],"split_conditions":[1.9120039E-1,3.926342E-1,-3.7305826E-1,-4.4252756E-1,7.192599E-2,3.8241133E-1,2.724902E-1,4.1266307E-1,6.968339E-1,1.9373553E0,4.959715E-2,6.729568E-1,-1.2127595E-2,1.7092475E-1,1.3384027E0,1.16087645E-2,-1.7355643E-2,-1.0854631E-2,1.0725606E-2,1.16087645E-2,3.7867304E-2,4.5107137E-2,1.76355E-2,-5.6070443E-2,-2.4110552E-2,-9.557373E-3,-3.7135098E-2,1.28310835E-2,-1.9196218E-2],"split_indices":[0,245,95,183,236,116,241,3,34,125,98,210,0,184,0,0,0,0,0,0,0,0,0,0,0,0,0,0,0],"split_type":[0,0,0,0,0,0,0,0,0,0,0,0,0,0,0,0,0,0,0,0,0,0,0,0,0,0,0,0,0],"sum_hessian":[3.723067E2,2.0050307E2,1.7180362E2,1.403882E2,6.011488E1,1.3437583E1,1.5836604E2,3.528199E1,1.051062E2,2.7993715E1,3.2121162E1,1.0118452E1,3.3191302E0,1.07334625E2,5.1031414E1,3.200489E1,3.2771015E0,7.492486E1,3.0181345E1,2.476043E1,3.2332866E0,1.5266087E1,1.6855076E1,6.8091226E0,3.3093295E0,9.2789665E1,1.454496E1,4.0447205E1,1.0584207E1],"tree_param":{"num_deleted":"0","num_feature":"251","num_nodes":"29","size_leaf_vector":"1"}},{"base_weights":[2.604833E-3,-1.515939E-1,2.1014807E-1,-3.4355715E-2,-4.0729004E-1,6.5978676E-1,9.607167E-2,-1.23355485E-1,3.243723E-1,1.6621397E-1,-5.4626805E-1,8.3515674E-1,-4.9215686E-3,-8.770881E-2,2.9572546E-1,-2.970572E-3,-3.271958E-2,-2.2486245E-2,2.3369858E-2,-9.4161285E-3,3.6752664E-2,-3.3636194E-2,1.6663024E-3,-0E0,4.8197724E-2,3.5488926E-2,-8.818768E-3,7.021263E-3,3.5760127E-2],"categories":[],"categories_nodes":[],"categories_segments":[],"categories_sizes":[],"default_left":[0,0,0,0,0,0,0,0,0,0,0,0,0,0,0,0,0,0,0,0,0,0,0,0,0,0,0,0,0],"id":19,"left_children":[1,3,5,7,9,11,13,15,17,19,21,23,-1,25,27,-1,-1,-1,-1,-1,-1,-1,-1,-1,-1,-1,-1,-1,-1],"loss_changes":[1.1920198E1,6.3562613E0,8.074963E0,4.787581E0,5.4741E0,4.4161415E0,4.7781525E0,4.032383E0,3.5658042E0,3.0789537E0,4.0570526E0,2.7190418E0,0E0,4.95767E0,3.935238E0,0E0,0E0,0E0,0E0,0E0,0E0,0E0,0E0,0E0,0E0,0E0,0E0,0E0,0E0],"parents":[2147483647,0,0,1,1,2,2,3,3,4,4,5,5,6,6,7,7,8,8,9,9,10,10,11,11,13,13,14,14],"right_children":[2,4,6,8,10,12,14,16,18,20,22,24,-1,26,28,-1,-1,-1,-1,-1,-1,-1,-1,-1,-1,-1,-1,-1,-1],"split_conditions":[-1.0380661E-1,-6.416396E-2,-2.6363719E-1,8.0422714E-2,0E0,7.364522E-2,6.2970426E-3,2.071271E0,-8.669684E-1,4.0107995E-2,1.0759302E0,-5.732437E-1,-4.9215686E-3,-1.3972818E0,1.9196467E-1,-2.970572E-3,-3.271958E-2,-2.2486245E-2,2.3369858E-2,-9.4161285E-3,3.6752664E-2,-3.3636194E-2,1.6663024E-3,-0E0,4.8197724E-2,3.5488926E-2,-8.818768E-3,7.021263E-3,3.5760127E-2],"split_indices":[95,160,184,71,225,160,241,196,82,73,149,222,0,22,95,0,0,0,0,0,0,0,0,0,0,0,0,0,0],"split_type":[0,0,0,0,0,0,0,0,0,0,0,0,0,0,0,0,0,0,0,0,0,0,0,0,0,0,0,0,0],"sum_hessian":[3.680496E2,2.1104036E2,1.5700925E2,1.4574217E2,6.529819E1,3.0627775E1,1.2638147E2,1.17520454E2,2.822172E1,1.2558599E1,5.273959E1,2.4899199E1,5.728576E0,6.5837845E1,6.054363E1,1.0605068E2,1.1469771E1,3.9577148E0,2.4264004E1,8.040433E0,4.518167E0,4.330349E1,9.436101E0,3.5601482E0,2.133905E1,5.7738304E0,6.006401E1,4.5333324E1,1.5210303E1],"tree_param":{"num_deleted":"0","num_feature":"251","num_nodes":"29","size_leaf_vector":"1"}},{"base_weights":[-1.5519027E-2,2.121605E-1,-1.5278299E-1,-2.2824738E-2,4.3163902E-1,-5.6974244E-1,-6.466176E-2,1.2444325E-1,-5.4258543E-1,6.729183E-2,6.4042413E-1,-9.808458E-1,-3.3963418E-1,2.091651E-1,-2.291848E-1,-3.5109594E-2,1.0290602E-2,-7.300605E-3,-4.862379E-2,-5.8502713E-3,3.4427807E-2,3.890505E-2,6.0030846E-3,-5.4294985E-2,-2.2157578E-2,-2.2187887E-2,1.6953746E-2,1.71752E-2,-9.486044E-3,-2.143466E-2,-1.9307157E-3],"categories":[],"categories_nodes":[],"categories_segments":[],"categories_sizes":[],"default_left":[0,0,0,0,0,0,0,0,0,0,0,0,0,0,0,0,0,0,0,0,0,0,0,0,0,0,0,0,0,0,0],"id":20,"left_children":[1,3,5,7,9,11,13,15,17,19,21,23,25,27,29,-1,-1,-1,-1,-1,-1,-1,-1,-1,-1,-1,-1,-1,-1,-1,-1],"loss_changes":[1.1574549E1,7.2311845E0,8.4465685E0,5.4059377E0,5.401103E0,3.4500093E0,8.737943E0,3.8347404E0,2.4598851E0,3.4269204E0,3.1161766E0,2.435875E-1,2.1719992E0,4.0063753E0,4.552004E0,0E0,0E0,0E0,0E0,0E0,0E0,0E0,0E0,0E0,0E0,0E0,0E0,0E0,0E0,0E0,0E0],"parents":[2147483647,0,0,1,1,2,2,3,3,4,4,5,5,6,6,7,7,8,8,9,9,10,10,11,11,12,12,13,13,14,14],"right_children":[2,4,6,8,10,12,14,16,18,20,22,24,26,28,30,-1,-1,-1,-1,-1,-1,-1,-1,-1,-1,-1,-1,-1,-1,-1,-1],"split_conditions":[-1.9403987E-1,-6.6690575E-3,-2.8291264E-1,1.4117625E0,-2.8622566E-2,-7.578046E-1,-1.3755435E-1,-6.8545836E-1,1.7006623E-2,8.102617E-2,6.4524364E-1,3.073425E-1,8.6368716E-1,6.095448E-1,-1.6792114E-3,-3.5109594E-2,1.0290602E-2,-7.300605E-3,-4.862379E-2,-5.8502713E-3,3.4427807E-2,3.890505E-2,6.0030846E-3,-5.4294985E-2,-2.2157578E-2,-2.2187887E-2,1.6953746E-2,1.71752E-2,-9.486044E-3,-2.143466E-2,-1.9307157E-3],"split_indices":[183,154,95,225,201,36,3,229,46,214,26,154,222,55,241,0,0,0,0,0,0,0,0,0,0,0,0,0,0,0,0],"split_type":[0,0,0,0,0,0,0,0,0,0,0,0,0,0,0,0,0,0,0,0,0,0,0,0,0,0,0,0,0,0,0],"sum_hessian":[3.662762E2,1.37286E2,2.2899023E2,6.6513504E1,7.0772484E1,3.8800293E1,1.9018994E2,5.227125E1,1.4242256E1,2.6437735E1,4.4334747E1,1.2597293E1,2.6203E1,7.1052795E1,1.19137146E2,3.8903193E0,4.838093E1,8.226025E0,6.016231E0,2.0891115E1,5.546619E0,3.4515266E1,9.819481E0,9.529838E0,3.0674548E0,2.3145645E1,3.0573547E0,5.344339E1,1.7609404E1,5.7336872E1,6.1800274E1],"tree_param":{"num_deleted":"0","num_feature":"251","num_nodes":"31","size_leaf_vector":"1"}},{"base_weights":[1.6001685E-3,-1.6330701E-1,1.9959547E-1,3.1157637E-1,-2.2279929E-1,3.599941E-1,-5.0385524E-2,8.0088645E-1,-4.8356388E-2,-2.847533E-1,2.89185E-1,4.507508E-1,-0E0,-3.4826756E-1,2.7096897E-1,1.829972E-2,5.306777E-2,-2.2405276E-2,2.9425154E-2,-2.68113E-2,-8.522685E-3,-2.142799E-2,3.4831982E-2,3.0847136E-2,1.126877E-2,1.126877E-2,-1.0740699E-2,-7.444066E-3,-4.210752E-2,-1.5291273E-2,2.1911047E-2],"categories":[],"categories_nodes":[],"categories_segments":[],"categories_sizes":[],"default_left":[0,0,0,0,0,0,0,0,0,0,0,0,0,0,0,0,0,0,0,0,0,0,0,0,0,0,0,0,0,0,0],"id":21,"left_children":[1,3,5,7,9,11,13,15,17,19,21,23,25,27,29,-1,-1,-1,-1,-1,-1,-1,-1,-1,-1,-1,-1,-1,-1,-1,-1],"loss_changes":[1.2241504E1,5.8702955E0,6.8910213E0,4.2425656E0,5.8991575E0,3.3784046E0,6.621489E0,7.100229E-1,4.00645E0,4.587432E0,6.306369E0,3.6231937E0,1.8209095E0,3.3826952E0,3.3859155E0,0E0,0E0,0E0,0E0,0E0,0E0,0E0,0E0,0E0,0E0,0E0,0E0,0E0,0E0,0E0,0E0],"parents":[2147483647,0,0,1,1,2,2,3,3,4,4,5,5,6,6,7,7,8,8,9,9,10,10,11,11,12,12,13,13,14,14],"right_children":[2,4,6,8,10,12,14,16,18,20,22,24,26,28,30,-1,-1,-1,-1,-1,-1,-1,-1,-1,-1,-1,-1,-1,-1,-1,-1],"split_conditions":[-1.1919364E-1,-8.4341455E-1,3.654433E-1,-3.4791526E-1,2.293767E0,-1.5591437E-1,2.4684407E-2,2.4946772E-1,7.727796E-2,-9.834926E-1,-1.9949539E-1,2.3434715E-1,-6.128042E-1,7.423617E-1,-4.1206113E-1,1.829972E-2,5.306777E-2,-2.2405276E-2,2.9425154E-2,-2.68113E-2,-8.522685E-3,-2.142799E-2,3.4831982E-2,3.0847136E-2,1.126877E-2,1.126877E-2,-1.0740699E-2,-7.444066E-3,-4.210752E-2,-1.5291273E-2,2.1911047E-2],"split_indices":[95,7,183,188,127,22,241,114,9,111,237,45,163,37,236,0,0,0,0,0,0,0,0,0,0,0,0,0,0,0,0],"split_type":[0,0,0,0,0,0,0,0,0,0,0,0,0,0,0,0,0,0,0,0,0,0,0,0,0,0,0,0,0,0,0],"sum_hessian":[3.705989E2,2.020144E2,1.685845E2,2.1831482E1,1.8018292E2,1.0266812E2,6.591638E1,8.85131E0,1.2980172E1,1.6130316E2,1.8879768E1,8.16632E1,2.1004917E1,3.4325512E1,3.1590866E1,4.3602595E0,4.49105E0,8.253162E0,4.7270093E0,4.8978443E1,1.12324715E2,6.729068E0,1.2150701E1,5.013031E1,3.1532894E1,7.169517E0,1.38354E1,2.5524786E1,8.800726E0,6.7805743E0,2.4810293E1],"tree_param":{"num_deleted":"0","num_feature":"251","num_nodes":"31","size_leaf_vector":"1"}},{"base_weights":[1.4177485E-2,-8.9841515E-2,2.4837528E-1,2.1936059E-1,-1.6834933E-1,3.5755232E-1,-1.0846995E-1,5.424111E-1,-7.947596E-3,-2.0134921E-1,7.048115E-1,-1.6332442E-1,4.5794925E-1,-2.4789432E-1,2.8161451E-2,-1.6952166E-2,3.586923E-2,-2.575749E-2,8.839932E-3,-1.5238269E-2,2.3429852E-3,4.6674996E-3,5.51711E-2,2.5992943E-2,-2.3086451E-2,1.5378946E-2,4.0536672E-2,-2.1917531E-2,7.883368E-3],"categories":[],"categories_nodes":[],"categories_segments":[],"categories_sizes":[],"default_left":[0,0,0,0,0,0,0,0,0,0,0,0,0,0,0,0,0,0,0,0,0,0,0,0,0,0,0,0,0],"id":22,"left_children":[1,3,5,7,9,11,13,15,17,19,21,23,25,27,-1,-1,-1,-1,-1,-1,-1,-1,-1,-1,-1,-1,-1,-1,-1],"loss_changes":[9.000375E0,6.241233E0,4.5052805E0,3.9039345E0,6.08457E0,4.7008123E0,2.7771583E0,3.6931396E0,3.1683319E0,5.110632E0,1.7036476E0,3.3778288E0,3.657813E0,2.2232437E0,0E0,0E0,0E0,0E0,0E0,0E0,0E0,0E0,0E0,0E0,0E0,0E0,0E0,0E0,0E0],"parents":[2147483647,0,0,1,1,2,2,3,3,4,4,5,5,6,6,7,7,8,8,9,9,10,10,11,11,12,12,13,13],"right_children":[2,4,6,8,10,12,14,16,18,20,22,24,26,28,-1,-1,-1,-1,-1,-1,-1,-1,-1,-1,-1,-1,-1,-1,-1],"split_conditions":[3.788641E-1,0E0,3.073425E-1,9.6933216E-2,2.7191296E0,-8.1929004E-1,5.310219E-1,-7.9210806E-1,-5.789366E-1,3.073425E-1,-3.439462E-2,-7.0758E-2,-6.334611E-2,3.1981063E-1,2.8161451E-2,-1.6952166E-2,3.586923E-2,-2.575749E-2,8.839932E-3,-1.5238269E-2,2.3429852E-3,4.6674996E-3,5.51711E-2,2.5992943E-2,-2.3086451E-2,1.5378946E-2,4.0536672E-2,-2.1917531E-2,7.883368E-3],"split_indices":[236,225,65,43,71,171,213,94,74,154,222,37,107,5,0,0,0,0,0,0,0,0,0,0,0,0,0,0,0],"split_type":[0,0,0,0,0,0,0,0,0,0,0,0,0,0,0,0,0,0,0,0,0,0,0,0,0,0,0,0,0],"sum_hessian":[3.6423096E2,2.5234242E2,1.1188854E2,5.047587E1,2.0186655E2,8.5889E1,2.5999542E1,2.0456615E1,3.0019255E1,1.9536685E2,6.499691E0,1.3617295E1,7.2271706E1,2.2176245E1,3.8232963E0,3.1382124E0,1.7318403E1,7.68199E0,2.2337265E1,1.3803123E2,5.733563E1,3.1510675E0,3.3486235E0,3.8122E0,9.805096E0,5.2184124E1,2.0087584E1,1.5952173E1,6.224072E0],"tree_param":{"num_deleted":"0","num_feature":"251","num_nodes":"29","size_leaf_vector":"1"}},{"base_weights":[-1.595799E-2,4.1643018E-1,-7.208431E-2,-1.5181089E-2,5.306861E-1,-3.1404343E-1,3.3315986E-2,7.5600725E-1,2.0069978E-1,-4.6040693E-1,-1.4036372E-1,2.133795E-1,-9.639261E-2,4.5716155E-2,6.097833E-3,2.292776E-2,-2.5468474E-2,-3.319889E-2,-1.1485278E-2,-7.018186E-3,-3.0306933E-2,1.6258797E-2,-7.018186E-3,-7.018186E-3,1.1465585E-2],"categories":[],"categories_nodes":[],"categories_segments":[],"categories_sizes":[],"default_left":[0,0,0,0,0,0,0,0,0,0,0,0,0,0,0,0,0,0,0,0,0,0,0,0,0],"id":23,"left_children":[1,3,5,-1,7,9,11,13,15,17,19,21,23,-1,-1,-1,-1,-1,-1,-1,-1,-1,-1,-1,-1],"loss_changes":[9.012643E0,3.7379107E0,8.419607E0,0E0,2.5807552E0,3.5000925E0,5.4133735E0,1.987112E0,3.404905E0,2.8206453E0,1.3122697E0,5.6422234E0,4.0232067E0,0E0,0E0,0E0,0E0,0E0,0E0,0E0,0E0,0E0,0E0,0E0,0E0],"parents":[2147483647,0,0,1,1,2,2,4,4,5,5,6,6,7,7,8,8,9,9,10,10,11,11,12,12],"right_children":[2,4,6,-1,8,10,12,14,16,18,20,22,24,-1,-1,-1,-1,-1,-1,-1,-1,-1,-1,-1,-1],"split_conditions":[-1.1472024E0,-1.0544956E0,-3.8161203E-1,-1.5181089E-2,8.166131E-1,1.5814741E-1,-1.5082462E-1,7.682899E-1,7.3465496E-1,-2.3975931E-1,1.2493773E0,9.004835E-1,7.390045E-1,4.5716155E-2,6.097833E-3,2.292776E-2,-2.5468474E-2,-3.319889E-2,-1.1485278E-2,-7.018186E-3,-3.0306933E-2,1.6258797E-2,-7.018186E-3,-7.018186E-3,1.1465585E-2],"split_indices":[0,243,245,0,122,236,183,201,241,242,65,30,51,0,0,0,0,0,0,0,0,0,0,0,0],"split_type":[0,0,0,0,0,0,0,0,0,0,0,0,0,0,0,0,0,0,0,0,0,0,0,0,0],"sum_hessian":[3.666619E2,4.1184196E1,3.254777E2,5.293216E0,3.5890984E1,9.844789E1,2.2702982E2,2.0380623E1,1.551036E1,6.2365017E1,3.608288E1,9.5115234E1,1.3191457E2,1.5828628E1,4.5519953E0,1.1741558E1,3.7688015E0,3.1902617E1,3.0462399E1,3.137263E1,4.710247E0,8.0516655E1,1.4598578E1,1.0205575E2,2.9858828E1],"tree_param":{"num_deleted":"0","num_feature":"251","num_nodes":"25","size_leaf_vector":"1"}},{"base_weights":[6.1391527E-3,4.8330247E-1,-5.5788506E-2,-6.9585524E-2,6.4712507E-1,-2.6543105E-1,6.1047535E-2,-3.3481024E-2,2.661014E-1,8.1554955E-1,8.119043E-2,-5.6578875E-1,-1.18320845E-1,-2.16301E-1,1.743421E-1,3.1606607E-2,-6.1361003E-3,4.631838E-2,9.465297E-3,2.4548924E-2,-1.8645799E-2,-1.7873442E-2,-4.6228092E-2,-1.261951E-2,1.4535129E-2,-5.03339E-3,-4.6196993E-2,3.18254E-2,5.4734736E-3],"categories":[],"categories_nodes":[],"categories_segments":[],"categories_sizes":[],"default_left":[0,0,0,0,0,0,0,0,0,0,0,0,0,0,0,0,0,0,0,0,0,0,0,0,0,0,0,0,0],"id":24,"left_children":[1,3,5,7,9,11,13,-1,15,17,19,21,23,25,27,-1,-1,-1,-1,-1,-1,-1,-1,-1,-1,-1,-1,-1,-1],"loss_changes":[1.0996271E1,3.9854898E0,8.046639E0,2.4954255E0,3.0307055E0,5.10629E0,6.669117E0,0E0,1.2660623E0,1.5159531E0,1.987908E0,2.5163708E0,4.5329027E0,4.9434843E0,4.4448857E0,0E0,0E0,0E0,0E0,0E0,0E0,0E0,0E0,0E0,0E0,0E0,0E0,0E0,0E0],"parents":[2147483647,0,0,1,1,2,2,3,3,4,4,5,5,6,6,8,8,9,9,10,10,11,11,12,12,13,13,14,14],"right_children":[2,4,6,8,10,12,14,-1,16,18,20,22,24,26,28,-1,-1,-1,-1,-1,-1,-1,-1,-1,-1,-1,-1,-1,-1],"split_conditions":[-1.1472024E0,-3.9142102E-1,-1.21380925E-1,-1.05641514E-1,1.4796385E0,-7.156613E-1,-4.0781802E-1,-3.3481024E-2,1.6489346E-1,1.2303878E0,-1.5296031E0,4.274433E-1,5.4364467E-1,1.6595811E0,-3.424048E-1,3.1606607E-2,-6.1361003E-3,4.631838E-2,9.465297E-3,2.4548924E-2,-1.8645799E-2,-1.7873442E-2,-4.6228092E-2,-1.261951E-2,1.4535129E-2,-5.03339E-3,-4.6196993E-2,3.18254E-2,5.4734736E-3],"split_indices":[0,246,93,114,121,74,245,0,149,98,0,126,241,36,184,0,0,0,0,0,0,0,0,0,0,0,0,0,0],"split_type":[0,0,0,0,0,0,0,0,0,0,0,0,0,0,0,0,0,0,0,0,0,0,0,0,0,0,0,0,0],"sum_hessian":[3.6516278E2,4.135165E1,3.2381113E2,9.443941E0,3.190771E1,1.15732605E2,2.0807852E2,3.1379774E0,6.305964E0,2.4113628E1,7.7940807E0,3.688928E1,7.884333E1,5.9827396E1,1.4825113E2,3.0583363E0,3.2476275E0,1.9945255E1,4.168372E0,4.170035E0,3.624046E0,2.4777456E1,1.211182E1,5.985239E1,1.8990936E1,5.252759E1,7.299806E0,1.697372E1,1.312774E2],"tree_param":{"num_deleted":"0","num_feature":"251","num_nodes":"29","size_leaf_vector":"1"}},{"base_weights":[1.6959346E-3,-9.541397E-2,2.5470346E-1,-1.5954943E-1,3.124229E-1,5.3441447E-1,8.3207116E-2,-5.047163E-1,-8.531844E-2,5.1217813E-2,1.879299E-1,6.724097E-1,-5.094152E-2,1.5198965E-1,-4.4056367E-2,-3.623592E-2,-1.1166551E-2,7.4539045E-3,-9.419375E-3,1.9055514E-2,-2.439496E-2,3.926226E-2,-5.181818E-3,-2.8775949E-2,2.2697968E-2,1.2871307E-2,-2.2111405E-2],"categories":[],"categories_nodes":[],"categories_segments":[],"categories_sizes":[],"default_left":[0,0,0,0,0,0,0,0,0,0,0,0,0,0,0,0,0,0,0,0,0,0,0,0,0,0,0],"id":25,"left_children":[1,3,5,7,9,11,13,15,17,-1,19,21,23,25,-1,-1,-1,-1,-1,-1,-1,-1,-1,-1,-1,-1,-1],"loss_changes":[9.16115E0,7.08473E0,4.8945823E0,5.91027E0,3.088986E0,3.2555904E0,4.5686593E0,2.3389177E0,4.7161055E0,0E0,4.5276527E0,2.949335E0,2.6312406E0,4.0711765E0,0E0,0E0,0E0,0E0,0E0,0E0,0E0,0E0,0E0,0E0,0E0,0E0,0E0],"parents":[2147483647,0,0,1,1,2,2,3,3,4,4,5,5,6,6,7,7,8,8,10,10,11,11,12,12,13,13],"right_children":[2,4,6,8,10,12,14,16,18,-1,20,22,24,26,-1,-1,-1,-1,-1,-1,-1,-1,-1,-1,-1,-1,-1],"split_conditions":[-1.9306043E-2,4.3820202E-1,-5.59488E-2,-6.65282E-1,-8.862842E-1,4.839794E-1,3.8291674E0,3.1502E-1,-2.4347396E-1,5.1217813E-2,8.4687316E-1,6.2517655E-1,5.776971E-1,1.0231147E0,-4.4056367E-2,-3.623592E-2,-1.1166551E-2,7.4539045E-3,-9.419375E-3,1.9055514E-2,-2.439496E-2,3.926226E-2,-5.181818E-3,-2.8775949E-2,2.2697968E-2,1.2871307E-2,-2.2111405E-2],"split_indices":[95,219,182,238,9,161,198,100,184,0,126,172,113,162,0,0,0,0,0,0,0,0,0,0,0,0,0],"split_type":[0,0,0,0,0,0,0,0,0,0,0,0,0,0,0,0,0,0,0,0,0,0,0,0,0,0,0],"sum_hessian":[3.6739255E2,2.6565567E2,1.017369E2,2.3029414E2,3.5361526E1,3.7642536E1,6.409437E1,3.9495853E1,1.9079828E2,4.0677805E0,3.1293745E1,3.0479286E1,7.163249E0,6.071021E1,3.3841558E0,2.108194E1,1.8413912E1,5.7841125E1,1.3295715E2,2.4791378E1,6.502368E0,2.6712368E1,3.7669184E0,3.541709E0,3.62154E0,5.2185596E1,8.5246105E0],"tree_param":{"num_deleted":"0","num_feature":"251","num_nodes":"27","size_leaf_vector":"1"}},{"base_weights":[9.029294E-3,3.897287E-2,-7.9872197E-1,4.2695177E-1,-1.2098153E-2,-4.1019893E-1,-5.543374E-2,-3.6766846E-2,6.1746323E-1,-1.3251244E-1,1.7205568E-1,-0E0,-3.7592072E-2,2.2479676E-2,-1.7337164E-2,3.624579E-2,-8.327658E-3,-1.2196962E-2,5.615023E-3,1.082849E-2,-3.1955816E-2],"categories":[],"categories_nodes":[],"categories_segments":[],"categories_sizes":[],"default_left":[0,0,0,0,0,0,0,0,0,0,0,0,0,0,0,0,0,0,0,0,0],"id":26,"left_children":[1,3,5,7,9,11,-1,13,15,17,19,-1,-1,-1,-1,-1,-1,-1,-1,-1,-1],"loss_changes":[8.9611225E0,7.1311646E0,1.1018972E0,3.7814937E0,7.020887E0,1.1241863E0,0E0,2.2332053E0,2.7196207E0,5.2743444E0,4.706939E0,0E0,0E0,0E0,0E0,0E0,0E0,0E0,0E0,0E0,0E0],"parents":[2147483647,0,0,1,1,2,2,3,3,4,4,5,5,7,7,8,8,9,9,10,10],"right_children":[2,4,6,8,10,12,-1,14,16,18,20,-1,-1,-1,-1,-1,-1,-1,-1,-1,-1],"split_conditions":[1.912004E0,-1.1472024E0,1.1070858E-1,-4.4495624E-1,2.0116499E-1,-8.804233E-2,-5.543374E-2,3.6784482E-1,1.4117625E0,2.724902E-1,1.5197569E0,-0E0,-3.7592072E-2,2.2479676E-2,-1.7337164E-2,3.624579E-2,-8.327658E-3,-1.2196962E-2,5.615023E-3,1.082849E-2,-3.1955816E-2],"split_indices":[0,0,41,202,236,128,0,187,225,241,30,0,0,0,0,0,0,0,0,0,0],"split_type":[0,0,0,0,0,0,0,0,0,0,0,0,0,0,0,0,0,0,0,0,0],"sum_hessian":[3.644959E2,3.5250406E2,1.1991877E1,4.0375504E1,3.1212854E2,6.495668E0,5.496208E0,1.1839477E1,2.8536028E1,1.8922305E2,1.2290549E2,3.3965278E0,3.0991402E0,4.307652E0,7.531825E0,2.5274931E1,3.2610965E0,1.3031989E2,5.890317E1,1.173235E2,5.581985E0],"tree_param":{"num_deleted":"0","num_feature":"251","num_nodes":"21","size_leaf_vector":"1"}},{"base_weights":[1.2187217E-3,1.7308307E-1,-1.4606825E-1,4.5179516E-2,1.370085E-1,-8.7536633E-1,-1.0791496E-1,1.9956892E-2,3.5731128E-1,-5.4507494E-2,-1.4198829E-2,-2.6860933E-3,-3.3211088E-1,1.8017152E-2,-3.906442E-3,-1.7145446E-2,2.1264268E-2,-2.1638856E-3,4.467487E-2,-3.4226272E-2,-7.732165E-3],"categories":[],"categories_nodes":[],"categories_segments":[],"categories_sizes":[],"default_left":[0,0,0,0,0,0,0,0,0,0,0,0,0,0,0,0,0,0,0,0,0],"id":27,"left_children":[1,3,5,-1,7,9,11,13,15,-1,-1,17,19,-1,-1,-1,-1,-1,-1,-1,-1],"loss_changes":[9.330162E0,4.4045916E0,5.449691E0,0E0,4.1948175E0,8.608794E-1,4.4522953E0,3.7293558E0,2.9037638E0,0E0,0E0,4.848884E0,3.653098E0,0E0,0E0,0E0,0E0,0E0,0E0,0E0,0E0],"parents":[2147483647,0,0,1,1,2,2,4,4,5,5,6,6,7,7,8,8,11,11,12,12],"right_children":[2,4,6,-1,8,10,12,14,16,-1,-1,18,20,-1,-1,-1,-1,-1,-1,-1,-1],"split_conditions":[0E0,-1.2105193E0,-1.2303334E0,4.5179516E-2,7.774531E-2,-6.077868E-1,5.132771E-1,0E0,-1.7105119E0,-5.4507494E-2,-1.4198829E-2,1.6926451E0,-5.379415E-1,1.8017152E-2,-3.906442E-3,-1.7145446E-2,2.1264268E-2,-2.1638856E-3,4.467487E-2,-3.4226272E-2,-7.732165E-3],"split_indices":[0,177,237,0,8,74,128,200,4,0,0,241,245,0,0,0,0,0,0,0,0],"split_type":[0,0,0,0,0,0,0,0,0,0,0,0,0,0,0,0,0,0,0,0,0],"sum_hessian":[3.6396875E2,1.6820253E2,1.9576624E2,6.653323E0,1.6154921E2,8.511172E0,1.8725507E2,1.065052E2,5.5044003E1,5.500876E0,3.010296E0,1.2843205E2,5.882301E1,2.345506E1,8.305015E1,4.3825226E0,5.066148E1,1.23884155E2,4.5478992E0,1.8555294E1,4.0267715E1],"tree_param":{"num_deleted":"0","num_feature":"251","num_nodes":"21","size_leaf_vector":"1"}},{"base_weights":[1.07809855E-2,1.0089301E-1,-2.643525E-1,-3.8639475E-2,2.6972803E-1,-4.7789326E-1,-1.7717864E-2,-6.887802E-1,-0E0,7.713299E-2,4.7038075E-1,-2.795723E-1,-8.094361E-1,-5.2779E-1,1.0993551E-1,-4.712483E-2,-1.7219504E-2,2.1649517E-2,-3.600786E-3,1.5331419E-2,-1.0537549E-2,1.7355306E-2,5.269879E-2,-2.4251593E-2,4.7921147E-3,-7.4048876E-3,-4.6843838E-2,-4.234674E-2,-1.0446362E-2,2.588799E-2,-9.24454E-3],"categories":[],"categories_nodes":[],"categories_segments":[],"categories_sizes":[],"default_left":[0,0,0,0,0,0,0,0,0,0,0,0,0,0,0,0,0,0,0,0,0,0,0,0,0,0,0,0,0,0,0],"id":28,"left_children":[1,3,5,7,9,11,13,15,17,19,21,23,25,27,29,-1,-1,-1,-1,-1,-1,-1,-1,-1,-1,-1,-1,-1,-1,-1,-1],"loss_changes":[9.1400175E0,6.582494E0,4.735985E0,3.9387345E0,4.8121643E0,2.947031E0,3.0293798E0,7.280946E-1,4.6289654E0,4.4868217E0,4.067606E0,2.5975404E0,1.2635403E0,9.5974064E-1,4.471973E0,0E0,0E0,0E0,0E0,0E0,0E0,0E0,0E0,0E0,0E0,0E0,0E0,0E0,0E0,0E0,0E0],"parents":[2147483647,0,0,1,1,2,2,3,3,4,4,5,5,6,6,7,7,8,8,9,9,10,10,11,11,12,12,13,13,14,14],"right_children":[2,4,6,8,10,12,14,16,18,20,22,24,26,28,30,-1,-1,-1,-1,-1,-1,-1,-1,-1,-1,-1,-1,-1,-1,-1,-1],"split_conditions":[-1.149742E-2,-1.272631E-1,4.1982505E-1,-1.71929E0,6.2970426E-3,3.2221764E-2,-9.3807405E-1,1.4308858E0,-5.2047E-1,4.6272743E-1,8.584052E-1,-5.712153E-1,-2.6356706E-1,5.376633E-1,5.502174E-2,-4.712483E-2,-1.7219504E-2,2.1649517E-2,-3.600786E-3,1.5331419E-2,-1.0537549E-2,1.7355306E-2,5.269879E-2,-2.4251593E-2,4.7921147E-3,-7.4048876E-3,-4.6843838E-2,-4.234674E-2,-1.0446362E-2,2.588799E-2,-9.24454E-3],"split_indices":[184,95,135,245,241,239,245,107,2,126,37,229,7,187,3,0,0,0,0,0,0,0,0,0,0,0,0,0,0,0,0],"split_type":[0,0,0,0,0,0,0,0,0,0,0,0,0,0,0,0,0,0,0,0,0,0,0,0,0,0,0,0,0,0,0],"sum_hessian":[3.6437973E2,2.7523215E2,8.914758E1,1.5079092E2,1.2444122E2,4.7059498E1,4.2088085E1,7.505855E0,1.4328506E2,6.445619E1,5.9985027E1,3.0787827E1,1.6271671E1,7.954127E0,3.413396E1,4.0450916E0,3.4607635E0,1.9705397E1,1.23579666E2,3.6022236E1,2.8433958E1,5.0982048E1,9.002978E0,1.9881384E1,1.0906443E1,3.105067E0,1.3166605E1,3.5447586E0,4.4093685E0,1.4147367E1,1.9986593E1],"tree_param":{"num_deleted":"0","num_feature":"251","num_nodes":"31","size_leaf_vector":"1"}},{"base_weights":[-4.4798334E-3,8.611008E-2,-2.655608E-1,-8.3670616E-2,2.9304907E-1,-1.2957032E-1,-5.916063E-1,-1.7767285E-1,2.1213445E-1,5.0084116E-3,4.6102843E-1,-5.297554E-1,-2.6181E-3,-8.1120443E-1,1.3324486E-1,3.1381164E-2,-1.2253333E-2,-1.9217803E-3,2.8718332E-2,-3.4414552E-2,4.9521835E-3,1.5855463E-3,2.7314976E-2,-3.6838707E-2,-0E0,-1.5798286E-2,8.595254E-3,-4.6998437E-2,-9.759228E-3,-1.2964092E-2,2.5397796E-2],"categories":[],"categories_nodes":[],"categories_segments":[],"categories_sizes":[],"default_left":[0,0,0,0,0,0,0,0,0,0,0,0,0,0,0,0,0,0,0,0,0,0,0,0,0,0,0,0,0,0,0],"id":29,"left_children":[1,3,5,7,9,11,13,15,17,19,21,23,25,27,29,-1,-1,-1,-1,-1,-1,-1,-1,-1,-1,-1,-1,-1,-1,-1,-1],"loss_changes":[8.757903E0,9.657137E0,4.141938E0,4.263108E0,5.9387217E0,3.4976387E0,4.604782E0,6.470743E0,3.4544668E0,3.2006118E0,2.7848206E0,1.8559966E0,3.0680957E0,1.4542704E0,1.330522E0,0E0,0E0,0E0,0E0,0E0,0E0,0E0,0E0,0E0,0E0,0E0,0E0,0E0,0E0,0E0,0E0],"parents":[2147483647,0,0,1,1,2,2,3,3,4,4,5,5,6,6,7,7,8,8,9,9,10,10,11,11,12,12,13,13,14,14],"right_children":[2,4,6,8,10,12,14,16,18,20,22,24,26,28,30,-1,-1,-1,-1,-1,-1,-1,-1,-1,-1,-1,-1,-1,-1,-1,-1],"split_conditions":[-1.6807517E-2,-1.272631E-1,5.754087E-1,4.327395E-1,-1.2784266E-1,-9.946978E-1,6.577811E-1,-8.972282E-1,5.759312E-1,-1.0380675E0,-6.581789E-1,6.581789E-1,-1.490692E-2,3.7782256E-2,1.1312215E0,3.1381164E-2,-1.2253333E-2,-1.9217803E-3,2.8718332E-2,-3.4414552E-2,4.9521835E-3,1.5855463E-3,2.7314976E-2,-3.6838707E-2,-0E0,-1.5798286E-2,8.595254E-3,-4.6998437E-2,-9.759228E-3,-1.2964092E-2,2.5397796E-2],"split_indices":[184,95,162,72,238,242,60,2,124,241,220,220,151,241,170,0,0,0,0,0,0,0,0,0,0,0,0,0,0,0,0],"split_type":[0,0,0,0,0,0,0,0,0,0,0,0,0,0,0,0,0,0,0,0,0,0,0,0,0,0,0,0,0,0,0],"sum_hessian":[3.646311E2,2.7091583E2,9.3715256E1,1.4888078E2,1.22035065E2,6.73347E1,2.638056E1,1.1353769E2,3.5343086E1,4.555142E1,7.648365E1,1.5262602E1,5.2072098E1,2.0261147E1,6.119413E0,8.011445E0,1.05526245E2,2.1256777E1,1.408631E1,4.5586505E0,4.099277E1,1.309556E1,6.338809E1,1.0750404E1,4.512198E0,1.8542503E1,3.3529594E1,1.6189013E1,4.072133E0,3.0087686E0,3.1106443E0],"tree_param":{"num_deleted":"0","num_feature":"251","num_nodes":"31","size_leaf_vector":"1"}},{"base_weights":[3.6423965E-3,-5.111137E-1,4.8873145E-2,1.0805258E-2,-6.0715204E-1,1.0116941E-1,-4.1771212E-1,-7.164384E-1,-0E0,-6.8701684E-1,1.2506807E-1,-5.553017E-1,9.210196E-2,-4.6188783E-2,-1.4650131E-2,-5.2681725E-2,-1.404872E-2,4.958738E-3,4.0409967E-2,-3.4268606E-2,-6.27356E-3,-2.0904683E-2,2.5940707E-2],"categories":[],"categories_nodes":[],"categories_segments":[],"categories_sizes":[],"default_left":[0,0,0,0,0,0,0,0,0,0,0,0,0,0,0,0,0,0,0,0,0,0,0],"id":30,"left_children":[1,3,5,-1,7,9,11,13,-1,15,17,19,21,-1,-1,-1,-1,-1,-1,-1,-1,-1,-1],"loss_changes":[8.524636E0,2.2699647E0,8.25683E0,0E0,1.7048731E0,5.849708E0,2.5055294E0,1.6444511E0,0E0,1.9267735E0,5.1775465E0,1.3831997E0,2.107128E0,0E0,0E0,0E0,0E0,0E0,0E0,0E0,0E0,0E0,0E0],"parents":[2147483647,0,0,1,1,2,2,4,4,5,5,6,6,7,7,9,9,10,10,11,11,12,12],"right_children":[2,4,6,-1,8,10,12,14,-1,16,18,20,22,-1,-1,-1,-1,-1,-1,-1,-1,-1,-1],"split_conditions":[-1.0456289E0,-1.3143857E0,1.7956461E-1,1.0805258E-2,1.2841902E0,-1.71929E0,1.538911E0,1.5517057E-1,-0E0,8.489113E-1,1.9575527E0,4.4885732E-2,3.4910026E-1,-4.6188783E-2,-1.4650131E-2,-5.2681725E-2,-1.404872E-2,4.958738E-3,4.0409967E-2,-3.4268606E-2,-6.27356E-3,-2.0904683E-2,2.5940707E-2],"split_indices":[249,218,184,0,170,245,187,9,0,102,213,231,100,0,0,0,0,0,0,0,0,0,0],"split_type":[0,0,0,0,0,0,0,0,0,0,0,0,0,0,0,0,0,0,0,0,0,0,0],"sum_hessian":[3.6126788E2,2.8169474E1,3.3309842E2,3.0188427E0,2.515063E1,3.0042355E2,3.267487E1,2.1059946E1,4.090684E0,7.9013963E0,2.9252216E2,2.5814838E1,6.8600316E0,1.3185719E1,7.874228E0,4.695064E0,3.2063322E0,2.8308374E2,9.438405E0,1.9182795E1,6.632044E0,3.0268483E0,3.8331833E0],"tree_param":{"num_deleted":"0","num_feature":"251","num_nodes":"23","size_leaf_vector":"1"}},{"base_weights":[-1.1771656E-2,5.6182195E-2,-3.2633775E-1,8.085626E-2,-7.00013E-1,-4.339346E-1,4.7727343E-1,3.1383827E-1,1.2513559E-2,-4.7248095E-2,-5.471224E-3,-2.8628233E-1,-7.617157E-1,3.660658E-2,2.1044796E-3,3.641623E-2,4.320317E-3,-6.952449E-3,1.0142618E-2,-2.1748666E-2,1.2082438E-2,-4.6256553E-2,-7.0154393E-4],"categories":[],"categories_nodes":[],"categories_segments":[],"categories_sizes":[],"default_left":[0,0,0,0,0,0,0,0,0,0,0,0,0,0,0,0,0,0,0,0,0,0,0],"id":31,"left_children":[1,3,5,7,9,11,13,15,17,-1,-1,19,21,-1,-1,-1,-1,-1,-1,-1,-1,-1,-1],"loss_changes":[7.9016604E0,5.7367363E0,5.9472103E0,4.6543612E0,1.2297249E0,2.6085281E0,8.441534E-1,6.153515E0,6.6425924E0,0E0,0E0,3.485435E0,2.0313597E0,0E0,0E0,0E0,0E0,0E0,0E0,0E0,0E0,0E0,0E0],"parents":[2147483647,0,0,1,1,2,2,3,3,4,4,5,5,6,6,7,7,8,8,11,11,12,12],"right_children":[2,4,6,8,10,12,14,16,18,-1,-1,20,22,-1,-1,-1,-1,-1,-1,-1,-1,-1,-1],"split_conditions":[5.653063E-2,1.912004E0,9.3227714E-1,-6.8792844E-1,2.9044348E-1,4.4767857E-3,1.7166046E-2,-2.6471287E-1,3.9760283E-1,-4.7248095E-2,-5.471224E-3,9.088622E-1,1.1994505E-1,3.660658E-2,2.1044796E-3,3.641623E-2,4.320317E-3,-6.952449E-3,1.0142618E-2,-2.1748666E-2,1.2082438E-2,-4.6256553E-2,-7.0154393E-4],"split_indices":[184,0,241,183,222,191,160,123,100,0,0,98,111,0,0,0,0,0,0,0,0,0,0],"split_type":[0,0,0,0,0,0,0,0,0,0,0,0,0,0,0,0,0,0,0,0,0,0,0],"sum_hessian":[3.6306107E2,2.989781E2,6.408297E1,2.9052383E2,8.454255E0,5.7031395E1,7.0515704E0,6.474639E1,2.2577745E2,5.4319677E0,3.0222874E0,4.082145E1,1.6209948E1,3.8719115E0,3.1796587E0,2.2003592E1,4.27428E1,1.2554937E2,1.0022807E2,3.2135918E1,8.685532E0,1.2998007E1,3.2119412E0],"tree_param":{"num_deleted":"0","num_feature":"251","num_nodes":"23","size_leaf_vector":"1"}},{"base_weights":[-1.0192882E-2,-2.0878962E-1,8.803407E-2,-3.0450347E-1,2.533757E-1,1.7154221E-1,-2.3681542E-1,-4.50793E-1,-4.86484E-2,-2.556388E-2,4.9752566E-1,2.3627548E-1,-2.2586285E-1,-6.174433E-1,-4.652243E-2,-3.1856112E-2,-1.2486035E-2,-1.278194E-3,-1.2486035E-2,-1.278194E-3,2.3794824E-2,3.6682054E-2,-0E0,1.7271128E-2,-2.7333174E-4,-1.9324213E-2,1.693267E-2,-4.2638954E-2,6.4975056E-3,1.0795731E-2,-1.9315347E-2],"categories":[],"categories_nodes":[],"categories_segments":[],"categories_sizes":[],"default_left":[0,0,0,0,0,0,0,0,0,0,0,0,0,0,0,0,0,0,0,0,0,0,0,0,0,0,0,0,0,0,0],"id":32,"left_children":[1,3,5,7,9,11,13,15,17,19,21,23,25,27,29,-1,-1,-1,-1,-1,-1,-1,-1,-1,-1,-1,-1,-1,-1,-1,-1],"loss_changes":[7.178214E0,5.5008736E0,6.7052236E0,3.740099E0,2.2509227E0,5.1179967E0,3.6105206E0,2.951415E0,1.3223169E0,1.3396945E0,1.6490154E0,4.492199E0,2.7335253E0,3.141202E0,3.2950647E0,0E0,0E0,0E0,0E0,0E0,0E0,0E0,0E0,0E0,0E0,0E0,0E0,0E0,0E0,0E0,0E0],"parents":[2147483647,0,0,1,1,2,2,3,3,4,4,5,5,6,6,7,7,8,8,9,9,10,10,11,11,12,12,13,13,14,14],"right_children":[2,4,6,8,10,12,14,16,18,20,22,24,26,28,30,-1,-1,-1,-1,-1,-1,-1,-1,-1,-1,-1,-1,-1,-1,-1,-1],"split_conditions":[-5.636726E-1,6.1933106E-1,1.4117625E0,-4.3177378E-1,2.2777985E-1,8.84745E-2,3.649377E-2,4.6122707E-2,9.636558E-2,1.8022525E-1,1.1070858E-1,3.073425E-1,1.175756E-1,6.749166E-1,1.6341865E-1,-3.1856112E-2,-1.2486035E-2,-1.278194E-3,-1.2486035E-2,-1.278194E-3,2.3794824E-2,3.6682054E-2,-0E0,1.7271128E-2,-2.7333174E-4,-1.9324213E-2,1.693267E-2,-4.2638954E-2,6.4975056E-3,1.0795731E-2,-1.9315347E-2],"split_indices":[242,213,225,111,161,184,201,236,41,9,41,65,95,100,182,0,0,0,0,0,0,0,0,0,0,0,0,0,0,0,0],"split_type":[0,0,0,0,0,0,0,0,0,0,0,0,0,0,0,0,0,0,0,0,0,0,0,0,0,0,0,0,0,0,0],"sum_hessian":[3.624711E2,1.19915855E2,2.4255522E2,9.980407E1,2.0111788E1,1.935736E2,4.8981644E1,6.2764587E1,3.7039486E1,7.0581374E0,1.305365E1,1.6702412E2,2.654946E1,1.5402683E1,3.357896E1,3.6010384E1,2.6754206E1,2.4034475E1,1.300501E1,3.1267624E0,3.931375E0,8.439319E0,4.6143312E0,1.15059364E2,5.1964764E1,2.1052048E1,5.4974113E0,1.1708696E1,3.6939867E0,1.8985504E1,1.4593455E1],"tree_param":{"num_deleted":"0","num_feature":"251","num_nodes":"31","size_leaf_vector":"1"}},{"base_weights":[-1.2528231E-2,7.819197E-1,-4.1703176E-2,3.267966E-3,5.227369E-2,8.206881E-2,-1.7402135E-1,7.5655395E-1,5.096959E-2,-8.706344E-1,-1.3797945E-1,5.4024417E-2,1.2338226E-2,8.79103E-3,-6.3826106E-3,-5.2412923E-2,-2.0645348E-2,-9.653482E-3,1.3492032E-2],"categories":[],"categories_nodes":[],"categories_segments":[],"categories_sizes":[],"default_left":[0,0,0,0,0,0,0,0,0,0,0,0,0,0,0,0,0,0,0],"id":33,"left_children":[1,3,5,-1,-1,7,9,11,13,15,17,-1,-1,-1,-1,-1,-1,-1,-1],"loss_changes":[8.536089E0,2.3018327E0,5.8194027E0,0E0,0E0,3.8390312E0,4.2264795E0,1.0026445E0,3.980299E0,1.9464254E-1,3.781134E0,0E0,0E0,0E0,0E0,0E0,0E0,0E0,0E0],"parents":[2147483647,0,0,1,1,2,2,5,5,6,6,7,7,8,8,9,9,10,10],"right_children":[2,4,6,-1,-1,8,10,12,14,16,18,-1,-1,-1,-1,-1,-1,-1,-1],"split_conditions":[-1.7208036E0,-9.300745E-2,1.9120039E-1,3.267966E-3,5.227369E-2,-1.2707639E0,-1.2601976E0,-8.661838E-1,5.460141E-1,8.8077885E-1,1.0127306E0,5.4024417E-2,1.2338226E-2,8.79103E-3,-6.3826106E-3,-5.2412923E-2,-2.0645348E-2,-9.653482E-3,1.3492032E-2],"split_indices":[0,129,0,0,0,177,237,163,126,215,222,0,0,0,0,0,0,0,0],"split_type":[0,0,0,0,0,0,0,0,0,0,0,0,0,0,0,0,0,0,0],"sum_hessian":[3.6207245E2,1.1790224E1,3.5028223E2,3.608023E0,8.182201E0,1.8079161E2,1.694906E2,6.798653E0,1.7399297E2,7.0622215E0,1.6242838E2,3.3526475E0,3.4460053E0,1.02749695E2,7.124327E1,4.0010004E0,3.0612211E0,1.4377798E2,1.8650396E1],"tree_param":{"num_deleted":"0","num_feature":"251","num_nodes":"19","size_leaf_vector":"1"}},{"base_weights":[1.51948705E-2,4.485712E-2,-8.033433E-1,2.900849E-1,-2.461111E-2,-1.9314017E-2,-4.984648E-2,1.09895274E-1,6.026202E-1,-7.432341E-2,4.118124E-1,2.3502542E-2,-8.2558105E-3,4.5603413E-2,8.2564205E-3,3.4266696E-3,-1.1750462E-2,-2.665682E-2,2.8533345E-2],"categories":[],"categories_nodes":[],"categories_segments":[],"categories_sizes":[],"default_left":[0,0,0,0,0,0,0,0,0,0,0,0,0,0,0,0,0,0,0],"id":34,"left_children":[1,3,5,7,9,-1,-1,11,13,15,17,-1,-1,-1,-1,-1,-1,-1,-1],"loss_changes":[8.833245E0,6.0009465E0,5.997753E-1,4.284472E0,5.970724E0,0E0,0E0,5.193254E0,3.5921202E0,5.6893916E0,4.59982E0,0E0,0E0,0E0,0E0,0E0,0E0,0E0,0E0],"parents":[2147483647,0,0,1,1,2,2,3,3,4,4,7,7,8,8,9,9,10,10],"right_children":[2,4,6,8,10,-1,-1,12,14,16,18,-1,-1,-1,-1,-1,-1,-1,-1],"split_conditions":[1.912004E0,0E0,-6.151548E-1,6.029358E-1,1.9196467E-1,-1.9314017E-2,-4.984648E-2,-2.7022272E-1,3.6357728E-1,-1.2275773E-1,-9.2566526E-1,2.3502542E-2,-8.2558105E-3,4.5603413E-2,8.2564205E-3,3.4266696E-3,-1.1750462E-2,-2.665682E-2,2.8533345E-2],"split_indices":[0,224,149,108,95,0,0,2,196,184,241,0,0,0,0,0,0,0,0],"split_type":[0,0,0,0,0,0,0,0,0,0,0,0,0,0,0,0,0,0,0],"sum_hessian":[3.5759024E2,3.4611508E2,1.1475176E1,7.6020615E1,2.7009445E2,4.7511773E0,6.723998E0,4.9280148E1,2.6740467E1,2.4342513E2,2.6669333E1,2.1187447E1,2.8092703E1,1.4892979E1,1.1847488E1,1.2883568E2,1.1458945E2,3.408453E0,2.326088E1],"tree_param":{"num_deleted":"0","num_feature":"251","num_nodes":"19","size_leaf_vector":"1"}},{"base_weights":[-1.9357314E-2,2.637413E-2,-3.998274E-1,6.11161E-1,1.5834634E-3,-6.200887E-1,-2.3433328E-2,2.3951921E-1,5.040005E-2,-1.6916053E-1,8.461067E-2,-7.598464E-1,1.130506E-2,3.8690433E-1,-4.380046E-1,-1.2139394E-2,3.7477754E-2,-1.1457757E-2,1.926993E-2,6.167631E-3,-2.4154931E-2,-4.299092E-2,-6.706208E-3,-9.328209E-4,4.197511E-2,-0E0,-3.5130993E-2],"categories":[],"categories_nodes":[],"categories_segments":[],"categories_sizes":[],"default_left":[0,0,0,0,0,0,0,0,0,0,0,0,0,0,0,0,0,0,0,0,0,0,0,0,0,0,0],"id":35,"left_children":[1,3,5,7,9,11,13,15,-1,17,19,21,-1,23,25,-1,-1,-1,-1,-1,-1,-1,-1,-1,-1,-1,-1],"loss_changes":[6.4543033E0,4.769797E0,3.2282085E0,1.687129E0,4.49575E0,3.2059898E0,3.008332E0,2.3968477E0,0E0,3.5685558E0,4.7855077E0,1.1727839E0,0E0,1.7169652E0,1.0850859E0,0E0,0E0,0E0,0E0,0E0,0E0,0E0,0E0,0E0,0E0,0E0,0E0],"parents":[2147483647,0,0,1,1,2,2,3,3,4,4,5,5,6,6,7,7,9,9,10,10,11,11,13,13,14,14],"right_children":[2,4,6,8,10,12,14,16,-1,18,20,22,-1,24,26,-1,-1,-1,-1,-1,-1,-1,-1,-1,-1,-1,-1],"split_conditions":[1.3384027E0,-1.7208036E0,1.8639174E-1,1.763323E-1,-5.636726E-1,2.0188704E0,2.6774836E-1,1.5676828E-1,5.040005E-2,7.097205E-1,1.3346449E0,8.140691E-1,1.130506E-2,6.6372085E-1,0E0,-1.2139394E-2,3.7477754E-2,-1.1457757E-2,1.926993E-2,6.167631E-3,-2.4154931E-2,-4.299092E-2,-6.706208E-3,-9.328209E-4,4.197511E-2,-0E0,-3.5130993E-2],"split_indices":[0,0,59,32,242,210,182,242,0,73,41,98,0,37,233,0,0,0,0,0,0,0,0,0,0,0,0],"split_type":[0,0,0,0,0,0,0,0,0,0,0,0,0,0,0,0,0,0,0,0,0,0,0,0,0,0,0],"sum_hessian":[3.625199E2,3.2421768E2,3.8302216E1,1.2059503E1,3.1215817E2,2.3586533E1,1.4715683E1,7.185664E0,4.8738384E0,1.0139641E2,2.1076176E2,2.043215E1,3.1543818E0,7.3079176E0,7.4077654E0,3.8617637E0,3.3239002E0,9.2189995E1,9.206409E0,1.9819527E2,1.2566491E1,1.7157026E1,3.275124E0,4.243376E0,3.0645416E0,3.0496285E0,4.3581367E0],"tree_param":{"num_deleted":"0","num_feature":"251","num_nodes":"27","size_leaf_vector":"1"}},{"base_weights":[1.5538958E-2,-1.5508375E-1,1.15658E-1,-4.7291872E-1,-6.1103076E-2,6.385581E-1,5.7153836E-2,-2.670109E-1,-6.774956E-1,4.13646E-1,-1.2562113E-1,9.014851E-1,1.5303959E-1,-1.5535603E-1,2.0226574E-1,-1.3350545E-2,-3.2014057E-2,-1.3350545E-2,-3.9877575E-2,-6.9603557E-3,3.5780456E-2,1.4862278E-3,-1.3350545E-2,5.420311E-2,9.590283E-3,-1.3869441E-2,2.1361038E-2,1.1727427E-3,-2.1171657E-2,8.23446E-3,4.3037158E-2],"categories":[],"categories_nodes":[],"categories_segments":[],"categories_sizes":[],"default_left":[0,0,0,0,0,0,0,0,0,0,0,0,0,0,0,0,0,0,0,0,0,0,0,0,0,0,0,0,0,0,0],"id":36,"left_children":[1,3,5,7,9,11,13,15,17,19,21,23,25,27,29,-1,-1,-1,-1,-1,-1,-1,-1,-1,-1,-1,-1,-1,-1,-1,-1],"loss_changes":[6.258312E0,3.9999053E0,7.0283947E0,1.6285405E0,3.3321416E0,2.7523098E0,6.498331E0,5.8737606E-1,8.940153E-1,2.3487587E0,2.91576E0,1.613267E0,1.3476136E0,4.4703817E0,2.9904962E0,0E0,0E0,0E0,0E0,0E0,0E0,0E0,0E0,0E0,0E0,0E0,0E0,0E0,0E0,0E0,0E0],"parents":[2147483647,0,0,1,1,2,2,3,3,4,4,5,5,6,6,7,7,8,8,9,9,10,10,11,11,12,12,13,13,14,14],"right_children":[2,4,6,8,10,12,14,16,18,20,22,24,26,28,30,-1,-1,-1,-1,-1,-1,-1,-1,-1,-1,-1,-1,-1,-1,-1,-1],"split_conditions":[-1.9918454E-1,-8.173958E-1,-1.1570148E0,-4.9228722E-1,-9.7079885E-1,3.073425E-1,-2.8723389E-2,1.14303656E-1,7.406011E-2,4.354757E-1,-6.6690575E-3,-7.1394265E-1,2.1931231E-1,4.8656222E-1,2.060776E0,-1.3350545E-2,-3.2014057E-2,-1.3350545E-2,-3.9877575E-2,-6.9603557E-3,3.5780456E-2,1.4862278E-3,-1.3350545E-2,5.420311E-2,9.590283E-3,-1.3869441E-2,2.1361038E-2,1.1727427E-3,-2.1171657E-2,8.23446E-3,4.3037158E-2],"split_indices":[94,227,26,244,83,65,245,2,161,37,65,70,89,186,134,0,0,0,0,0,0,0,0,0,0,0,0,0,0,0,0],"split_type":[0,0,0,0,0,0,0,0,0,0,0,0,0,0,0,0,0,0,0,0,0,0,0,0,0,0,0,0,0,0,0],"sum_hessian":[3.615493E2,1.3312689E2,2.2842241E2,2.9217966E1,1.0390892E2,2.1815474E1,2.0660693E2,1.2769046E1,1.644892E1,1.1598841E1,9.231008E1,1.3462368E1,8.353105E0,8.352646E1,1.23080475E2,9.577457E0,3.191588E0,3.659332E0,1.2789588E1,4.1706953E0,7.4281454E0,5.31135E1,3.9196583E1,1.0175978E1,3.2863905E0,3.1039267E0,5.2491784E0,4.887502E1,3.4651443E1,1.17762245E2,5.318227E0],"tree_param":{"num_deleted":"0","num_feature":"251","num_nodes":"31","size_leaf_vector":"1"}},{"base_weights":[3.0267497E-3,5.1360987E-2,-3.774662E-1,-1.7339231E-2,3.2233113E-1,-5.106195E-1,1.7608434E-2,2.8907406E-1,-9.404965E-2,4.1721684E-1,-1.0224998E-1,-7.4399304E-1,-1.4222686E-1,-2.338549E-3,2.5304217E-2,-1.5762655E-2,-0E0,2.3604793E-2,-1.6464505E-2,-2.59567E-2,1.5246351E-2,-4.4186935E-2,-1.0249483E-3,-3.527486E-2,3.9092596E-3],"categories":[],"categories_nodes":[],"categories_segments":[],"categories_sizes":[],"default_left":[0,0,0,0,0,0,0,0,0,0,0,0,0,0,0,0,0,0,0,0,0,0,0,0,0],"id":37,"left_children":[1,3,5,7,9,11,-1,13,15,17,19,21,23,-1,-1,-1,-1,-1,-1,-1,-1,-1,-1,-1,-1],"loss_changes":[6.683708E0,6.0527506E0,4.2185426E0,6.098553E0,2.7357907E0,2.8636293E0,0E0,3.8572006E0,4.351018E0,2.4419794E0,2.445857E0,2.0303411E0,2.0908554E0,0E0,0E0,0E0,0E0,0E0,0E0,0E0,0E0,0E0,0E0,0E0,0E0],"parents":[2147483647,0,0,1,1,2,2,3,3,4,4,5,5,7,7,8,8,9,9,10,10,11,11,12,12],"right_children":[2,4,6,8,10,12,-1,14,16,18,20,22,24,-1,-1,-1,-1,-1,-1,-1,-1,-1,-1,-1,-1],"split_conditions":[1.3384027E0,7.4098307E-1,1.0506458E0,-2.8291264E-1,2.4435885E-2,1.8639174E-1,1.7608434E-2,-3.821625E-2,-2.1638268E-1,1.7647494E0,-3.8801745E-1,1.5681196E0,-8.9345074E-1,-2.338549E-3,2.5304217E-2,-1.5762655E-2,-0E0,2.3604793E-2,-1.6464505E-2,-2.59567E-2,1.5246351E-2,-4.4186935E-2,-1.0249483E-3,-3.527486E-2,3.9092596E-3],"split_indices":[0,93,37,184,4,59,0,222,132,162,214,3,239,0,0,0,0,0,0,0,0,0,0,0,0],"split_type":[0,0,0,0,0,0,0,0,0,0,0,0,0,0,0,0,0,0,0,0,0,0,0,0,0],"sum_hessian":[3.5851443E2,3.1910605E2,3.940839E1,2.5501736E2,6.408868E1,3.369628E1,5.712112E0,5.0245193E1,2.0477217E2,5.2588936E1,1.1499743E1,1.9838041E1,1.3858239E1,1.9849611E1,3.0395582E1,6.0648453E1,1.4412372E2,4.9454838E1,3.134095E0,5.6676316E0,5.832112E0,1.6325085E1,3.512957E0,3.406275E0,1.0451964E1],"tree_param":{"num_deleted":"0","num_feature":"251","num_nodes":"25","size_leaf_vector":"1"}},{"base_weights":[-5.034802E-3,6.5535814E-1,-2.9769339E-2,-0E0,8.6665905E-1,7.746667E-2,-1.6265476E-1,1.7174795E-2,5.243035E-2,2.6731452E-2,6.382005E-1,-3.343094E-1,-2.0828774E-2,3.4201432E-3,-3.154699E-2,4.120355E-2,1.66233E-2,-1.901371E-2,2.4220072E-2,2.6000679E-2,-5.251596E-3],"categories":[],"categories_nodes":[],"categories_segments":[],"categories_sizes":[],"default_left":[0,0,0,0,0,0,0,0,0,0,0,0,0,0,0,0,0,0,0,0,0],"id":38,"left_children":[1,3,5,-1,7,9,11,-1,-1,13,15,17,19,-1,-1,-1,-1,-1,-1,-1,-1],"loss_changes":[5.9502716E0,1.8407907E0,5.0042887E0,0E0,5.326824E-1,5.5004287E0,3.783884E0,0E0,0E0,4.9836726E0,1.254487E0,2.9143763E0,4.077015E0,0E0,0E0,0E0,0E0,0E0,0E0,0E0,0E0],"parents":[2147483647,0,0,1,1,2,2,4,4,5,5,6,6,9,9,10,10,11,11,12,12],"right_children":[2,4,6,-1,8,10,12,-1,-1,14,16,18,20,-1,-1,-1,-1,-1,-1,-1,-1],"split_conditions":[-1.7208036E0,-9.6255124E-1,-1.1870155E-1,-0E0,2.5615172E-2,1.5166532E0,-1.1164875E-1,1.7174795E-2,5.243035E-2,1.8411261E0,1.8578092E0,3.007753E0,-1.0200951E0,3.4201432E-3,-3.154699E-2,4.120355E-2,1.66233E-2,-1.901371E-2,2.4220072E-2,2.6000679E-2,-5.251596E-3],"split_indices":[0,232,184,0,129,227,81,0,0,30,196,199,203,0,0,0,0,0,0,0,0],"split_type":[0,0,0,0,0,0,0,0,0,0,0,0,0,0,0,0,0,0,0,0,0],"sum_hessian":[3.5758447E2,1.18431425E1,3.4574133E2,3.1046154E0,8.738527E0,1.9115079E2,1.5459055E2,3.1419172E0,5.5966096E0,1.7641478E2,1.4736006E1,6.900737E1,8.5583176E1,1.6688843E2,9.526353E0,1.0580604E1,4.155402E0,6.596175E1,3.0456204E0,1.0672123E1,7.491105E1],"tree_param":{"num_deleted":"0","num_feature":"251","num_nodes":"21","size_leaf_vector":"1"}},{"base_weights":[4.1818297E-3,2.6774997E-2,-6.1297935E-1,6.0643613E-1,4.92046E-3,-4.484781E-2,5.622526E-4,3.4665142E-3,4.495008E-2,-1.0658631E-1,1.3048789E-1,-2.843064E-3,-3.1442262E-2,2.3563249E-2,2.239857E-3],"categories":[],"categories_nodes":[],"categories_segments":[],"categories_sizes":[],"default_left":[0,0,0,0,0,0,0,0,0,0,0,0,0,0,0],"id":39,"left_children":[1,3,5,7,9,-1,-1,-1,-1,11,13,-1,-1,-1,-1],"loss_changes":[5.0822816E0,4.446847E0,2.3810549E0,1.8660903E0,4.7592683E0,0E0,0E0,0E0,0E0,4.628578E0,4.6368732E0,0E0,0E0,0E0,0E0],"parents":[2147483647,0,0,1,1,2,2,3,3,4,4,9,9,10,10],"right_children":[2,4,6,8,10,-1,-1,-1,-1,12,14,-1,-1,-1,-1],"split_conditions":[1.912004E0,-1.7208036E0,5.6390613E-1,1.0325933E-1,9.4742846E-4,-4.484781E-2,5.622526E-4,3.4665142E-3,4.495008E-2,7.6957524E-1,-2.6363719E-1,-2.843064E-3,-3.1442262E-2,2.3563249E-2,2.239857E-3],"split_indices":[0,0,232,99,9,0,0,0,0,37,184,0,0,0,0],"split_type":[0,0,0,0,0,0,0,0,0,0,0,0,0,0,0],"sum_hessian":[3.5739853E2,3.4585602E2,1.1542522E1,1.1427702E1,3.344283E2,7.74321E0,3.7993128E0,4.586451E0,6.841251E0,1.7678973E2,1.5763858E2,1.6260794E2,1.4181788E1,3.053593E1,1.27102646E2],"tree_param":{"num_deleted":"0","num_feature":"251","num_nodes":"15","size_leaf_vector":"1"}},{"base_weights":[-1.0733295E-4,-1.1846471E-1,1.4108418E-1,-2.219166E-1,1.13097355E-2,5.6471873E-2,4.1922915E-1,-4.027511E-1,-1.8721534E-2,1.13097355E-2,-3.913969E-2,1.8716393E-2,5.915845E-1,1.13097355E-2,6.057415E-1,-2.6041502E-2,5.654868E-4,5.654868E-4,-1.7711071E-2,-2.091967E-2,5.654868E-4,5.654868E-4,3.2193847E-2,4.2613998E-2,5.7875062E-3,3.3245247E-2,5.654868E-4,4.0499367E-2,2.8624968E-3],"categories":[],"categories_nodes":[],"categories_segments":[],"categories_sizes":[],"default_left":[0,0,0,0,0,0,0,0,0,0,0,0,0,0,0,0,0,0,0,0,0,0,0,0,0,0,0,0,0],"id":40,"left_children":[1,3,5,7,9,11,13,15,17,19,-1,21,23,25,27,-1,-1,-1,-1,-1,-1,-1,-1,-1,-1,-1,-1,-1,-1],"loss_changes":[6.080144E0,4.256762E0,3.8594775E0,5.0896E0,2.9125257E0,2.6108377E0,2.892663E0,4.4426756E0,3.1944838E0,1.1035162E0,0E0,1.9207286E0,8.949816E-1,1.9180596E0,2.8219662E0,0E0,0E0,0E0,0E0,0E0,0E0,0E0,0E0,0E0,0E0,0E0,0E0,0E0,0E0],"parents":[2147483647,0,0,1,1,2,2,3,3,4,4,5,5,6,6,7,7,8,8,9,9,11,11,12,12,13,13,14,14],"right_children":[2,4,6,8,10,12,14,16,18,20,-1,22,24,26,28,-1,-1,-1,-1,-1,-1,-1,-1,-1,-1,-1,-1,-1,-1],"split_conditions":[4.8451368E-2,1.065442E0,9.353656E-1,-1.4925833E-1,1.439827E0,1.4932544E0,-8.8224664E-2,1.2455492E0,5.2364117E-1,-2.0996594E0,-3.913969E-2,1.60909E0,2.5057787E-1,7.43357E-1,-1.5591437E-1,-2.6041502E-2,5.654868E-4,5.654868E-4,-1.7711071E-2,-2.091967E-2,5.654868E-4,5.654868E-4,3.2193847E-2,4.2613998E-2,5.7875062E-3,3.3245247E-2,5.654868E-4,4.0499367E-2,2.8624968E-3],"split_indices":[245,165,154,242,41,86,2,175,163,172,0,182,242,191,22,0,0,0,0,0,0,0,0,0,0,0,0,0,0],"split_type":[0,0,0,0,0,0,0,0,0,0,0,0,0,0,0,0,0,0,0,0,0,0,0,0,0,0,0,0,0],"sum_hessian":[3.588698E2,1.9569377E2,1.6317604E2,1.3777864E2,5.7915123E1,1.263137E2,3.6862347E1,7.212045E1,6.5658195E1,5.4548122E1,3.3670006E0,1.1913019E2,7.1835127E0,1.1951097E1,2.491125E1,5.8876606E1,1.3243843E1,4.2801018E1,2.2857174E1,4.5116825E0,5.0036438E1,1.1562574E2,3.5044456E0,3.9940228E0,3.18949E0,3.184279E0,8.766818E0,1.7671654E1,7.239595E0],"tree_param":{"num_deleted":"0","num_feature":"251","num_nodes":"29","size_leaf_vector":"1"}},{"base_weights":[-6.668745E-3,-7.279606E-1,1.6317148E-2,-5.2376933E-2,-1.0149358E-2,8.22332E-2,-2.1959479E-1,-1.0453828E-1,2.0395699E-1,-4.3507025E-2,-5.0000316E-1,1.8858345E-3,-2.0277098E-2,1.41174095E-2,-1.2778344E-2,-1.4337753E-2,1.0330055E-2,-3.5262316E-2,-0E0],"categories":[],"categories_nodes":[],"categories_segments":[],"categories_sizes":[],"default_left":[0,0,0,0,0,0,0,0,0,0,0,0,0,0,0,0,0,0,0],"id":41,"left_children":[1,3,5,-1,-1,7,9,11,13,15,17,-1,-1,-1,-1,-1,-1,-1,-1],"loss_changes":[6.1513324E0,1.6433601E0,5.4562845E0,0E0,0E0,6.26534E0,3.7268004E0,4.7335157E0,6.1024113E0,3.066397E0,2.9492693E0,0E0,0E0,0E0,0E0,0E0,0E0,0E0,0E0],"parents":[2147483647,0,0,1,1,2,2,5,5,6,6,7,7,8,8,9,9,10,10],"right_children":[2,4,6,-1,-1,8,10,12,14,16,18,-1,-1,-1,-1,-1,-1,-1,-1],"split_conditions":[-4.6240383E-1,1.9115785E-1,1.4117625E0,-5.2376933E-2,-1.0149358E-2,-2.361195E-1,3.5892388E-1,-6.416396E-2,1.1627467E-1,4.0127058E-2,3.2526946E-1,1.8858345E-3,-2.0277098E-2,1.41174095E-2,-1.2778344E-2,-1.4337753E-2,1.0330055E-2,-3.5262316E-2,-0E0],"split_indices":[95,201,225,0,0,9,182,160,184,222,94,0,0,0,0,0,0,0,0],"split_type":[0,0,0,0,0,0,0,0,0,0,0,0,0,0,0,0,0,0,0],"sum_hessian":[3.56113E2,1.0185177E1,3.4592783E2,5.5939546E0,4.5912223E0,2.712213E2,7.470652E1,1.0674806E2,1.6447325E2,4.6818027E1,2.7888489E1,7.285779E1,3.389027E1,1.4101958E2,2.3453667E1,2.3862928E1,2.2955101E1,1.9367908E1,8.520579E0],"tree_param":{"num_deleted":"0","num_feature":"251","num_nodes":"19","size_leaf_vector":"1"}},{"base_weights":[9.8698335E-3,5.151276E-2,-3.1499293E-1,-2.8404447E-1,9.6981525E-2,-4.8270342E-1,1.5361647E-1,4.1245006E-2,-8.1096745E-1,2.2338966E-1,-4.2989954E-2,-6.484302E-1,-1.6454348E-1,4.2443702E-1,-8.227174E-3,-1.2253429E-2,1.9633953E-2,-5.4246444E-2,-2.1687193E-2,1.3859044E-2,-9.464501E-3,2.461038E-2,-5.1678307E-3,-4.0442325E-2,-8.227174E-3,-8.227174E-3,-3.1017343E-2,3.8851034E-2,-1.1605952E-3],"categories":[],"categories_nodes":[],"categories_segments":[],"categories_sizes":[],"default_left":[0,0,0,0,0,0,0,0,0,0,0,0,0,0,0,0,0,0,0,0,0,0,0,0,0,0,0,0,0],"id":42,"left_children":[1,3,5,7,9,11,13,15,17,19,21,23,25,27,-1,-1,-1,-1,-1,-1,-1,-1,-1,-1,-1,-1,-1,-1,-1],"loss_changes":[4.8579645E0,4.887208E0,3.3271294E0,6.6742396E0,4.994252E0,2.2021632E0,1.4306394E0,2.6554465E0,1.0206709E0,3.3736796E0,4.4117002E0,2.399866E0,9.18725E-1,1.3223016E0,0E0,0E0,0E0,0E0,0E0,0E0,0E0,0E0,0E0,0E0,0E0,0E0,0E0,0E0,0E0],"parents":[2147483647,0,0,1,1,2,2,3,3,4,4,5,5,6,6,7,7,8,8,9,9,10,10,11,11,12,12,13,13],"right_children":[2,4,6,8,10,12,14,16,18,20,22,24,26,28,-1,-1,-1,-1,-1,-1,-1,-1,-1,-1,-1,-1,-1,-1,-1],"split_conditions":[9.2190814E-1,-3.3932707E-1,4.6151957E-1,-4.1774046E-1,2.3567271E-1,7.475547E-1,2.9745868E-1,3.8700867E-1,-3.9470145E-1,1.251215E0,-1.1472024E0,1.1994505E-1,5.669608E-1,3.8920256E-1,-8.227174E-3,-1.2253429E-2,1.9633953E-2,-5.4246444E-2,-2.1687193E-2,1.3859044E-2,-9.464501E-3,2.461038E-2,-5.1678307E-3,-4.0442325E-2,-8.227174E-3,-8.227174E-3,-3.1017343E-2,3.8851034E-2,-1.1605952E-3],"split_indices":[30,95,68,102,188,126,129,206,9,201,0,111,84,188,0,0,0,0,0,0,0,0,0,0,0,0,0,0,0],"split_type":[0,0,0,0,0,0,0,0,0,0,0,0,0,0,0,0,0,0,0,0,0,0,0,0,0,0,0,0,0],"sum_hessian":[3.535739E2,3.1441898E2,3.9154922E1,3.66318E1,2.7778717E2,2.897013E1,1.0184792E1,2.3102003E1,1.3529798E1,1.4602794E2,1.3175923E2,2.1335777E1,7.634352E0,6.309753E0,3.8750381E0,1.2740456E1,1.0361547E1,6.5972853E0,6.932512E0,1.2969354E2,1.6334402E1,1.2462173E1,1.19297066E2,1.736718E1,3.9685988E0,4.5207005E0,3.1136518E0,3.243035E0,3.066718E0],"tree_param":{"num_deleted":"0","num_feature":"251","num_nodes":"29","size_leaf_vector":"1"}},{"base_weights":[-1.6127406E-2,2.0755091E-1,-7.781708E-2,-2.9646343E-1,2.907665E-1,-1.2127887E-1,3.4532452E-1,9.866778E-3,-6.292175E-1,-9.406456E-2,3.9405653E-1,-3.0529895E-1,-1.870583E-2,-2.8200263E-2,5.249149E-1,-4.3334883E-2,-1.048035E-2,2.2172147E-2,-1.9482931E-2,9.089398E-3,3.2063726E-2,1.7222842E-2,-1.7515507E-2,7.2949813E-3,-1.1307995E-2,3.8516946E-2,1.6275172E-3],"categories":[],"categories_nodes":[],"categories_segments":[],"categories_sizes":[],"default_left":[0,0,0,0,0,0,0,0,0,0,0,0,0,0,0,0,0,0,0,0,0,0,0,0,0,0,0],"id":43,"left_children":[1,3,5,7,9,11,13,-1,15,17,19,21,23,-1,25,-1,-1,-1,-1,-1,-1,-1,-1,-1,-1,-1,-1],"loss_changes":[4.9869103E0,3.3976378E0,5.2671127E0,2.1233063E0,2.7656612E0,4.832424E0,4.7244477E0,0E0,5.062151E-1,2.6601002E0,2.67548E0,2.8654957E0,5.770639E0,0E0,2.6707802E0,0E0,0E0,0E0,0E0,0E0,0E0,0E0,0E0,0E0,0E0,0E0,0E0],"parents":[2147483647,0,0,1,1,2,2,3,3,4,4,5,5,6,6,8,8,9,9,10,10,11,11,12,12,14,14],"right_children":[2,4,6,8,10,12,14,-1,16,18,20,22,24,-1,26,-1,-1,-1,-1,-1,-1,-1,-1,-1,-1,-1,-1],"split_conditions":[0E0,-8.9153546E-1,2.2075026E-1,2.5949362E-1,-7.852283E-1,-2.8622566E-2,-9.2566526E-1,9.866778E-3,7.947671E-2,-3.3884272E-2,3.3025968E-1,-2.154515E0,-1.2771367E-1,-2.8200263E-2,7.782914E-1,-4.3334883E-2,-1.048035E-2,2.2172147E-2,-1.9482931E-2,9.089398E-3,3.2063726E-2,1.7222842E-2,-1.7515507E-2,7.2949813E-3,-1.1307995E-2,3.8516946E-2,1.6275172E-3],"split_indices":[224,238,95,228,73,201,241,0,232,149,72,231,184,0,98,0,0,0,0,0,0,0,0,0,0,0,0],"split_type":[0,0,0,0,0,0,0,0,0,0,0,0,0,0,0,0,0,0,0,0,0,0,0,0,0,0,0],"sum_hessian":[3.5627313E2,7.61561E1,2.8011703E2,1.025855E1,6.5897545E1,2.5488676E2,2.5230255E1,4.172742E0,6.0858073E0,1.3758438E1,5.2139107E1,9.01689E1,1.6471788E2,3.716248E0,2.1514008E1,3.0537364E0,3.032071E0,4.5841513E0,9.174288E0,2.9203754E1,2.2935354E1,5.2667475E0,8.490215E1,9.1740555E1,7.297732E1,1.3845107E1,7.6689014E0],"tree_param":{"num_deleted":"0","num_feature":"251","num_nodes":"27","size_leaf_vector":"1"}},{"base_weights":[1.2997825E-2,-8.0053076E-2,1.4095598E-1,-1.3250053E-1,2.5295365E-1,1.9812901E-1,-3.0206627E-1,-1.7985663E-1,2.9901764E-1,3.7893116E-1,-2.2285132E-2,6.207203E-1,1.3581891E-1,-6.462676E-1,1.9086446E-1,2.2696376E-2,-1.0604068E-2,2.3542574E-2,-1.9493682E-2,2.6172642E-2,-1.118005E-2,3.8551323E-2,3.9439077E-5,1.2097559E-2,-4.8645474E-3,-8.13708E-3,-4.749072E-2,-7.923092E-3,2.4068829E-2],"categories":[],"categories_nodes":[],"categories_segments":[],"categories_sizes":[],"default_left":[0,0,0,0,0,0,0,0,0,0,0,0,0,0,0,0,0,0,0,0,0,0,0,0,0,0,0,0,0],"id":44,"left_children":[1,3,5,7,9,11,13,15,17,19,-1,21,23,25,27,-1,-1,-1,-1,-1,-1,-1,-1,-1,-1,-1,-1,-1,-1],"loss_changes":[4.3066926E0,3.6932538E0,3.9464064E0,3.7796552E0,2.7598104E0,3.4949055E0,3.2378988E0,3.4902067E0,2.4252512E0,2.3598025E0,0E0,1.5182791E0,3.0167444E0,1.3871975E0,9.930395E-1,0E0,0E0,0E0,0E0,0E0,0E0,0E0,0E0,0E0,0E0,0E0,0E0,0E0,0E0],"parents":[2147483647,0,0,1,1,2,2,3,3,4,4,5,5,6,6,7,7,8,8,9,9,11,11,