{"learner":{"attributes":{"scikit_learn":"{\"_estimator_type\": \"classifier\"}"},"feature_names":["age_difference","age_weighted_recent_damage_diff","age_x_days_since_last_fight_diff","age_x_fights_in_last_year_diff","age_x_fights_since_last_win_diff","age_x_recent_vs_career_decline_diff","age_x_years_since_last_fight_diff","age_x_years_since_last_win_diff","avg_beaten_opponent_win_rate_diff","avg_opponent_win_rate_diff","both_finishers","both_grapplers","both_strikers","common_opponent_performance_diff","decision_losses_since_last_win_diff","defensive_fight","durability_collapse_diff","early_finish_advantage_diff","early_finish_rate_last_3_diff","early_finish_rate_last_5_diff","experience_difference","f1_activity_rate","f1_age","f1_age_in_prime","f1_age_past_prime","f1_age_x_days_since_last_fight","f1_age_x_fights_in_last_year","f1_age_x_fights_since_last_win","f1_age_x_recent_vs_career_decline","f1_age_x_years_since_last_fight","f1_age_x_years_since_last_win","f1_athleticism_decline","f1_avg_beaten_opponent_total_fights","f1_avg_beaten_opponent_win_rate","f1_avg_fight_duration_rounds","f1_avg_lost_to_opponent_win_rate","f1_avg_opponent_total_fights","f1_avg_opponent_win_rate","f1_current_loss_streak","f1_current_win_streak","f1_days_between_last_2_fights","f1_days_since_last_fight","f1_decision_losses_since_last_win","f1_decision_rate","f1_draws","f1_early_finish_advantage","f1_early_finish_rate_last_3","f1_early_finish_rate_last_5","f1_fights_in_last_year","f1_fights_since_last_win","f1_finish_losses_since_last_win","f1_finish_rate","f1_finish_rate_last_3","f1_finish_rate_last_3_years","f1_finish_rate_last_5","f1_first_round_finish_rate","f1_first_round_ko_rate","f1_has_ever_won","f1_has_fight_history","f1_height_cm","f1_ko_rate","f1_ko_rate_last_3","f1_ko_rate_last_5","f1_long_layoff_over_1yr","f1_long_layoff_over_2yr","f1_losses","f1_losses_last_3_years","f1_losses_since_last_win","f1_opponent_quality_score","f1_performance_trend","f1_power_striker_score","f1_prospect_momentum_score","f1_reach_inches","f1_recent_control_time_diff_last_3","f1_recent_control_time_sec_last_3","f1_recent_finish_loss_last_fight","f1_recent_finish_loss_ratio_last_2","f1_recent_finish_losses_last_2","f1_recent_knockdown_diff_last_3","f1_recent_losses_last_2","f1_recent_sig_strike_diff_last_3","f1_recent_vs_career_win_rate","f1_round_3_fight_rate","f1_round_3_finish_rate","f1_round_3_performance_score","f1_round_3_win_rate","f1_sig_strikes_landed_per_min","f1_sig_strikes_landed_per_min_lifetime","f1_stance_orthodox","f1_stance_southpaw","f1_stance_switch","f1_striking_accuracy","f1_striking_differential","f1_striking_volume_control","f1_submission_rate","f1_time_decayed_finish_rate","f1_time_decayed_ko_rate","f1_time_decayed_win_rate","f1_time_decayed_win_rate_adj_opp_quality","f1_title_fight_experience","f1_total_fights","f1_weight_lbs","f1_win_rate_last_3","f1_win_rate_last_3_years","f1_win_rate_last_5","f1_wins","f1_wins_last_3_years","f1_youth_form_score","f2_activity_rate","f2_age","f2_age_in_prime","f2_age_past_prime","f2_age_x_days_since_last_fight","f2_age_x_fights_in_last_year","f2_age_x_fights_since_last_win","f2_age_x_recent_vs_career_decline","f2_age_x_years_since_last_fight","f2_age_x_years_since_last_win","f2_athleticism_decline","f2_avg_beaten_opponent_total_fights","f2_avg_beaten_opponent_win_rate","f2_avg_fight_duration_rounds","f2_avg_lost_to_opponent_win_rate","f2_avg_opponent_total_fights","f2_avg_opponent_win_rate","f2_current_loss_streak","f2_current_win_streak","f2_days_between_last_2_fights","f2_days_since_last_fight","f2_decision_losses_since_last_win","f2_decision_rate","f2_draws","f2_early_finish_advantage","f2_early_finish_rate_last_3","f2_early_finish_rate_last_5","f2_fights_in_last_year","f2_fights_since_last_win","f2_finish_losses_since_last_win","f2_finish_rate","f2_finish_rate_last_3","f2_finish_rate_last_3_years","f2_finish_rate_last_5","f2_first_round_finish_rate","f2_first_round_ko_rate","f2_has_ever_won","f2_has_fight_history","f2_height_cm","f2_ko_rate","f2_ko_rate_last_3","f2_ko_rate_last_5","f2_long_layoff_over_1yr","f2_long_layoff_over_2yr","f2_losses","f2_losses_last_3_years","f2_losses_since_last_win","f2_opponent_quality_score","f2_performance_trend","f2_power_striker_score","f2_prospect_momentum_score","f2_reach_inches","f2_recent_control_time_diff_last_3","f2_recent_control_time_sec_last_3","f2_recent_finish_loss_last_fight","f2_recent_finish_loss_ratio_last_2","f2_recent_finish_losses_last_2","f2_recent_knockdown_diff_last_3","f2_recent_losses_last_2","f2_recent_sig_strike_diff_last_3","f2_recent_vs_career_win_rate","f2_round_3_fight_rate","f2_round_3_finish_rate","f2_round_3_performance_score","f2_round_3_win_rate","f2_sig_strikes_landed_per_min","f2_sig_strikes_landed_per_min_lifetime","f2_stance_orthodox","f2_stance_southpaw","f2_stance_switch","f2_striking_accuracy","f2_striking_differential","f2_striking_volume_control","f2_submission_rate","f2_time_decayed_finish_rate","f2_time_decayed_ko_rate","f2_time_decayed_win_rate","f2_time_decayed_win_rate_adj_opp_quality","f2_title_fight_experience","f2_total_fights","f2_weight_lbs","f2_win_rate_last_3","f2_win_rate_last_3_years","f2_win_rate_last_5","f2_wins","f2_wins_last_3_years","f2_youth_form_score","fights_since_last_win_diff","finish_losses_since_last_win_diff","finish_rate_diff","finish_rate_last_3_years_diff","first_round_finish_rate_diff","first_round_ko_rate_diff","has_ever_won_diff","height_advantage","is_title_fight","long_layoff_over_1yr_diff","long_layoff_over_2yr_diff","losses_last_3_years_diff","losses_since_last_win_diff","num_common_opponents","opponent_quality_score_diff","opponent_quality_score_diff_squared","orthodox_vs_orthodox","orthodox_vs_southpaw","power_striker_matchup","power_striker_score_diff","prospect_momentum_score_diff","reach_advantage","recent_control_time_diff_last_3_diff","recent_control_time_sec_last_3_diff","recent_finish_loss_last_fight_diff","recent_finish_loss_ratio_last_2_diff","recent_finish_losses_last_2_diff","recent_form_diff","recent_knockdown_diff_last_3_diff","recent_sig_strike_diff_last_3_diff","recent_vs_career_win_rate_diff","round_3_performance_diff","round_3_win_rate_diff","southpaw_vs_southpaw","striker_vs_grappler","striking_accuracy_diff","striking_differential","striking_output_diff","style_volatility_mismatch_diff","takedown_ability_diff","takedown_matchup","time_decayed_finish_rate_diff","time_decayed_ko_rate_diff","time_decayed_win_rate_adj_opp_quality_diff","time_decayed_win_rate_diff","win_rate_last_3_years_diff","win_streak_diff","wins_last_3_years_diff","youth_form_score_diff"],"feature_types":["float","float","float","float","float","float","float","float","float","float","float","float","float","float","float","float","float","float","float","float","float","float","float","float","float","float","float","float","float","float","float","float","float","float","float","float","float","float","float","float","float","float","float","float","float","float","float","float","float","float","float","float","float","float","float","float","float","float","float","float","float","float","float","float","float","float","float","float","float","float","float","float","float","float","float","float","float","float","float","float","float","float","float","float","float","float","float","float","float","float","float","float","float","float","float","float","float","float","float","float","float","float","float","float","float","float","float","float","float","float","float","float","float","float","float","float","float","float","float","float","float","float","float","float","float","float","float","float","float","float","float","float","float","float","float","float","float","float","float","float","float","float","float","float","float","float","float","float","float","float","float","float","float","float","float","float","float","float","float","float","float","float","float","float","float","float","float","float","float","float","float","float","float","float","float","float","float","float","float","float","float","float","float","float","float","float","float","float","float","float","float","float","float","float","float","float","float","float","float","float","float","float","float","float","float","float","float","float","float","float","float","float","float","float","float","float","float","float","float","float","float","float","float","float","float","float","float","float","float","float","float","float","float","float","float","float","float","float","float","float","float","float","float","float"],"gradient_booster":{"model":{"cats":{"enc":[],"feature_segments":[],"sorted_idx":[]},"gbtree_model_param":{"num_parallel_tree":"1","num_trees":"200"},"iteration_indptr":[0,1,2,3,4,5,6,7,8,9,10,11,12,13,14,15,16,17,18,19,20,21,22,23,24,25,26,27,28,29,30,31,32,33,34,35,36,37,38,39,40,41,42,43,44,45,46,47,48,49,50,51,52,53,54,55,56,57,58,59,60,61,62,63,64,65,66,67,68,69,70,71,72,73,74,75,76,77,78,79,80,81,82,83,84,85,86,87,88,89,90,91,92,93,94,95,96,97,98,99,100,101,102,103,104,105,106,107,108,109,110,111,112,113,114,115,116,117,118,119,120,121,122,123,124,125,126,127,128,129,130,131,132,133,134,135,136,137,138,139,140,141,142,143,144,145,146,147,148,149,150,151,152,153,154,155,156,157,158,159,160,161,162,163,164,165,166,167,168,169,170,171,172,173,174,175,176,177,178,179,180,181,182,183,184,185,186,187,188,189,190,191,192,193,194,195,196,197,198,199,200],"tree_info":[0,0,0,0,0,0,0,0,0,0,0,0,0,0,0,0,0,0,0,0,0,0,0,0,0,0,0,0,0,0,0,0,0,0,0,0,0,0,0,0,0,0,0,0,0,0,0,0,0,0,0,0,0,0,0,0,0,0,0,0,0,0,0,0,0,0,0,0,0,0,0,0,0,0,0,0,0,0,0,0,0,0,0,0,0,0,0,0,0,0,0,0,0,0,0,0,0,0,0,0,0,0,0,0,0,0,0,0,0,0,0,0,0,0,0,0,0,0,0,0,0,0,0,0,0,0,0,0,0,0,0,0,0,0,0,0,0,0,0,0,0,0,0,0,0,0,0,0,0,0,0,0,0,0,0,0,0,0,0,0,0,0,0,0,0,0,0,0,0,0,0,0,0,0,0,0,0,0,0,0,0,0,0,0,0,0,0,0,0,0,0,0,0,0,0,0,0,0,0,0],"trees":[{"base_weights":[8.690713E-3,-2.9385033E-1,3.619625E-1,1.6306248E-2,-5.850457E-1,7.769948E-1,1.3776553E-1,3.4056082E-2,-6.133812E-1,-7.440324E-1,-1.401608E-1,9.03814E-1,3.4056082E-2,3.4056082E-2,5.7258576E-1,-2.5990764E-2,1.7028041E-3,-3.7767168E-2,1.7028041E-3,-4.6674576E-2,-2.0619433E-2,-3.29799E-2,1.7028041E-3,1.6234212E-2,4.9479034E-2,1.7028041E-3,2.3973437E-2,1.7028041E-3,3.71766E-2,1.7028041E-3,3.7157793E-2],"categories":[],"categories_nodes":[],"categories_segments":[],"categories_sizes":[],"default_left":[0,0,0,0,0,0,0,0,0,0,0,0,0,0,0,0,0,0,0,0,0,0,0,0,0,0,0,0,0,0,0],"id":0,"left_children":[1,3,5,7,9,11,13,15,17,19,21,23,25,27,29,-1,-1,-1,-1,-1,-1,-1,-1,-1,-1,-1,-1,-1,-1,-1,-1],"loss_changes":[4.0688408E1,1.857488E1,1.6212044E1,9.31988E0,7.3319016E0,6.2348595E0,6.8560452E0,4.4296613E0,2.6142025E0,4.461212E0,2.9134834E0,2.2503319E0,9.379228E-1,3.223922E0,3.7765455E0,0E0,0E0,0E0,0E0,0E0,0E0,0E0,0E0,0E0,0E0,0E0,0E0,0E0,0E0,0E0,0E0],"parents":[2147483647,0,0,1,1,2,2,3,3,4,4,5,5,6,6,7,7,8,8,9,9,10,10,11,11,12,12,13,13,14,14],"right_children":[2,4,6,8,10,12,14,16,18,20,22,24,26,28,30,-1,-1,-1,-1,-1,-1,-1,-1,-1,-1,-1,-1,-1,-1,-1,-1],"split_conditions":[4.8451368E-2,-1.207758E-1,-3.8240078E-1,1.2426689E0,5.994235E-1,7.411845E-1,2.0116357E-2,-9.4258976E-1,1.1765064E0,5.8772396E-2,-6.9520813E-1,-7.4325705E-1,7.626559E-2,1.2711527E0,-7.480123E-1,-2.5990764E-2,1.7028041E-3,-3.7767168E-2,1.7028041E-3,-4.6674576E-2,-2.0619433E-2,-3.29799E-2,1.7028041E-3,1.6234212E-2,4.9479034E-2,1.7028041E-3,2.3973437E-2,1.7028041E-3,3.71766E-2,1.7028041E-3,3.7157793E-2],"split_indices":[238,180,0,220,113,179,93,92,202,234,238,74,132,127,234,0,0,0,0,0,0,0,0,0,0,0,0,0,0,0,0],"split_type":[0,0,0,0,0,0,0,0,0,0,0,0,0,0,0,0,0,0,0,0,0,0,0,0,0,0,0,0,0,0,0],"sum_hessian":[3.774254E2,2.032488E2,1.741766E2,9.871091E1,1.0453789E2,6.0067753E1,1.1410885E2,7.771671E1,2.0994196E1,7.635428E1,2.8183613E1,5.176749E1,8.300264E0,8.749534E1,2.6613514E1,1.3082207E1,6.463451E1,1.7946257E1,3.0479398E0,4.7247047E1,2.9107227E1,6.682588E0,2.1501024E1,7.445332E0,4.4322155E1,5.015826E0,3.2844381E0,8.237008E1,5.1252584E0,4.2416363E0,2.2371878E1],"tree_param":{"num_deleted":"0","num_feature":"244","num_nodes":"31","size_leaf_vector":"1"}},{"base_weights":[1.2402069E-2,-3.5474038E-1,3.3458474E-1,-1.1525646E-1,-7.731822E-1,5.557332E-1,8.566471E-3,-4.2952698E-1,-1.0077819E-2,-9.903256E-1,-3.1389502E-1,1.0117813E0,3.667154E-1,-1.0077819E-2,5.1803946E-2,-5.2334208E-2,-1.283691E-2,-5.03891E-4,-2.5145316E-2,-5.2723523E-2,-8.687804E-3,-4.3771647E-2,-5.03891E-4,5.7576068E-2,1.2500859E-2,2.4393078E-2,-5.03891E-4,-5.03891E-4,4.3980945E-2],"categories":[],"categories_nodes":[],"categories_segments":[],"categories_sizes":[],"default_left":[0,0,0,0,0,0,0,0,0,0,0,0,0,0,0,0,0,0,0,0,0,0,0,0,0,0,0,0,0],"id":1,"left_children":[1,3,5,7,9,11,13,15,17,19,21,23,25,27,-1,-1,-1,-1,-1,-1,-1,-1,-1,-1,-1,-1,-1,-1,-1],"loss_changes":[4.5172554E1,1.7749666E1,1.4615229E1,6.0856204E0,6.0880737E0,1.00609665E1,7.8204103E0,4.193516E0,2.732087E0,2E0,4.679948E0,3.3380165E0,6.505618E0,4.8250084E0,0E0,0E0,0E0,0E0,0E0,0E0,0E0,0E0,0E0,0E0,0E0,0E0,0E0,0E0,0E0],"parents":[2147483647,0,0,1,1,2,2,3,3,4,4,5,5,6,6,7,7,8,8,9,9,10,10,11,11,12,12,13,13],"right_children":[2,4,6,8,10,12,14,16,18,20,22,24,26,28,-1,-1,-1,-1,-1,-1,-1,-1,-1,-1,-1,-1,-1,-1,-1],"split_conditions":[-2.8723389E-2,5.736012E-1,-1.2771367E-1,-3.1089744E-1,1.510863E-1,-9.834926E-1,1.9193248E0,-2.8433186E-1,1.4794594E0,9.174922E-1,-3.9781907E-1,4.3585175E-1,9.9341524E-1,2.0023212E0,5.1803946E-2,-5.2334208E-2,-1.283691E-2,-5.03891E-4,-2.5145316E-2,-5.2723523E-2,-8.687804E-3,-4.3771647E-2,-5.03891E-4,5.7576068E-2,1.2500859E-2,2.4393078E-2,-5.03891E-4,-5.03891E-4,4.3980945E-2],"split_indices":[238,0,180,92,230,22,215,112,161,209,236,40,7,142,0,0,0,0,0,0,0,0,0,0,0,0,0,0,0],"split_type":[0,0,0,0,0,0,0,0,0,0,0,0,0,0,0,0,0,0,0,0,0,0,0,0,0,0,0,0,0],"sum_hessian":[3.7875873E2,1.7683519E2,2.0192354E2,1.1343063E2,6.340455E1,1.1970947E2,8.221406E1,4.042811E1,7.3002525E1,4.2117935E1,2.1286615E1,3.364689E1,8.6062584E1,7.622975E1,5.9843106E0,7.6101775E0,3.2817932E1,6.315921E1,9.843312E0,3.8666706E1,3.451227E0,7.8468957E0,1.343972E1,2.78881E1,5.758788E0,7.499323E1,1.106935E1,7.135885E1,4.870899E0],"tree_param":{"num_deleted":"0","num_feature":"244","num_nodes":"29","size_leaf_vector":"1"}},{"base_weights":[-1.05828475E-2,-2.6240402E-1,3.8123566E-1,2.6192468E-1,-3.748028E-1,5.8705413E-1,4.240267E-2,-3.806672E-2,8.614188E-1,-5.7159287E-1,-5.2046556E-2,8.192364E-1,3.0798918E-1,4.599852E-1,-4.794323E-1,-2.917381E-2,1.5401939E-2,5.567785E-2,3.521229E-4,-7.164352E-2,-2.5760395E-2,-1.5590985E-2,5.679563E-3,-8.574447E-3,4.5035314E-2,2.3809439E-2,-9.436724E-3,-1.9368103E-2,3.066267E-2,-3.687231E-2,1.1181537E-2],"categories":[],"categories_nodes":[],"categories_segments":[],"categories_sizes":[],"default_left":[0,0,0,0,0,0,0,0,0,0,0,0,0,0,0,0,0,0,0,0,0,0,0,0,0,0,0,0,0,0,0],"id":2,"left_children":[1,3,5,7,9,11,13,15,17,19,21,23,25,27,29,-1,-1,-1,-1,-1,-1,-1,-1,-1,-1,-1,-1,-1,-1,-1,-1],"loss_changes":[3.7378613E1,1.374135E1,1.0256323E1,7.623254E0,1.2025467E1,5.6763306E0,1.2828489E1,5.700981E0,2.9134998E0,5.0600777E0,3.9042768E0,4.248062E0,3.8148098E0,4.563669E0,4.9818854E0,0E0,0E0,0E0,0E0,0E0,0E0,0E0,0E0,0E0,0E0,0E0,0E0,0E0,0E0,0E0,0E0],"parents":[2147483647,0,0,1,1,2,2,3,3,4,4,5,5,6,6,7,7,8,8,9,9,10,10,11,11,12,12,13,13,14,14],"right_children":[2,4,6,8,10,12,14,16,18,20,22,24,26,28,30,-1,-1,-1,-1,-1,-1,-1,-1,-1,-1,-1,-1,-1,-1,-1,-1],"split_conditions":[1.1218695E-1,-6.184754E-1,-1.2771367E-1,-1.1919364E-1,-4.3177378E-1,3.7032285E-1,1.3755435E-2,-2.5222722E-1,-1.7260396E-1,-1.2601976E0,-3.4666345E-1,-1.4606805E0,2.081831E0,-2.2926097E-1,8.2692215E-3,-2.917381E-2,1.5401939E-2,5.567785E-2,3.521229E-4,-7.164352E-2,-2.5760395E-2,-1.5590985E-2,5.679563E-3,-8.574447E-3,4.5035314E-2,2.3809439E-2,-9.436724E-3,-1.9368103E-2,3.066267E-2,-3.687231E-2,1.1181537E-2],"split_indices":[239,179,180,93,109,26,3,218,158,231,230,160,75,93,93,0,0,0,0,0,0,0,0,0,0,0,0,0,0,0,0],"split_type":[0,0,0,0,0,0,0,0,0,0,0,0,0,0,0,0,0,0,0,0,0,0,0,0,0,0,0,0,0,0,0],"sum_hessian":[3.7565472E2,2.2903792E2,1.4661682E2,4.0039185E1,1.8899873E2,9.057241E1,5.6044407E1,2.719853E1,1.2840655E1,1.167397E2,7.2259026E1,4.818689E1,4.238552E1,3.1304274E1,2.4740135E1,1.0404974E1,1.6793556E1,9.590088E0,3.250568E0,5.5640073E0,1.1117569E2,2.4588387E1,4.767064E1,3.4842188E0,4.470267E1,3.1844917E1,1.0540603E1,4.4611106E0,2.6843163E1,1.8166592E1,6.573543E0],"tree_param":{"num_deleted":"0","num_feature":"244","num_nodes":"31","size_leaf_vector":"1"}},{"base_weights":[-4.776251E-3,-2.9283518E-1,2.564775E-1,-9.337211E-2,-5.7937974E-1,4.6781293E-1,-1.8178836E-2,-1.8178836E-2,-5.458869E-1,-7.037681E-1,-1.8178836E-2,7.2842544E-1,1.5114647E-1,4.3379125E-1,-1.8178836E-2,-9.089418E-4,-1.9923106E-2,-3.6037922E-2,-9.089418E-4,-9.089418E-4,-3.8692605E-2,-2.769211E-2,-9.089418E-4,4.7641615E-3,4.164527E-2,3.631818E-2,2.4933533E-3,-9.089418E-4,3.93835E-2,1.7898541E-2,-9.089418E-4],"categories":[],"categories_nodes":[],"categories_segments":[],"categories_sizes":[],"default_left":[0,0,0,0,0,0,0,0,0,0,0,0,0,0,0,0,0,0,0,0,0,0,0,0,0,0,0,0,0,0,0],"id":3,"left_children":[1,3,5,7,9,11,13,15,17,19,21,23,25,27,29,-1,-1,-1,-1,-1,-1,-1,-1,-1,-1,-1,-1,-1,-1,-1,-1],"loss_changes":[2.862008E1,1.0261643E1,1.3470193E1,5.751291E0,5.111515E0,9.807728E0,5.378888E0,3.111526E0,3.3217664E0,3.6974945E0,2.2149906E0,4.2022934E0,3.257249E0,4.4350014E0,1.5586491E0,0E0,0E0,0E0,0E0,0E0,0E0,0E0,0E0,0E0,0E0,0E0,0E0,0E0,0E0,0E0,0E0],"parents":[2147483647,0,0,1,1,2,2,3,3,4,4,5,5,6,6,7,7,8,8,9,9,10,10,11,11,12,12,13,13,14,14],"right_children":[2,4,6,8,10,12,14,16,18,20,22,24,26,28,30,-1,-1,-1,-1,-1,-1,-1,-1,-1,-1,-1,-1,-1,-1,-1,-1],"split_conditions":[-1.3281769E-2,-3.9313126E-2,-1.1870155E-1,3.859209E-2,1.3515066E0,-5.697035E-1,-1.1004348E-1,1.4117625E0,5.8940315E-1,-1.1721696E0,0E0,-9.786597E-1,-2.8419718E-2,1.852979E-1,-7.385271E-1,-9.089418E-4,-1.9923106E-2,-3.6037922E-2,-9.089418E-4,-9.089418E-4,-3.8692605E-2,-2.769211E-2,-9.089418E-4,4.7641615E-3,4.164527E-2,3.631818E-2,2.4933533E-3,-9.089418E-4,3.93835E-2,1.7898541E-2,-9.089418E-4],"split_indices":[238,158,180,180,137,22,3,221,234,188,202,235,159,227,237,0,0,0,0,0,0,0,0,0,0,0,0,0,0,0,0],"split_type":[0,0,0,0,0,0,0,0,0,0,0,0,0,0,0,0,0,0,0,0,0,0,0,0,0,0,0,0,0,0,0],"sum_hessian":[3.7680713E2,1.7933447E2,1.9747267E2,1.0672104E2,7.2613434E1,1.1924432E2,7.822835E1,8.520499E1,2.1516054E1,5.914745E1,1.3465989E1,6.452499E1,5.4719334E1,2.489046E1,5.3337887E1,6.521275E1,1.9992231E1,1.8361725E1,3.15433E0,4.188227E0,5.495922E1,6.347262E0,7.1187267E0,9.545987E0,5.4978996E1,7.1202984E0,4.7599037E1,1.1025208E1,1.3865251E1,9.486712E0,4.3851173E1],"tree_param":{"num_deleted":"0","num_feature":"244","num_nodes":"31","size_leaf_vector":"1"}},{"base_weights":[4.442887E-3,-2.6412877E-1,3.0776203E-1,-5.231545E-3,-5.9639454E-1,5.232722E-1,-1.7819555E-1,-3.7003183E-1,2.236597E-1,2.0022652E-1,-6.931817E-1,1.3338418E-1,7.4688256E-1,-5.6880623E-1,1.1316793E-1,-3.219473E-2,-2.1093376E-3,-1.983603E-2,1.6212018E-2,-2.41031E-2,3.532549E-2,-4.585249E-2,-1.938257E-2,2.2006668E-2,-6.5709897E-3,5.0485518E-2,2.2006668E-2,1.9040417E-2,-3.720038E-2,-9.931653E-3,2.198244E-2],"categories":[],"categories_nodes":[],"categories_segments":[],"categories_sizes":[],"default_left":[0,0,0,0,0,0,0,0,0,0,0,0,0,0,0,0,0,0,0,0,0,0,0,0,0,0,0,0,0,0,0],"id":4,"left_children":[1,3,5,7,9,11,13,15,17,19,21,23,25,27,29,-1,-1,-1,-1,-1,-1,-1,-1,-1,-1,-1,-1,-1,-1,-1,-1],"loss_changes":[3.0697233E1,1.711643E1,1.8686234E1,9.649347E0,6.950886E0,1.0575745E1,6.4491343E0,3.927435E0,4.5812426E0,4.0435734E0,4.961731E0,4.647076E0,6.30328E0,4.3791213E0,3.482444E0,0E0,0E0,0E0,0E0,0E0,0E0,0E0,0E0,0E0,0E0,0E0,0E0,0E0,0E0,0E0,0E0],"parents":[2147483647,0,0,1,1,2,2,3,3,4,4,5,5,6,6,7,7,8,8,9,9,10,10,11,11,12,12,13,13,14,14],"right_children":[2,4,6,8,10,12,14,16,18,20,22,24,26,28,30,-1,-1,-1,-1,-1,-1,-1,-1,-1,-1,-1,-1,-1,-1,-1,-1],"split_conditions":[-1.2475649E-1,-1.2275773E-1,-2.1516467E-2,-8.645928E-2,-9.56002E-1,-1.16781525E-1,-8.235463E-2,4.354757E-1,-3.3371717E-1,-3.965182E-1,4.899439E-1,-1.1707801E-1,0E0,-1.8228836E-1,6.18704E-2,-3.219473E-2,-2.1093376E-3,-1.983603E-2,1.6212018E-2,-2.41031E-2,3.532549E-2,-4.585249E-2,-1.938257E-2,2.2006668E-2,-6.5709897E-3,5.0485518E-2,2.2006668E-2,1.9040417E-2,-3.720038E-2,-9.931653E-3,2.198244E-2],"split_indices":[93,180,180,239,0,209,227,37,198,97,37,2,0,87,93,0,0,0,0,0,0,0,0,0,0,0,0,0,0,0,0],"split_type":[0,0,0,0,0,0,0,0,0,0,0,0,0,0,0,0,0,0,0,0,0,0,0,0,0,0,0,0,0,0,0],"sum_hessian":[3.7338E2,1.9792676E2,1.7545325E2,1.11985664E2,8.594109E1,1.2163854E2,5.3814705E1,4.3105545E1,6.888012E1,9.082696E0,7.68584E1,4.5080196E1,7.655834E1,2.2731356E1,3.108335E1,2.2794935E1,2.0310608E1,9.059946E0,5.9820175E1,3.8051028E0,5.2775927E0,4.301307E1,3.384533E1,1.8526491E1,2.6553703E1,4.1359825E1,3.519852E1,3.2689416E0,1.9462414E1,1.5942749E1,1.51406E1],"tree_param":{"num_deleted":"0","num_feature":"244","num_nodes":"31","size_leaf_vector":"1"}},{"base_weights":[-5.527489E-3,2.5226513E-1,-3.1169215E-1,-2.923957E-1,3.7009832E-1,-3.7666818E-1,9.27162E-1,-4.1966045E-1,3.9874308E-2,4.5634428E-1,-2.0383382E-1,-4.8613992E-1,1.4662991E-1,6.574892E-2,1.407811E-2,-5.4835763E-2,-1.2160359E-2,1.6415317E-2,4.0852938E-2,-1.806807E-2,2.4105854E-2,-3.3612262E-2,-8.487751E-3,-8.487751E-3,1.4468374E-2],"categories":[],"categories_nodes":[],"categories_segments":[],"categories_sizes":[],"default_left":[0,0,0,0,0,0,0,0,0,0,0,0,0,0,0,0,0,0,0,0,0,0,0,0,0],"id":5,"left_children":[1,3,5,7,9,11,13,15,-1,17,19,21,23,-1,-1,-1,-1,-1,-1,-1,-1,-1,-1,-1,-1],"loss_changes":[3.0474232E1,1.3588198E1,1.4658478E1,5.6855216E0,8.696148E0,9.780582E0,1.8528948E0,3.884831E0,0E0,6.687189E0,2.7781432E0,8.511616E0,2.1277447E0,0E0,0E0,0E0,0E0,0E0,0E0,0E0,0E0,0E0,0E0,0E0,0E0],"parents":[2147483647,0,0,1,1,2,2,3,3,4,4,5,5,6,6,7,7,9,9,10,10,11,11,12,12],"right_children":[2,4,6,8,10,12,14,16,-1,18,20,22,24,-1,-1,-1,-1,-1,-1,-1,-1,-1,-1,-1,-1],"split_conditions":[-1.2275773E-1,-1.7747182E-1,1.9193248E0,1.3526962E0,8.5253316E-1,-1.7984657E-2,8.034769E-1,-8.5219973E-1,3.9874308E-2,8.8822764E-1,1.047972E0,1.1437395E-1,-5.2281445E-1,6.574892E-2,1.407811E-2,-5.4835763E-2,-1.2160359E-2,1.6415317E-2,4.0852938E-2,-1.806807E-2,2.4105854E-2,-3.3612262E-2,-8.487751E-3,-8.487751E-3,1.4468374E-2],"split_indices":[180,215,215,33,30,109,214,234,0,239,120,209,242,0,0,0,0,0,0,0,0,0,0,0,0],"split_type":[0,0,0,0,0,0,0,0,0,0,0,0,0,0,0,0,0,0,0,0,0,0,0,0,0],"sum_hessian":[3.8262003E2,2.076374E2,1.7498262E2,3.651658E1,1.7112083E2,1.6700037E2,7.9822454E0,3.333122E1,3.1853604E0,1.4909512E2,2.2025713E1,1.383254E2,2.867498E1,4.242199E0,3.7400465E0,5.6954823E0,2.7635735E1,1.11651184E2,3.744394E1,1.8415583E1,3.6101308E0,8.791058E1,5.0414806E1,5.4879756E0,2.3187004E1],"tree_param":{"num_deleted":"0","num_feature":"244","num_nodes":"25","size_leaf_vector":"1"}},{"base_weights":[-1.5113271E-2,2.4229053E-1,-3.1273624E-1,5.708506E-1,1.1282267E-1,-6.877244E-1,-1.3949342E-1,3.294677E-1,9.4982773E-1,-2.8435147E-1,2.7311113E-1,-5.645746E-1,-6.515258E-2,-3.5421285E-1,1.3707455E-1,3.177363E-2,-1.6230856E-3,5.4005202E-2,5.9623546E-3,-2.3815624E-2,-2.8100834E-4,3.412163E-2,5.0518704E-3,-4.8903894E-2,-2.1135906E-2,-1.6196581E-3,-2.0680446E-2,1.8734906E-2,-1.4033163E-2],"categories":[],"categories_nodes":[],"categories_segments":[],"categories_sizes":[],"default_left":[0,0,0,0,0,0,0,0,0,0,0,0,0,0,0,0,0,0,0,0,0,0,0,0,0,0,0,0,0],"id":6,"left_children":[1,3,5,7,9,11,13,15,17,19,21,23,-1,25,27,-1,-1,-1,-1,-1,-1,-1,-1,-1,-1,-1,-1,-1,-1],"loss_changes":[2.9143831E1,8.592497E0,1.1350706E1,4.9085064E0,9.5311E0,3.4922733E0,7.3703604E0,4.1876984E0,2.1230812E0,3.8792877E0,7.385747E0,2.4204235E0,0E0,3.8295908E0,5.551342E0,0E0,0E0,0E0,0E0,0E0,0E0,0E0,0E0,0E0,0E0,0E0,0E0,0E0,0E0],"parents":[2147483647,0,0,1,1,2,2,3,3,4,4,5,5,6,6,7,7,8,8,9,9,10,10,11,11,13,13,14,14],"right_children":[2,4,6,8,10,12,14,16,18,20,22,24,-1,26,28,-1,-1,-1,-1,-1,-1,-1,-1,-1,-1,-1,-1,-1,-1],"split_conditions":[1.9120039E-1,-4.4252756E-1,-3.5282242E-1,-9.099273E-2,-1.4251527E-1,1.7646848E0,-1.2257394E-1,4.899439E-1,-1.7260396E-1,2.081831E0,-9.56002E-1,-7.5738156E-1,-6.515258E-2,-1.9194834E-1,4.8505694E-1,3.177363E-2,-1.6230856E-3,5.4005202E-2,5.9623546E-3,-2.3815624E-2,-2.8100834E-4,3.412163E-2,5.0518704E-3,-4.8903894E-2,-2.1135906E-2,-1.6196581E-3,-2.0680446E-2,1.8734906E-2,-1.4033163E-2],"split_indices":[0,179,238,93,98,36,93,124,158,162,0,92,0,180,179,0,0,0,0,0,0,0,0,0,0,0,0,0,0],"split_type":[0,0,0,0,0,0,0,0,0,0,0,0,0,0,0,0,0,0,0,0,0,0,0,0,0,0,0,0,0],"sum_hessian":[3.769311E2,2.0204195E2,1.7488916E2,5.592793E1,1.4611401E2,5.414471E1,1.20744446E2,3.5469486E1,2.0458445E1,4.1610558E1,1.04503456E2,4.68486E1,7.2961125E0,6.801803E1,5.2726418E1,1.8959808E1,1.6509678E1,1.7320856E1,3.137588E0,3.1278713E1,1.0331844E1,2.9879747E1,7.462371E1,1.0280822E1,3.6567776E1,2.864735E1,3.9370678E1,3.382692E1,1.8899496E1],"tree_param":{"num_deleted":"0","num_feature":"244","num_nodes":"29","size_leaf_vector":"1"}},{"base_weights":[1.6453888E-3,-2.3339772E-1,2.7918765E-1,6.037736E-2,-4.215659E-1,5.6998605E-1,1.2370519E-2,-3.5967505E-1,2.8473634E-1,-6.2965465E-1,-1.4648746E-1,9.147291E-1,3.377072E-1,-3.9575577E-1,2.217317E-1,-3.3497456E-2,2.1539978E-3,1.8204572E-2,-3.1443946E-2,-4.209214E-2,-1.9403553E-2,-1.9403553E-2,4.411261E-3,5.211071E-2,1.454997E-2,2.3517467E-2,-1.1094055E-2,2.2013957E-2,-2.914155E-2,-2.7053538E-3,3.0058002E-2],"categories":[],"categories_nodes":[],"categories_segments":[],"categories_sizes":[],"default_left":[0,0,0,0,0,0,0,0,0,0,0,0,0,0,0,0,0,0,0,0,0,0,0,0,0,0,0,0,0,0,0],"id":7,"left_children":[1,3,5,7,9,11,13,15,17,19,21,23,25,27,29,-1,-1,-1,-1,-1,-1,-1,-1,-1,-1,-1,-1,-1,-1,-1,-1],"loss_changes":[2.4984898E1,1.1515424E1,1.3578661E1,7.865603E0,7.118347E0,6.3940563E0,8.094993E0,3.7315106E0,4.233924E0,3.5858078E0,5.4037867E0,2.2616653E0,4.0364795E0,5.332226E0,6.656596E0,0E0,0E0,0E0,0E0,0E0,0E0,0E0,0E0,0E0,0E0,0E0,0E0,0E0,0E0,0E0,0E0],"parents":[2147483647,0,0,1,1,2,2,3,3,4,4,5,5,6,6,7,7,8,8,9,9,10,10,11,11,12,12,13,13,14,14],"right_children":[2,4,6,8,10,12,14,16,18,20,22,24,26,28,30,-1,-1,-1,-1,-1,-1,-1,-1,-1,-1,-1,-1,-1,-1,-1,-1],"split_conditions":[-1.1919364E-1,-2.094739E-1,-1.0208821E-1,-2.508886E-2,-5.697035E-1,-8.4556293E-1,-2.821075E-1,1.2839094E0,1.3627967E0,4.058386E-1,-1.5471384E-1,4.1266307E-1,7.364522E-2,-7.6480156E-1,1.814992E-1,-3.3497456E-2,2.1539978E-3,1.8204572E-2,-3.1443946E-2,-4.209214E-2,-1.9403553E-2,-1.9403553E-2,4.411261E-3,5.211071E-2,1.454997E-2,2.3517467E-2,-1.1094055E-2,2.2013957E-2,-2.914155E-2,-2.7053538E-3,3.0058002E-2],"split_indices":[93,179,167,239,109,22,234,164,7,37,98,3,158,0,238,0,0,0,0,0,0,0,0,0,0,0,0,0,0,0,0],"split_type":[0,0,0,0,0,0,0,0,0,0,0,0,0,0,0,0,0,0,0,0,0,0,0,0,0,0,0,0,0,0,0],"sum_hessian":[3.7936633E2,2.053011E2,1.7406525E2,8.0214676E1,1.2508642E2,8.2566605E1,9.149864E1,2.7562468E1,5.2652214E1,7.02738E1,5.481261E1,3.1880985E1,5.068562E1,3.0559113E1,6.093953E1,1.5334197E1,1.222827E1,4.9098534E1,3.5536783E0,3.7141636E1,3.3132168E1,1.760291E1,3.72097E1,2.578042E1,6.100566E0,4.1246838E1,9.43878E0,5.242495E0,2.5316616E1,3.5630516E1,2.5309011E1],"tree_param":{"num_deleted":"0","num_feature":"244","num_nodes":"31","size_leaf_vector":"1"}},{"base_weights":[1.9863885E-2,-2.0248938E-1,2.5563645E-1,-4.1970623E-1,7.449386E-2,3.9495984E-1,-1.06231526E-1,-5.457662E-1,2.707682E-1,3.4708968E-1,-2.306243E-1,-3.5710132E-1,4.6012086E-1,-2.9770684E-1,3.7873527E-1,3.8767763E-4,-3.1668894E-2,-1.7109392E-2,2.7894324E-2,2.3598414E-2,-3.5208277E-2,-1.85732E-2,3.2126244E-2,-4.1526E-2,9.680571E-3,1.858251E-2,4.998017E-2,1.40957255E-2,-2.1419687E-2,5.222113E-2,-2.8572994E-4],"categories":[],"categories_nodes":[],"categories_segments":[],"categories_sizes":[],"default_left":[0,0,0,0,0,0,0,0,0,0,0,0,0,0,0,0,0,0,0,0,0,0,0,0,0,0,0,0,0,0,0],"id":8,"left_children":[1,3,5,7,9,11,13,15,17,19,21,23,25,27,29,-1,-1,-1,-1,-1,-1,-1,-1,-1,-1,-1,-1,-1,-1,-1,-1],"loss_changes":[1.9896107E1,1.1810411E1,9.372435E0,9.760933E0,7.346944E0,6.772629E0,5.010629E0,4.58729E0,3.4018312E0,6.5142307E0,5.4121904E0,3.2358804E0,5.5383415E0,3.0740385E0,4.057257E0,0E0,0E0,0E0,0E0,0E0,0E0,0E0,0E0,0E0,0E0,0E0,0E0,0E0,0E0,0E0,0E0],"parents":[2147483647,0,0,1,1,2,2,3,3,4,4,5,5,6,6,7,7,8,8,9,9,10,10,11,11,12,12,13,13,14,14],"right_children":[2,4,6,8,10,12,14,16,18,20,22,24,26,28,30,-1,-1,-1,-1,-1,-1,-1,-1,-1,-1,-1,-1,-1,-1,-1,-1],"split_conditions":[1.4280382E-2,-6.6690575E-3,3.073425E-1,4.8261914E-1,-1.2275773E-1,-1.1837482E0,1.073747E0,0E0,-2.6588395E-1,1.3866181E0,9.936224E-1,-5.3271838E-2,1.500327E0,-7.472901E-1,-3.838022E-1,3.8767763E-4,-3.1668894E-2,-1.7109392E-2,2.7894324E-2,2.3598414E-2,-3.5208277E-2,-1.85732E-2,3.2126244E-2,-4.1526E-2,9.680571E-3,1.858251E-2,4.998017E-2,1.40957255E-2,-2.1419687E-2,5.222113E-2,-2.8572994E-4],"split_indices":[224,152,65,230,180,218,33,220,86,30,218,238,107,7,94,0,0,0,0,0,0,0,0,0,0,0,0,0,0,0,0],"split_type":[0,0,0,0,0,0,0,0,0,0,0,0,0,0,0,0,0,0,0,0,0,0,0,0,0,0,0,0,0,0,0],"sum_hessian":[3.7575635E2,1.9323582E2,1.8252052E2,1.0821601E2,8.501981E1,1.3191617E2,5.060436E1,9.180887E1,1.640714E1,4.5003445E1,4.0016373E1,1.0038701E1,1.21877464E2,3.6704834E1,1.3899528E1,1.25144205E1,7.929445E1,5.061494E0,1.1345647E1,4.0802666E1,4.2007804E0,3.5051617E1,4.964756E0,5.2226043E0,4.8160973E0,1.0631667E2,1.5560788E1,6.399493E0,3.030534E1,4.5553083E0,9.344219E0],"tree_param":{"num_deleted":"0","num_feature":"244","num_nodes":"31","size_leaf_vector":"1"}},{"base_weights":[1.1316899E-2,2.7888396E-1,-2.1880153E-1,4.4556946E-1,-7.154011E-2,-5.8557117E-1,-4.7317732E-2,5.000683E-1,-2.9295662E-2,-4.4421092E-1,2.2594422E-1,-4.0615237E-1,-1.0244747E0,-3.1644446E-1,1.15834355E-1,1.0754908E-2,3.202989E-2,-2.997801E-2,7.7650235E-3,1.9045878E-2,-2.0786967E-2,-1.5822222E-2,-3.737399E-2,-6.462578E-2,-2.1534484E-2,-1.5822222E-2,6.2309303E-3,2.8883917E-2,-5.5726874E-4],"categories":[],"categories_nodes":[],"categories_segments":[],"categories_sizes":[],"default_left":[0,0,0,0,0,0,0,0,0,0,0,0,0,0,0,0,0,0,0,0,0,0,0,0,0,0,0,0,0],"id":9,"left_children":[1,3,5,7,9,11,13,15,-1,17,19,21,23,25,27,-1,-1,-1,-1,-1,-1,-1,-1,-1,-1,-1,-1,-1,-1],"loss_changes":[2.3199396E1,1.0258359E1,1.2664703E1,7.045206E0,6.5205827E0,4.6434326E0,9.356408E0,4.361002E0,0E0,2.5863538E0,3.4519844E0,1.9313016E0,2.2325115E0,8.2815933E-1,6.2313223E0,0E0,0E0,0E0,0E0,0E0,0E0,0E0,0E0,0E0,0E0,0E0,0E0,0E0,0E0],"parents":[2147483647,0,0,1,1,2,2,3,3,4,4,5,5,6,6,7,7,9,9,10,10,11,11,12,12,13,13,14,14],"right_children":[2,4,6,8,10,12,14,16,-1,18,20,22,24,26,28,-1,-1,-1,-1,-1,-1,-1,-1,-1,-1,-1,-1,-1,-1],"split_conditions":[0E0,3.654433E-1,-3.3167046E-1,8.90314E-1,4.7990665E-2,9.791689E-1,-4.679937E-1,-6.8555677E-1,-2.9295662E-2,9.02162E-1,1.9417328E-1,1.3384027E0,-1.3475853E-1,1.1847693E0,-5.999484E-1,1.0754908E-2,3.202989E-2,-2.997801E-2,7.7650235E-3,1.9045878E-2,-2.0786967E-2,-1.5822222E-2,-3.737399E-2,-6.462578E-2,-2.1534484E-2,-1.5822222E-2,6.2309303E-3,2.8883917E-2,-5.5726874E-4],"split_indices":[0,179,238,7,36,119,92,74,0,91,180,0,8,217,33,0,0,0,0,0,0,0,0,0,0,0,0,0,0],"split_type":[0,0,0,0,0,0,0,0,0,0,0,0,0,0,0,0,0,0,0,0,0,0,0,0,0,0,0,0,0],"sum_hessian":[3.731157E2,1.7262314E2,2.0049255E2,1.1698905E2,5.563409E1,6.2920433E1,1.3757213E2,1.116995E2,5.2895503E0,2.4626453E1,3.1007637E1,4.619121E1,1.6729221E1,3.5005733E1,1.0256639E2,3.7961723E1,7.373778E1,1.9690771E1,4.935681E0,2.5428585E1,5.5790524E0,3.4580593E1,1.1610618E1,1.0599393E1,6.1298294E0,3.1687346E1,3.318389E0,2.1522833E1,8.104356E1],"tree_param":{"num_deleted":"0","num_feature":"244","num_nodes":"29","size_leaf_vector":"1"}},{"base_weights":[-1.236327E-2,2.506345E-1,-2.3430692E-1,5.4989845E-1,4.873137E-2,-9.310089E-2,-5.582397E-1,3.6324075E-1,8.4242725E-1,-3.785375E-1,2.2400145E-1,-2.4599433E-1,2.1756387E-1,-7.2832E-1,-1.915166E-1,-3.2047497E-3,2.6945446E-2,-0E0,4.8860367E-2,-3.8634015E-3,-3.6921937E-2,1.814378E-2,-3.8634015E-3,-5.2796602E-2,-9.524426E-3,2.4785792E-2,-7.107616E-4,-4.2483434E-2,-3.9106268E-3,7.5746456E-4,-3.860289E-2],"categories":[],"categories_nodes":[],"categories_segments":[],"categories_sizes":[],"default_left":[0,0,0,0,0,0,0,0,0,0,0,0,0,0,0,0,0,0,0,0,0,0,0,0,0,0,0,0,0,0,0],"id":10,"left_children":[1,3,5,7,9,11,13,15,17,19,21,23,25,27,29,-1,-1,-1,-1,-1,-1,-1,-1,-1,-1,-1,-1,-1,-1,-1,-1],"loss_changes":[2.1902924E1,1.03045225E1,9.243409E0,3.4460907E0,7.916096E0,6.90667E0,3.6552773E0,3.4178271E0,3.0247173E0,3.4811592E0,4.3618107E0,4.2032747E0,3.8540769E0,3.1337757E0,2.7164152E0,0E0,0E0,0E0,0E0,0E0,0E0,0E0,0E0,0E0,0E0,0E0,0E0,0E0,0E0,0E0,0E0],"parents":[2147483647,0,0,1,1,2,2,3,3,4,4,5,5,6,6,7,7,8,8,9,9,10,10,11,11,12,12,13,13,14,14],"right_children":[2,4,6,8,10,12,14,16,18,20,22,24,26,28,30,-1,-1,-1,-1,-1,-1,-1,-1,-1,-1,-1,-1,-1,-1,-1,-1],"split_conditions":[0E0,-1.9947965E-1,-1.6807517E-2,-7.657431E-2,-1.024495E-1,3.8323537E-1,3.3689633E-1,-3.5541108E-1,-1.0319765E0,-1.2651084E-1,5.653063E-2,-1.2303334E0,-3.901121E-2,9.0402335E-2,8.5765815E-1,-3.2047497E-3,2.6945446E-2,-0E0,4.8860367E-2,-3.8634015E-3,-3.6921937E-2,1.814378E-2,-3.8634015E-3,-5.2796602E-2,-9.524426E-3,2.4785792E-2,-7.107616E-4,-4.2483434E-2,-3.9106268E-3,7.5746456E-4,-3.860289E-2],"split_indices":[0,180,180,93,98,238,8,218,156,2,180,231,25,93,160,0,0,0,0,0,0,0,0,0,0,0,0,0,0,0,0],"split_type":[0,0,0,0,0,0,0,0,0,0,0,0,0,0,0,0,0,0,0,0,0,0,0,0,0,0,0,0,0,0,0],"sum_hessian":[3.7164108E2,1.69824E2,2.018171E2,6.752239E1,1.02301605E2,1.4166138E2,6.0155712E1,4.279757E1,2.4724827E1,2.9254776E1,7.304683E1,9.529304E1,4.6368343E1,4.0236134E1,1.9919577E1,1.2487053E1,3.0310514E1,3.4675336E0,2.1257292E1,1.6160713E1,1.3094063E1,5.6094643E1,1.6952185E1,4.840166E0,9.045287E1,2.3394714E1,2.2973629E1,3.3518753E1,6.7173796E0,1.5281274E1,4.6383033E0],"tree_param":{"num_deleted":"0","num_feature":"244","num_nodes":"31","size_leaf_vector":"1"}},{"base_weights":[-1.1984148E-2,-2.2135839E-1,2.1587226E-1,-3.0273277E-1,4.8327833E-1,4.4421417E-1,-3.2665025E-2,4.0780115E-1,-3.9001948E-1,6.850122E-1,-1.166997E-2,-2.3514415E-1,5.3981835E-1,-2.210821E-1,2.719069E-1,3.647294E-2,-1.3178422E-2,-2.9646603E-2,-8.656877E-3,-5.030864E-4,4.31189E-2,-2.6360786E-2,2.0665115E-2,9.791505E-3,3.4366988E-2,1.3742113E-3,-2.673311E-2,4.0834595E-2,2.8095231E-3],"categories":[],"categories_nodes":[],"categories_segments":[],"categories_sizes":[],"default_left":[0,0,0,0,0,0,0,0,0,0,0,0,0,0,0,0,0,0,0,0,0,0,0,0,0,0,0,0,0],"id":11,"left_children":[1,3,5,7,9,11,13,15,17,19,-1,21,23,25,27,-1,-1,-1,-1,-1,-1,-1,-1,-1,-1,-1,-1,-1,-1],"loss_changes":[1.7835022E1,1.1370075E1,1.0207295E1,1.1093491E1,3.234459E0,6.2655296E0,5.078497E0,4.562804E0,6.7724667E0,2.1340208E0,0E0,2.6513705E0,4.0059853E0,4.330551E0,3.875563E0,0E0,0E0,0E0,0E0,0E0,0E0,0E0,0E0,0E0,0E0,0E0,0E0,0E0,0E0],"parents":[2147483647,0,0,1,1,2,2,3,3,4,4,5,5,6,6,7,7,8,8,9,9,11,11,12,12,13,13,14,14],"right_children":[2,4,6,8,10,12,14,16,18,20,-1,22,24,26,28,-1,-1,-1,-1,-1,-1,-1,-1,-1,-1,-1,-1,-1,-1],"split_conditions":[2.8560763E-2,1.0127306E0,0E0,-2.9027772E-1,-1.7984657E-2,-9.0763587E-1,6.7231554E-1,-4.7319084E-1,-1.7086442E-1,-4.6543896E-1,-1.166997E-2,-8.815859E-2,-4.9913883E-2,-2.3504001E-1,-1.3250019E-1,3.647294E-2,-1.3178422E-2,-2.9646603E-2,-8.656877E-3,-5.030864E-4,4.31189E-2,-2.6360786E-2,2.0665115E-2,9.791505E-3,3.4366988E-2,1.3742113E-3,-2.673311E-2,4.0834595E-2,2.8095231E-3],"split_indices":[224,218,0,180,22,218,80,184,230,235,0,234,91,180,121,0,0,0,0,0,0,0,0,0,0,0,0,0,0],"split_type":[0,0,0,0,0,0,0,0,0,0,0,0,0,0,0,0,0,0,0,0,0,0,0,0,0,0,0,0,0],"sum_hessian":[3.700471E2,1.9308823E2,1.7695885E2,1.737367E2,1.9351543E1,9.202581E1,8.493304E1,1.8480837E1,1.5525586E2,1.5244238E1,4.107305E0,1.1043779E1,8.098203E1,5.28444E1,3.2088634E1,1.2536799E1,5.944038E0,7.907712E1,7.6178734E1,3.1762764E0,1.2067962E1,7.84943E0,3.1943498E0,2.5207914E1,5.5774117E1,2.9809042E1,2.3035357E1,8.180223E0,2.3908413E1],"tree_param":{"num_deleted":"0","num_feature":"244","num_nodes":"29","size_leaf_vector":"1"}},{"base_weights":[-2.8332125E-3,1.9473165E-1,-2.3640776E-1,-5.126049E-1,2.843249E-1,-4.3276465E-1,2.2795765E-2,-7.133087E-1,8.851177E-3,3.536097E-1,-3.7623176E-1,-6.434294E-1,-5.5915453E-2,-4.4695925E-2,1.06483445E-1,-1.7231945E-2,-5.4932326E-2,2.108223E-3,2.4957268E-2,8.402191E-3,-3.5207555E-2,-4.4224672E-2,-1.7483622E-2,-1.3504736E-2,1.5118278E-2,-9.020384E-3,1.6735764E-2],"categories":[],"categories_nodes":[],"categories_segments":[],"categories_sizes":[],"default_left":[0,0,0,0,0,0,0,0,0,0,0,0,0,0,0,0,0,0,0,0,0,0,0,0,0,0,0],"id":12,"left_children":[1,3,5,7,9,11,13,15,-1,17,19,21,23,-1,25,-1,-1,-1,-1,-1,-1,-1,-1,-1,-1,-1,-1],"loss_changes":[1.7513596E1,1.31924715E1,8.912363E0,3.4670043E0,8.555339E0,7.7944736E0,5.996789E0,2.2204437E0,0E0,7.4635506E0,3.4190137E0,5.8856735E0,2.998561E0,0E0,4.7468557E0,0E0,0E0,0E0,0E0,0E0,0E0,0E0,0E0,0E0,0E0,0E0,0E0],"parents":[2147483647,0,0,1,1,2,2,3,3,4,4,5,5,6,6,7,7,9,9,10,10,11,11,12,12,14,14],"right_children":[2,4,6,8,10,12,14,16,-1,18,20,22,24,-1,26,-1,-1,-1,-1,-1,-1,-1,-1,-1,-1,-1,-1],"split_conditions":[-1.2275773E-1,-4.2067394E-1,5.8772396E-2,1.0178952E0,9.430274E-1,-4.3177378E-1,-1.202835E0,6.1641354E-2,8.851177E-3,-2.617813E-1,-3.3738965E-1,2.2606637E-1,1.3475853E-1,-4.4695925E-2,-7.340659E-2,-1.7231945E-2,-5.4932326E-2,2.108223E-3,2.4957268E-2,8.402191E-3,-3.5207555E-2,-4.4224672E-2,-1.7483622E-2,-1.3504736E-2,1.5118278E-2,-9.020384E-3,1.6735764E-2],"split_indices":[180,215,234,123,7,109,113,119,0,218,123,132,8,0,80,0,0,0,0,0,0,0,0,0,0,0,0],"split_type":[0,0,0,0,0,0,0,0,0,0,0,0,0,0,0,0,0,0,0,0,0,0,0,0,0,0,0],"sum_hessian":[3.755805E2,2.0333305E2,1.7224747E2,2.2203035E1,1.8113002E2,9.784342E1,7.4404045E1,1.728362E1,4.919415E0,1.6449269E2,1.6637325E1,6.2135773E1,3.570765E1,5.314335E0,6.908971E1,9.933599E0,7.350022E0,5.301588E1,1.1147681E2,6.323788E0,1.0313537E1,3.888316E1,2.3252613E1,2.2676785E1,1.3030865E1,3.0509792E1,3.8579918E1],"tree_param":{"num_deleted":"0","num_feature":"244","num_nodes":"27","size_leaf_vector":"1"}},{"base_weights":[-1.4575226E-2,1.9296004E-1,-2.5931585E-1,-1.6896967E-2,4.070256E-1,-7.195893E-1,-1.602262E-1,4.7712973E-1,-1.3862124E-1,-1.5716972E-2,4.5146352E-1,-9.615909E-1,-1.4460441E-1,-3.276093E-2,-5.629157E-1,3.9977536E-2,4.7913203E-3,-2.041929E-2,1.4561582E-3,2.8223485E-2,3.4281022E-3,-5.5495944E-2,-4.758935E-3,-2.6202101E-2,2.731966E-2,1.6054915E-2,-8.580435E-3,-3.345138E-2,9.24168E-3],"categories":[],"categories_nodes":[],"categories_segments":[],"categories_sizes":[],"default_left":[0,0,0,0,0,0,0,0,0,0,0,0,0,0,0,0,0,0,0,0,0,0,0,0,0,0,0,0,0],"id":13,"left_children":[1,3,5,7,9,11,13,15,17,-1,19,21,23,25,27,-1,-1,-1,-1,-1,-1,-1,-1,-1,-1,-1,-1,-1,-1],"loss_changes":[1.9280901E1,9.266773E0,7.8353615E0,6.397288E0,3.477129E0,4.0404215E0,7.413642E0,2.4491892E0,3.922511E0,0E0,4.2004795E0,2.5223846E0,3.161284E0,5.577198E0,2.9623861E0,0E0,0E0,0E0,0E0,0E0,0E0,0E0,0E0,0E0,0E0,0E0,0E0,0E0,0E0],"parents":[2147483647,0,0,1,1,2,2,3,3,4,4,5,5,6,6,7,7,8,8,10,10,11,11,12,12,13,13,14,14],"right_children":[2,4,6,8,10,12,14,16,18,-1,20,22,24,26,28,-1,-1,-1,-1,-1,-1,-1,-1,-1,-1,-1,-1,-1,-1],"split_conditions":[1.9120039E-1,8.1476765E-3,-7.5738156E-1,-6.416264E-1,-2.816508E-1,1.4123516E0,1.0347265E0,3.373221E-1,-5.7362354E-1,-1.5716972E-2,8.1181616E-1,7.1798664E-1,-3.6821637E-2,-7.968993E-2,9.6181333E-1,3.9977536E-2,4.7913203E-3,-2.041929E-2,1.4561582E-3,2.8223485E-2,3.4281022E-3,-5.5495944E-2,-4.758935E-3,-2.6202101E-2,2.731966E-2,1.6054915E-2,-8.580435E-3,-3.345138E-2,9.24168E-3],"split_indices":[0,239,92,179,98,42,190,124,235,0,122,239,185,35,217,0,0,0,0,0,0,0,0,0,0,0,0,0,0],"split_type":[0,0,0,0,0,0,0,0,0,0,0,0,0,0,0,0,0,0,0,0,0,0,0,0,0,0,0,0,0],"sum_hessian":[3.757635E2,2.0323076E2,1.7253273E2,1.0285339E2,1.00377365E2,2.9275635E1,1.432571E2,1.9592901E1,8.326049E1,5.34166E0,9.5035706E1,2.0008215E1,9.267421E0,1.0982373E2,3.343336E1,9.879708E0,9.713194E0,3.1601269E1,5.165922E1,7.326149E1,2.1774214E1,1.6745031E1,3.263183E0,6.2317843E0,3.0356362E0,3.0376127E1,7.94476E1,2.9487804E1,3.9455552E0],"tree_param":{"num_deleted":"0","num_feature":"244","num_nodes":"29","size_leaf_vector":"1"}},{"base_weights":[-1.7954111E-2,1.7873296E-1,-2.4647874E-1,-2.1418586E-2,4.1711247E-1,-3.717168E-1,8.678383E-2,1.9784695E-1,-2.62918E-1,3.470069E-1,8.650882E-1,-7.144094E-1,-2.4708506E-1,-6.319179E-1,2.3220742E-1,9.892347E-3,-1.3119175E-2,-2.0112723E-2,8.507926E-3,9.892347E-3,2.9459475E-2,1.2504312E-2,5.210206E-2,-4.286178E-2,-5.6672273E-3,-3.9053615E-2,-6.3014575E-3,-8.143896E-3,-4.9693733E-2,2.9524723E-2,-6.709146E-4],"categories":[],"categories_nodes":[],"categories_segments":[],"categories_sizes":[],"default_left":[0,0,0,0,0,0,0,0,0,0,0,0,0,0,0,0,0,0,0,0,0,0,0,0,0,0,0,0,0,0,0],"id":14,"left_children":[1,3,5,7,9,11,13,15,17,19,21,23,25,27,29,-1,-1,-1,-1,-1,-1,-1,-1,-1,-1,-1,-1,-1,-1,-1,-1],"loss_changes":[1.7015852E1,9.74878E0,7.382368E0,6.443376E0,2.6449013E0,5.2769737E0,5.3031635E0,2.5022774E0,3.4943535E0,3.3548174E0,9.649372E-1,2.7049122E0,6.083945E0,1.231394E0,3.7447493E0,0E0,0E0,0E0,0E0,0E0,0E0,0E0,0E0,0E0,0E0,0E0,0E0,0E0,0E0,0E0,0E0],"parents":[2147483647,0,0,1,1,2,2,3,3,4,4,5,5,6,6,7,7,8,8,9,9,10,10,11,11,12,12,13,13,14,14],"right_children":[2,4,6,8,10,12,14,16,18,20,22,24,26,28,30,-1,-1,-1,-1,-1,-1,-1,-1,-1,-1,-1,-1,-1,-1,-1,-1],"split_conditions":[1.9120039E-1,8.2025014E-2,-3.8079966E-2,6.447994E-2,9.790514E-1,-8.070515E-1,-8.8470614E-1,1.2426689E0,5.00486E-1,4.3820202E-1,9.9962674E-2,8.30546E-1,-8.721081E-1,7.3406726E-1,-1.4673872E-1,9.892347E-3,-1.3119175E-2,-2.0112723E-2,8.507926E-3,9.892347E-3,2.9459475E-2,1.2504312E-2,5.210206E-2,-4.286178E-2,-5.6672273E-3,-3.9053615E-2,-6.3014575E-3,-8.143896E-3,-4.9693733E-2,2.9524723E-2,-6.709146E-4],"split_indices":[0,238,93,179,81,235,218,220,197,215,224,27,239,231,60,0,0,0,0,0,0,0,0,0,0,0,0,0,0,0,0],"split_type":[0,0,0,0,0,0,0,0,0,0,0,0,0,0,0,0,0,0,0,0,0,0,0,0,0,0,0,0,0,0,0],"sum_hessian":[3.7462585E2,2.0121983E2,1.7340602E2,1.09647064E2,9.157276E1,1.26174934E2,4.7231094E1,5.5283905E1,5.4363163E1,8.0908844E1,1.0663922E1,3.2173843E1,9.400109E1,7.269803E0,3.9961292E1,4.4719997E1,1.0563906E1,4.1358658E1,1.3004506E1,4.816464E1,3.27442E1,3.0482185E0,7.6157036E0,2.5517714E1,6.656131E0,1.6211716E1,7.7789375E1,3.9184134E0,3.3513894E0,1.5847739E1,2.4113554E1],"tree_param":{"num_deleted":"0","num_feature":"244","num_nodes":"31","size_leaf_vector":"1"}},{"base_weights":[8.876677E-3,1.3319182E-1,-3.294003E-1,-8.93046E-2,4.0449473E-1,-4.520774E-1,1.142414E-1,8.842525E-2,-2.8931734E-1,9.004017E-2,5.814786E-1,-5.725318E-1,-5.5236705E-2,-1.3852382E-1,3.6450252E-2,-1.0581222E-2,1.4382906E-2,-5.4772194E-2,-1.0286099E-2,1.6787969E-2,-7.8495005E-3,1.6787969E-2,3.520348E-2,-3.3175346E-2,-2.1023597E-4,3.2801926E-2,-1.756506E-2,2.912187E-2,-1.9712765E-2],"categories":[],"categories_nodes":[],"categories_segments":[],"categories_sizes":[],"default_left":[0,0,0,0,0,0,0,0,0,0,0,0,0,0,0,0,0,0,0,0,0,0,0,0,0,0,0,0,0],"id":15,"left_children":[1,3,5,7,9,11,13,15,17,19,21,23,25,27,-1,-1,-1,-1,-1,-1,-1,-1,-1,-1,-1,-1,-1,-1,-1],"loss_changes":[1.5638568E1,1.6490517E1,5.53576E0,5.415602E0,6.7476482E0,3.6762695E0,3.7489605E0,4.9107704E0,4.618671E0,4.026882E0,2.9461002E0,3.0336075E0,4.4961624E0,3.4030364E0,0E0,0E0,0E0,0E0,0E0,0E0,0E0,0E0,0E0,0E0,0E0,0E0,0E0,0E0,0E0],"parents":[2147483647,0,0,1,1,2,2,3,3,4,4,5,5,6,6,7,7,8,8,9,9,10,10,11,11,12,12,13,13],"right_children":[2,4,6,8,10,12,14,16,18,20,22,24,26,28,-1,-1,-1,-1,-1,-1,-1,-1,-1,-1,-1,-1,-1,-1,-1],"split_conditions":[-2.1516467E-2,-1.272631E-1,6.722014E-2,1.9120039E-1,-1.16781525E-1,5.669484E-1,4.4885732E-2,0E0,-1.2303334E0,-1.1707801E-1,-3.2908946E-1,-1.7984657E-2,1.3755435E-1,-1.5266424E-2,3.6450252E-2,-1.0581222E-2,1.4382906E-2,-5.4772194E-2,-1.0286099E-2,1.6787969E-2,-7.8495005E-3,1.6787969E-2,3.520348E-2,-3.3175346E-2,-2.1023597E-4,3.2801926E-2,-1.756506E-2,2.912187E-2,-1.9712765E-2],"split_indices":[180,93,93,0,209,8,225,242,231,2,216,109,3,86,0,0,0,0,0,0,0,0,0,0,0,0,0,0,0],"split_type":[0,0,0,0,0,0,0,0,0,0,0,0,0,0,0,0,0,0,0,0,0,0,0,0,0,0,0,0,0],"sum_hessian":[3.681434E2,2.6986954E2,9.8273865E1,1.4843759E2,1.2143193E2,7.714727E1,2.1126595E1,7.862761E1,6.980998E1,4.447865E1,7.6953285E1,5.865025E1,1.8497026E1,1.5404792E1,5.7218018E0,3.1150324E1,4.7477287E1,5.30946E0,6.450053E1,1.7728336E1,2.675031E1,2.0888464E1,5.6064823E1,5.0261242E1,8.389006E0,4.979788E0,1.3517238E1,3.5966115E0,1.1808181E1],"tree_param":{"num_deleted":"0","num_feature":"244","num_nodes":"29","size_leaf_vector":"1"}},{"base_weights":[9.380965E-3,2.1088022E-1,-1.6005474E-1,3.7822288E-2,4.1965437E-1,-2.3804164E-1,2.9976925E-1,4.4139317E-1,-9.768881E-2,1.5665694E-1,6.0699606E-1,-5.905248E-1,-1.303088E-1,5.0636446E-1,-3.7362832E-1,4.0481906E-2,-0E0,-8.405178E-3,4.396343E-2,1.3761565E-2,-2.343925E-2,1.9091325E-2,4.2291347E-2,-4.598423E-2,-1.3691135E-2,7.706612E-3,-1.7892104E-2,4.568013E-2,3.019993E-3,-4.2418133E-2,6.286247E-3],"categories":[],"categories_nodes":[],"categories_segments":[],"categories_sizes":[],"default_left":[0,0,0,0,0,0,0,0,0,0,0,0,0,0,0,0,0,0,0,0,0,0,0,0,0,0,0,0,0,0,0],"id":16,"left_children":[1,3,5,7,9,11,13,15,17,19,21,23,25,27,29,-1,-1,-1,-1,-1,-1,-1,-1,-1,-1,-1,-1,-1,-1,-1,-1],"loss_changes":[1.2847355E1,6.169576E0,7.418382E0,5.368412E0,3.700386E0,6.5648527E0,4.4483476E0,3.943378E0,5.1982145E0,2.7248878E0,2.2198334E0,3.9497023E0,8.886902E0,4.1642485E0,2.0606027E0,0E0,0E0,0E0,0E0,0E0,0E0,0E0,0E0,0E0,0E0,0E0,0E0,0E0,0E0,0E0,0E0],"parents":[2147483647,0,0,1,1,2,2,3,3,4,4,5,5,6,6,7,7,8,8,9,9,10,10,11,11,12,12,13,13,14,14],"right_children":[2,4,6,8,10,12,14,16,18,20,22,24,26,28,30,-1,-1,-1,-1,-1,-1,-1,-1,-1,-1,-1,-1,-1,-1,-1,-1],"split_conditions":[0E0,-2.0380357E-2,9.114575E-1,-2.3504001E-1,1.5607409E-1,-2.7176768E-1,7.879056E-1,4.4209823E-1,1.4932544E0,7.681169E-1,1.9860649E-1,4.649845E-2,2.00207E-1,-2.9384407E-1,-7.1971335E-2,4.0481906E-2,-0E0,-8.405178E-3,4.396343E-2,1.3761565E-2,-2.343925E-2,1.9091325E-2,4.2291347E-2,-4.598423E-2,-1.3691135E-2,7.706612E-3,-1.7892104E-2,4.568013E-2,3.019993E-3,-4.2418133E-2,6.286247E-3],"split_indices":[0,235,218,180,98,93,231,124,84,160,127,9,184,22,209,0,0,0,0,0,0,0,0,0,0,0,0,0,0,0,0],"split_type":[0,0,0,0,0,0,0,0,0,0,0,0,0,0,0,0,0,0,0,0,0,0,0,0,0,0,0,0,0,0,0],"sum_hessian":[3.720455E2,1.7010083E2,2.0194467E2,9.391367E1,7.618716E1,1.7325938E2,2.868528E1,2.3225527E1,7.068815E1,3.2679882E1,4.350728E1,3.9292267E1,1.3396712E2,2.2254309E1,6.4309707E0,1.2103519E1,1.1122007E1,6.6803535E1,3.8846123E0,2.8076777E1,4.6031055E0,2.3260122E1,2.0247154E1,1.8178751E1,2.1113518E1,5.9486137E1,7.448098E1,1.09669075E1,1.1287401E1,3.0411193E0,3.3898513E0],"tree_param":{"num_deleted":"0","num_feature":"244","num_nodes":"31","size_leaf_vector":"1"}},{"base_weights":[-2.2122355E-2,-2.0629863E-1,1.4292696E-1,-6.404263E-2,-4.7269067E-1,3.7004825E-1,1.1434668E-2,-4.5422968E-1,-3.1685837E-2,-6.3288635E-1,-1.7952177E-1,5.6266594E-1,3.982805E-2,-3.1685837E-2,2.6417163E-1,-3.7549376E-2,-1.5842918E-3,-1.5842918E-3,-2.1737305E-2,-3.6237124E-2,-1.5842918E-3,-3.8356822E-2,-1.5842918E-3,1.0901297E-2,3.820141E-2,-1.5842918E-3,3.435449E-2,-1.5842918E-3,3.4594413E-2,-3.4535825E-4,2.5663484E-2],"categories":[],"categories_nodes":[],"categories_segments":[],"categories_sizes":[],"default_left":[0,0,0,0,0,0,0,0,0,0,0,0,0,0,0,0,0,0,0,0,0,0,0,0,0,0,0,0,0,0,0],"id":17,"left_children":[1,3,5,7,9,11,13,15,17,19,21,23,25,27,29,-1,-1,-1,-1,-1,-1,-1,-1,-1,-1,-1,-1,-1,-1,-1,-1],"loss_changes":[1.1258386E1,6.582128E0,5.795266E0,3.3062167E0,2.7015858E0,4.4656315E0,4.751333E0,3.8101897E0,3.3075023E0,3.08035E0,3.1381447E0,2.902711E0,2.3980198E0,2.357147E0,3.9105234E0,0E0,0E0,0E0,0E0,0E0,0E0,0E0,0E0,0E0,0E0,0E0,0E0,0E0,0E0,0E0,0E0],"parents":[2147483647,0,0,1,1,2,2,3,3,4,4,5,5,6,6,7,7,8,8,9,9,10,10,11,11,12,12,13,13,14,14],"right_children":[2,4,6,8,10,12,14,16,18,20,22,24,26,28,30,-1,-1,-1,-1,-1,-1,-1,-1,-1,-1,-1,-1,-1,-1,-1,-1],"split_conditions":[-1.3281769E-2,5.736012E-1,-3.2677242E-1,-1.6844817E0,1.9436055E-1,-1.175336E-2,3.5882872E-1,4.327395E-1,6.558238E-1,9.3227714E-1,-3.7914404E-1,-3.1218615E-1,1.6078552E0,1.8258417E0,6.2970426E-3,-3.7549376E-2,-1.5842918E-3,-1.5842918E-3,-2.1737305E-2,-3.6237124E-2,-1.5842918E-3,-3.8356822E-2,-1.5842918E-3,1.0901297E-2,3.820141E-2,-1.5842918E-3,3.435449E-2,-1.5842918E-3,3.4594413E-2,-3.4535825E-4,2.5663484E-2],"split_indices":[238,0,179,8,9,25,92,72,55,234,124,187,238,215,234,0,0,0,0,0,0,0,0,0,0,0,0,0,0,0,0],"split_type":[0,0,0,0,0,0,0,0,0,0,0,0,0,0,0,0,0,0,0,0,0,0,0,0,0,0,0,0,0,0,0],"sum_hessian":[3.6603336E2,1.7316115E2,1.9287221E2,1.13934685E2,5.9226467E1,6.9776085E1,1.2309612E2,1.7760242E1,9.6174446E1,3.732899E1,2.1897476E1,4.343417E1,2.6341917E1,6.774471E1,5.5351414E1,1.2725216E1,5.035027E0,7.730529E1,1.8869152E1,3.4219067E1,3.1099212E0,5.51163E0,1.6385847E1,1.696951E1,2.6464659E1,2.2678297E1,3.6636193E0,6.4517044E1,3.2276688E0,2.6779585E1,2.857183E1],"tree_param":{"num_deleted":"0","num_feature":"244","num_nodes":"31","size_leaf_vector":"1"}},{"base_weights":[-1.1050395E-2,-1.5624088E-1,1.8632261E-1,-2.7744153E-1,9.380251E-2,4.028933E-1,-3.4720346E-3,-3.7223682E-1,1.005665E-1,-0E0,6.7088115E-1,-2.2253301E-2,4.6377972E-1,4.6895587E-1,-1.1085042E-1,-2.1436999E-2,1.46923205E-2,-2.2289459E-2,2.1072209E-2,-5.4286723E-3,2.6787091E-2,4.5209486E-2,8.344985E-3,4.7418643E-2,1.7727904E-2,3.9343502E-2,-1.2862388E-3,-1.7489834E-2,1.1136852E-2],"categories":[],"categories_nodes":[],"categories_segments":[],"categories_sizes":[],"default_left":[0,0,0,0,0,0,0,0,0,0,0,0,0,0,0,0,0,0,0,0,0,0,0,0,0,0,0,0,0],"id":18,"left_children":[1,3,5,7,9,11,13,15,17,19,21,-1,23,25,27,-1,-1,-1,-1,-1,-1,-1,-1,-1,-1,-1,-1,-1,-1],"loss_changes":[1.079872E1,6.636224E0,6.6008043E0,5.337777E0,4.0051174E0,4.144912E0,4.454704E0,4.6206875E0,5.5739546E0,3.7645638E0,1.0014725E0,0E0,3.4015446E0,2.650177E0,5.7962265E0,0E0,0E0,0E0,0E0,0E0,0E0,0E0,0E0,0E0,0E0,0E0,0E0,0E0,0E0],"parents":[2147483647,0,0,1,1,2,2,3,3,4,4,5,5,6,6,7,7,8,8,9,9,10,10,12,12,13,13,14,14],"right_children":[2,4,6,8,10,12,14,16,18,20,22,-1,24,26,28,-1,-1,-1,-1,-1,-1,-1,-1,-1,-1,-1,-1,-1,-1],"split_conditions":[-1.00245215E-1,1.065442E0,-1.0208821E-1,4.5051435E-1,1.0016778E0,-6.346922E-1,0E0,2.293767E0,-2.2250785E-1,5.438831E-1,3.4830594E-1,-2.2253301E-2,-1.2593521E0,-5.697035E-1,7.235842E-2,-2.1436999E-2,1.46923205E-2,-2.2289459E-2,2.1072209E-2,-5.4286723E-3,2.6787091E-2,4.5209486E-2,8.344985E-3,4.7418643E-2,1.7727904E-2,3.9343502E-2,-1.2862388E-3,-1.7489834E-2,1.1136852E-2],"split_indices":[93,163,167,230,94,152,220,125,86,91,84,0,22,22,93,0,0,0,0,0,0,0,0,0,0,0,0,0,0],"split_type":[0,0,0,0,0,0,0,0,0,0,0,0,0,0,0,0,0,0,0,0,0,0,0,0,0,0,0,0,0],"sum_hessian":[3.7260617E2,2.1509453E2,1.5751164E2,1.4506784E2,7.00267E1,7.328816E1,8.422348E1,1.16205986E2,2.8861847E1,6.099594E1,9.030761E0,4.377063E0,6.89111E1,1.48018465E1,6.942164E1,1.0758603E2,8.619955E0,1.0419584E1,1.8442263E1,5.1484436E1,9.511501E0,5.494619E0,3.5361416E0,1.1093411E1,5.7817688E1,8.774359E0,6.027488E0,4.059495E1,2.8826683E1],"tree_param":{"num_deleted":"0","num_feature":"244","num_nodes":"29","size_leaf_vector":"1"}},{"base_weights":[3.4704187E-3,-2.3457643E-1,1.4039157E-1,-3.0681762E-1,3.0311707E-1,5.2252114E-1,4.6532143E-2,-3.556652E-1,4.399125E-1,3.8631473E-2,9.502052E-3,-2.5369037E-2,6.29024E-1,-1.4311467E-1,2.5942487E-1,-2.036189E-2,1.289866E-2,-0E0,3.704992E-2,-2.4006587E-2,1.5510571E-2,-6.9551817E-3,3.8922634E-2,2.2501124E-2,-1.207268E-2,1.7843558E-2,-1.8625092E-2],"categories":[],"categories_nodes":[],"categories_segments":[],"categories_sizes":[],"default_left":[0,0,0,0,0,0,0,0,0,0,0,0,0,0,0,0,0,0,0,0,0,0,0,0,0,0,0],"id":19,"left_children":[1,3,5,7,9,11,13,15,17,-1,19,-1,21,23,25,-1,-1,-1,-1,-1,-1,-1,-1,-1,-1,-1,-1],"loss_changes":[1.2140215E1,5.4131684E0,8.4492445E0,4.6116123E0,2.2615924E0,5.512882E0,7.804395E0,3.7586327E0,1.0432699E0,0E0,1.9358811E0,0E0,5.0888176E0,6.091933E0,5.7842717E0,0E0,0E0,0E0,0E0,0E0,0E0,0E0,0E0,0E0,0E0,0E0,0E0],"parents":[2147483647,0,0,1,1,2,2,3,3,4,4,5,5,6,6,7,7,8,8,10,10,12,12,13,13,14,14],"right_children":[2,4,6,8,10,12,14,16,18,-1,20,-1,22,24,26,-1,-1,-1,-1,-1,-1,-1,-1,-1,-1,-1,-1],"split_conditions":[-1.9848347E-1,9.508624E-1,-5.9532434E-1,1.8761936E0,-3.013353E-1,-9.66871E-1,6.2970426E-3,1.1197361E0,-3.1328174E-1,3.8631473E-2,-5.0743836E-1,-2.5369037E-2,-4.9297728E-2,-9.56002E-1,1.1472024E0,-2.036189E-2,1.289866E-2,-0E0,3.704992E-2,-2.4006587E-2,1.5510571E-2,-6.9551817E-3,3.8922634E-2,2.2501124E-2,-1.207268E-2,1.7843558E-2,-1.8625092E-2],"split_indices":[93,239,179,114,30,218,234,218,93,0,74,0,215,0,0,0,0,0,0,0,0,0,0,0,0,0,0],"split_type":[0,0,0,0,0,0,0,0,0,0,0,0,0,0,0,0,0,0,0,0,0,0,0,0,0,0,0],"sum_hessian":[3.684708E2,1.3402155E2,2.3444925E2,1.186904E2,1.5331147E1,4.5119976E1,1.8932927E2,1.1202018E2,6.670218E0,5.1399555E0,1.0191193E1,3.7878478E0,4.1332127E1,1.0005626E2,8.9273E1,1.03796074E2,8.224108E0,3.176478E0,3.4937398E0,3.5239942E0,6.667198E0,6.63341E0,3.4698715E1,1.357638E1,8.647988E1,7.78601E1,1.1412906E1],"tree_param":{"num_deleted":"0","num_feature":"244","num_nodes":"27","size_leaf_vector":"1"}},{"base_weights":[-1.5360717E-2,1.768032E-1,-1.788803E-1,-3.0475007E-2,3.6070496E-1,-3.7334237E-1,8.888665E-3,6.206599E-1,-1.20427944E-1,-2.7494345E-2,4.0737137E-1,-5.065496E-1,-1.8222685E-1,-1.8222685E-1,1.72061E-1,4.5588117E-2,4.342051E-3,-5.1710416E-2,-2.47387E-3,8.4640635E-3,3.1506684E-2,-9.111343E-3,-2.9863358E-2,-9.111343E-3,-3.3222567E-2,-9.111343E-3,2.400478E-2,1.6428767E-2,-6.9958153E-3],"categories":[],"categories_nodes":[],"categories_segments":[],"categories_sizes":[],"default_left":[0,0,0,0,0,0,0,0,0,0,0,0,0,0,0,0,0,0,0,0,0,0,0,0,0,0,0,0,0],"id":20,"left_children":[1,3,5,7,9,11,13,15,17,-1,19,21,23,25,27,-1,-1,-1,-1,-1,-1,-1,-1,-1,-1,-1,-1,-1,-1],"loss_changes":[1.1649702E1,6.536719E0,7.359882E0,4.8650026E0,4.153146E0,2.9523745E0,5.084525E0,1.4137907E0,4.6653605E0,0E0,4.468013E0,2.7224636E0,1.2285216E0,2.0110197E0,3.553593E0,0E0,0E0,0E0,0E0,0E0,0E0,0E0,0E0,0E0,0E0,0E0,0E0,0E0,0E0],"parents":[2147483647,0,0,1,1,2,2,3,3,4,4,5,5,6,6,7,7,8,8,10,10,11,11,12,12,13,13,14,14],"right_children":[2,4,6,8,10,12,14,16,18,-1,20,22,24,26,28,-1,-1,-1,-1,-1,-1,-1,-1,-1,-1,-1,-1,-1,-1],"split_conditions":[0E0,1.4280382E-2,-2.8723389E-2,-6.416264E-1,-3.5184258E-1,1.1754479E-1,-1.7231424E-1,-8.4556293E-1,-1.1214223E0,-2.7494345E-2,9.48117E-2,0E0,4.223025E0,1.8960427E-1,8.2353294E-1,4.5588117E-2,4.342051E-3,-5.1710416E-2,-2.47387E-3,8.4640635E-3,3.1506684E-2,-9.111343E-3,-2.9863358E-2,-9.111343E-3,-3.3222567E-2,-9.111343E-3,2.400478E-2,1.6428767E-2,-6.9958153E-3],"split_indices":[0,224,238,179,93,234,231,22,109,0,127,207,177,232,84,0,0,0,0,0,0,0,0,0,0,0,0,0,0],"split_type":[0,0,0,0,0,0,0,0,0,0,0,0,0,0,0,0,0,0,0,0,0,0,0,0,0,0,0,0,0],"sum_hessian":[3.6656403E2,1.6820323E2,1.983608E2,7.921237E1,8.899085E1,9.721981E1,1.0114098E2,8.76371E0,7.044866E1,3.7081568E0,8.528269E1,6.123718E1,3.598263E1,3.1906599E1,6.923438E1,5.091747E0,3.671963E0,3.9961305E0,6.645254E1,4.2290783E1,4.299191E1,8.341662E0,5.2895515E1,3.1971533E1,4.0110993E0,2.8548523E1,3.3580766E0,4.628249E1,2.2951893E1],"tree_param":{"num_deleted":"0","num_feature":"244","num_nodes":"29","size_leaf_vector":"1"}},{"base_weights":[1.9016061E-3,-1.6199552E-1,1.9546181E-1,-2.0714876E-1,5.022715E-1,3.609267E-1,-2.9992523E-2,1.4424966E-1,-2.9002765E-1,-7.4451007E-3,8.67953E-1,4.8677358E-1,9.149517E-2,-5.762446E-1,6.614335E-2,1.9308653E-2,-1.9881025E-2,-2.8447837E-2,-9.169305E-3,5.4827638E-2,1.6592065E-2,3.4324173E-2,1.3003992E-2,1.3515732E-2,-2.9445097E-2,-1.2605896E-3,-4.4871397E-2,-1.35578085E-2,1.1306995E-2],"categories":[],"categories_nodes":[],"categories_segments":[],"categories_sizes":[],"default_left":[0,0,0,0,0,0,0,0,0,0,0,0,0,0,0,0,0,0,0,0,0,0,0,0,0,0,0,0,0],"id":21,"left_children":[1,3,5,7,9,11,13,15,17,-1,19,21,23,25,27,-1,-1,-1,-1,-1,-1,-1,-1,-1,-1,-1,-1,-1,-1],"loss_changes":[1.19038725E1,6.2320023E0,6.4713216E0,5.625293E0,3.396104E0,3.3011427E0,4.053097E0,5.082463E0,4.494397E0,0E0,6.5445995E-1,2.854826E0,4.300058E0,1.937655E0,3.5399961E0,0E0,0E0,0E0,0E0,0E0,0E0,0E0,0E0,0E0,0E0,0E0,0E0,0E0,0E0],"parents":[2147483647,0,0,1,1,2,2,3,3,4,4,5,5,6,6,7,7,8,8,10,10,11,11,12,12,13,13,14,14],"right_children":[2,4,6,8,10,12,14,16,18,-1,20,22,24,26,28,-1,-1,-1,-1,-1,-1,-1,-1,-1,-1,-1,-1,-1,-1],"split_conditions":[-1.2043096E-1,1.3346449E0,2.9020247E-1,-7.342305E-1,-6.9559157E-1,4.8656222E-1,-1.1390412E0,3.073425E-1,-9.834926E-1,-7.4451007E-3,-2.6686913E-1,-1.5940005E-1,3.3013046E-1,-5.038902E-2,-3.2908946E-1,1.9308653E-2,-1.9881025E-2,-2.8447837E-2,-9.169305E-3,5.4827638E-2,1.6592065E-2,3.4324173E-2,1.3003992E-2,1.3515732E-2,-2.9445097E-2,-1.2605896E-3,-4.4871397E-2,-1.35578085E-2,1.1306995E-2],"split_indices":[93,128,179,179,74,182,235,65,109,0,92,25,3,214,216,0,0,0,0,0,0,0,0,0,0,0,0,0,0],"split_type":[0,0,0,0,0,0,0,0,0,0,0,0,0,0,0,0,0,0,0,0,0,0,0,0,0,0,0,0,0],"sum_hessian":[3.708877E2,2.0064117E2,1.702465E2,1.8865607E2,1.1985109E1,9.809531E1,7.21512E1,3.5632156E1,1.5302391E2,4.42493E0,7.560179E0,6.606135E1,3.203396E1,1.0205997E1,6.19452E1,2.4960272E1,1.06718855E1,4.0865135E1,1.12158775E2,4.4365225E0,3.123657E0,3.3808125E1,3.2253223E1,2.5960737E1,6.0732226E0,4.2700324E0,5.9359646E0,1.95052E1,4.2440002E1],"tree_param":{"num_deleted":"0","num_feature":"244","num_nodes":"29","size_leaf_vector":"1"}},{"base_weights":[1.6725795E-2,4.537886E-1,-4.0802665E-2,6.543901E-2,6.563952E-1,-1.552661E-1,2.2567041E-1,3.1098062E-2,-1.819605E-1,4.7007585E-3,7.937218E-1,-2.5609362E-1,9.980532E-2,-2.9052502E-1,3.1321204E-1,-3.442503E-2,4.095645E-3,8.2435424E-4,4.5639824E-2,-2.4254827E-2,-5.568126E-3,2.5518158E-2,-6.3156313E-3,-2.9290432E-2,1.3785246E-2,2.125527E-2,-1.227671E-3],"categories":[],"categories_nodes":[],"categories_segments":[],"categories_sizes":[],"default_left":[0,0,0,0,0,0,0,0,0,0,0,0,0,0,0,0,0,0,0,0,0,0,0,0,0,0,0],"id":22,"left_children":[1,3,5,7,9,11,13,-1,15,-1,17,19,21,23,25,-1,-1,-1,-1,-1,-1,-1,-1,-1,-1,-1,-1],"loss_changes":[9.344477E0,3.305583E0,9.968461E0,2.5011394E0,2.0331192E0,5.926289E0,4.570315E0,0E0,1.7975167E0,0E0,1.9645147E0,5.3715935E0,6.228238E0,2.7271376E0,3.2496262E0,0E0,0E0,0E0,0E0,0E0,0E0,0E0,0E0,0E0,0E0,0E0,0E0],"parents":[2147483647,0,0,1,1,2,2,3,3,4,4,5,5,6,6,8,8,10,10,11,11,12,12,13,13,14,14],"right_children":[2,4,6,8,10,12,14,-1,16,-1,18,20,22,24,26,-1,-1,-1,-1,-1,-1,-1,-1,-1,-1,-1,-1],"split_conditions":[-1.1472024E0,-4.767508E-1,3.8783574E-1,-4.9938488E-1,-4.6720406E-1,4.327395E-1,-2.7364618E-1,3.1098062E-2,-2.4271691E-1,4.7007585E-3,-4.773783E-1,-4.6543896E-1,0E0,1.9818942E-1,1.3135035E-1,-3.442503E-2,4.095645E-3,8.2435424E-4,4.5639824E-2,-2.4254827E-2,-5.568126E-3,2.5518158E-2,-6.3156313E-3,-2.9290432E-2,1.3785246E-2,2.125527E-2,-1.227671E-3],"split_indices":[0,8,230,6,198,72,93,0,6,0,241,235,206,232,25,0,0,0,0,0,0,0,0,0,0,0,0],"split_type":[0,0,0,0,0,0,0,0,0,0,0,0,0,0,0,0,0,0,0,0,0,0,0,0,0,0,0],"sum_hessian":[3.644651E2,4.179381E1,3.2267126E2,1.49516115E1,2.68422E1,2.2626976E2,9.640151E1,4.2596927E0,1.0691919E1,5.7416778E0,2.1100521E1,1.6244478E2,6.3824978E1,1.3476331E1,8.292518E1,3.2407088E0,7.45121E0,3.0660162E0,1.8034506E1,6.1729595E1,1.0071519E2,2.237831E1,4.1446667E1,8.95067E0,4.5256615E0,6.2318184E1,2.0606997E1],"tree_param":{"num_deleted":"0","num_feature":"244","num_nodes":"27","size_leaf_vector":"1"}},{"base_weights":[-1.5882732E-2,1.3131702E-1,-1.8576962E-1,4.3878564E-1,4.2276755E-2,-2.4182941E-1,3.327888E-1,6.625487E-1,-8.7280296E-2,-2.4422777E-1,1.5858895E-1,-1.3266145E-1,-5.1033163E-1,3.578105E-2,4.7000334E-2,-2.3401966E-3,3.9334577E-2,1.1458754E-2,-3.606993E-2,-2.1409707E-3,-2.8724197E-2,3.6886014E-2,5.3619845E-3,-2.277567E-2,-1.00200785E-4,-4.138651E-2,-1.4739329E-2,-2.0830205E-2,1.8624514E-2],"categories":[],"categories_nodes":[],"categories_segments":[],"categories_sizes":[],"default_left":[0,0,0,0,0,0,0,0,0,0,0,0,0,0,0,0,0,0,0,0,0,0,0,0,0,0,0,0,0],"id":23,"left_children":[1,3,5,7,9,11,13,15,17,19,21,23,25,27,-1,-1,-1,-1,-1,-1,-1,-1,-1,-1,-1,-1,-1,-1,-1],"loss_changes":[9.287813E0,5.4055943E0,5.133907E0,5.351515E0,5.2466874E0,4.5061293E0,3.0589266E0,2.882534E0,3.1698604E0,3.4047062E0,3.2643116E0,4.749787E0,2.7990494E0,2.2130635E0,0E0,0E0,0E0,0E0,0E0,0E0,0E0,0E0,0E0,0E0,0E0,0E0,0E0,0E0,0E0],"parents":[2147483647,0,0,1,1,2,2,3,3,4,4,5,5,6,6,7,7,8,8,9,9,10,10,11,11,12,12,13,13],"right_children":[2,4,6,8,10,12,14,16,18,20,22,24,26,28,-1,-1,-1,-1,-1,-1,-1,-1,-1,-1,-1,-1,-1,-1,-1],"split_conditions":[1.9120039E-1,-2.7168816E-1,1.1197361E0,1.4123516E0,-1.6538192E-1,-5.7234084E-3,5.4197248E-2,-1.3736401E0,-5.1395632E-2,-3.1072838E-2,-1.7208036E0,-1.9949539E-1,-5.6536853E-2,2.1464767E0,4.7000334E-2,-2.3401966E-3,3.9334577E-2,1.1458754E-2,-3.606993E-2,-2.1409707E-3,-2.8724197E-2,3.6886014E-2,5.3619845E-3,-2.277567E-2,-1.00200785E-4,-4.138651E-2,-1.4739329E-2,-2.0830205E-2,1.8624514E-2],"split_indices":[0,180,218,129,98,180,55,167,140,2,0,231,91,110,0,0,0,0,0,0,0,0,0,0,0,0,0,0,0],"split_type":[0,0,0,0,0,0,0,0,0,0,0,0,0,0,0,0,0,0,0,0,0,0,0,0,0,0,0,0,0],"sum_hessian":[3.668018E2,1.9632925E2,1.7047253E2,4.295355E1,1.5337572E2,1.5449684E2,1.59756975E1,3.0086748E1,1.2866799E1,4.3721E1,1.0965471E2,1.11165535E2,4.3331306E1,1.1549914E1,4.425784E0,4.4540057E0,2.5632742E1,8.904115E0,3.9626853E0,2.6485384E1,1.7235617E1,7.6835313E0,1.01971176E2,3.1090311E1,8.007522E1,1.6188698E1,2.7142609E1,4.700411E0,6.849503E0],"tree_param":{"num_deleted":"0","num_feature":"244","num_nodes":"29","size_leaf_vector":"1"}},{"base_weights":[6.1025713E-3,4.6544924E-1,-5.309908E-2,6.122013E-1,-4.3362003E-2,-2.0393081E-2,-8.139999E-1,1.7855448E-1,7.7425206E-1,-1.8017402E-2,2.2459878E-2,-2.3401012E-1,9.769244E-2,-1.0550735E0,-1.1724034E-2,2.5122626E-2,-1.7414972E-2,4.3561857E-2,2.9613737E-3,-2.695545E-2,-4.2053224E-3,-2.9388533E-3,1.6921375E-2,-2.7413664E-2,-6.174894E-2],"categories":[],"categories_nodes":[],"categories_segments":[],"categories_sizes":[],"default_left":[0,0,0,0,0,0,0,0,0,0,0,0,0,0,0,0,0,0,0,0,0,0,0,0,0],"id":24,"left_children":[1,3,5,7,9,11,13,15,17,-1,-1,19,21,23,-1,-1,-1,-1,-1,-1,-1,-1,-1,-1,-1],"loss_changes":[1.0130763E1,3.2664986E0,8.149701E0,2.1472492E0,1.9003669E0,7.9934626E0,1.570055E0,2.103034E0,1.5155125E0,0E0,0E0,5.0931396E0,7.7150383E0,1.06295586E-1,0E0,0E0,0E0,0E0,0E0,0E0,0E0,0E0,0E0,0E0,0E0],"parents":[2147483647,0,0,1,1,2,2,3,3,4,4,5,5,6,6,7,7,8,8,11,11,12,12,13,13],"right_children":[2,4,6,8,10,12,14,16,18,-1,-1,20,22,24,-1,-1,-1,-1,-1,-1,-1,-1,-1,-1,-1],"split_conditions":[-1.1472024E0,7.255617E-1,1.912004E0,-4.5883292E-1,7.871855E-1,-1.21380925E-1,2.3141631E-1,5.5825114E-1,1.1789782E0,-1.8017402E-2,2.2459878E-2,-7.156613E-1,1.2633437E-1,-7.398292E-1,-1.1724034E-2,2.5122626E-2,-1.7414972E-2,4.3561857E-2,2.9613737E-3,-2.695545E-2,-4.2053224E-3,-2.9388533E-3,1.6921375E-2,-2.7413664E-2,-6.174894E-2],"split_indices":[0,183,0,227,222,91,234,60,18,0,0,74,9,147,0,0,0,0,0,0,0,0,0,0,0],"split_type":[0,0,0,0,0,0,0,0,0,0,0,0,0,0,0,0,0,0,0,0,0,0,0,0,0],"sum_hessian":[3.6534167E2,4.1119762E1,3.242219E2,3.1909666E1,9.2100935E0,3.119706E2,1.2251291E1,9.4202E0,2.2489466E1,5.8906274E0,3.3194666E0,1.1101297E2,2.0095764E2,7.9507213E0,4.3005695E0,5.9799695E0,3.4402304E0,1.9487831E1,3.001635E0,3.5498806E1,7.551416E1,1.2200139E2,7.895625E1,3.2889733E0,4.661748E0],"tree_param":{"num_deleted":"0","num_feature":"244","num_nodes":"25","size_leaf_vector":"1"}},{"base_weights":[3.1434477E-3,-1.4352679E-1,1.6923364E-1,-4.9340612E-1,-6.576985E-2,3.3695084E-1,1.2853421E-2,-9.718177E-1,-1.239749E-1,1.2853421E-2,-4.0002736E-1,7.8849214E-1,2.4774054E-1,3.8875502E-1,1.2853421E-2,-1.9429822E-2,-5.4111827E-2,-3.3628598E-2,6.426711E-4,6.426711E-4,-1.5205159E-2,-2.7739013E-2,6.426711E-4,6.1608143E-3,5.4806482E-2,3.1191831E-2,5.569886E-3,3.7339088E-2,9.7250537E-4,6.426711E-4,2.1849602E-2],"categories":[],"categories_nodes":[],"categories_segments":[],"categories_sizes":[],"default_left":[0,0,0,0,0,0,0,0,0,0,0,0,0,0,0,0,0,0,0,0,0,0,0,0,0,0,0,0,0,0,0],"id":25,"left_children":[1,3,5,7,9,11,13,15,17,19,21,23,25,27,29,-1,-1,-1,-1,-1,-1,-1,-1,-1,-1,-1,-1,-1,-1,-1,-1],"loss_changes":[9.07188E0,5.3283615E0,5.409449E0,6.1222258E0,6.1168065E0,3.5316887E0,2.438999E0,5.045614E-1,3.7653265E0,2.4587986E0,4.2811184E0,2.7911777E0,3.9619188E0,2.1964056E0,1.0122745E0,0E0,0E0,0E0,0E0,0E0,0E0,0E0,0E0,0E0,0E0,0E0,0E0,0E0,0E0,0E0,0E0],"parents":[2147483647,0,0,1,1,2,2,3,3,4,4,5,5,6,6,7,7,8,8,9,9,10,10,11,11,12,12,13,13,14,14],"right_children":[2,4,6,8,10,12,14,16,18,20,22,24,26,28,30,-1,-1,-1,-1,-1,-1,-1,-1,-1,-1,-1,-1,-1,-1,-1,-1],"split_conditions":[1.226472E-2,-8.615612E-1,-5.697035E-1,-7.578046E-1,5.8195776E-1,-3.424048E-1,-2.7022272E-1,-5.768035E-1,-6.205019E-1,4.6322733E-1,1.0741045E0,-3.2068062E-1,0E0,-3.838022E-1,7.953235E-1,-1.9429822E-2,-5.4111827E-2,-3.3628598E-2,6.426711E-4,6.426711E-4,-1.5205159E-2,-2.7739013E-2,6.426711E-4,6.1608143E-3,5.4806482E-2,3.1191831E-2,5.569886E-3,3.7339088E-2,9.7250537E-4,6.426711E-4,2.1849602E-2],"split_indices":[238,92,22,36,158,180,2,179,101,115,82,152,220,181,158,0,0,0,0,0,0,0,0,0,0,0,0,0,0,0,0],"split_type":[0,0,0,0,0,0,0,0,0,0,0,0,0,0,0,0,0,0,0,0,0,0,0,0,0,0,0,0,0,0,0],"sum_hessian":[3.677569E2,1.9504825E2,1.7270865E2,3.4259735E1,1.6078851E2,9.0623695E1,8.2084946E1,1.4099584E1,2.016015E1,1.20431015E2,4.03575E1,1.3472519E1,7.715118E1,1.5730005E1,6.635494E1,3.1080604E0,1.0991523E1,7.6246576E0,1.2535494E1,9.758533E1,2.2845686E1,3.4072277E1,6.28522E0,4.805676E0,8.666842E0,1.9380877E1,5.77703E1,7.3304825E0,8.399524E0,6.219849E1,4.1564484E0],"tree_param":{"num_deleted":"0","num_feature":"244","num_nodes":"31","size_leaf_vector":"1"}},{"base_weights":[1.1220587E-2,2.0124818E-1,-9.919761E-2,2.6903725E-1,-5.370256E-1,-2.5886366E-1,8.773084E-2,-4.1156083E-2,4.2666185E-1,-8.447376E-1,-0E0,-3.3018702E-1,2.8903416E-1,-5.6983054E-1,1.5020786E-1,4.494415E-3,-2.0205883E-2,3.824697E-3,2.9535731E-2,-5.467416E-2,-2.111844E-2,-2.9766766E-2,-8.388522E-3,4.140371E-2,-9.983006E-3,-4.589934E-2,-2.8719816E-3,1.5901685E-2,-5.401278E-3],"categories":[],"categories_nodes":[],"categories_segments":[],"categories_sizes":[],"default_left":[0,0,0,0,0,0,0,0,0,0,0,0,0,0,0,0,0,0,0,0,0,0,0,0,0,0,0,0,0],"id":26,"left_children":[1,3,5,7,9,11,13,15,17,19,-1,21,23,25,27,-1,-1,-1,-1,-1,-1,-1,-1,-1,-1,-1,-1,-1,-1],"loss_changes":[7.762713E0,6.9993553E0,7.0040255E0,6.18402E0,1.9809682E0,5.0756254E0,4.573566E0,2.1870475E0,4.6964445E0,4.785509E-1,0E0,4.7192554E0,4.281547E0,1.602411E0,4.3930397E0,0E0,0E0,0E0,0E0,0E0,0E0,0E0,0E0,0E0,0E0,0E0,0E0,0E0,0E0],"parents":[2147483647,0,0,1,1,2,2,3,3,4,4,5,5,6,6,7,7,8,8,9,9,11,11,12,12,13,13,14,14],"right_children":[2,4,6,8,10,12,14,16,18,20,-1,22,24,26,28,-1,-1,-1,-1,-1,-1,-1,-1,-1,-1,-1,-1,-1,-1],"split_conditions":[-2.094739E-1,1.1492299E0,-1.0211979E-1,-2.5222722E-1,6.8338037E-1,1.2969064E0,-1.4139808E0,1.0567483E0,-8.927653E-2,1.5822129E-1,-0E0,-8.4556293E-1,1.5200658E0,8.2353294E-1,-4.3177378E-1,4.494415E-3,-2.0205883E-2,3.824697E-3,2.9535731E-2,-5.467416E-2,-2.111844E-2,-2.9766766E-2,-8.388522E-3,4.140371E-2,-9.983006E-3,-4.589934E-2,-2.8719816E-3,1.5901685E-2,-5.401278E-3],"split_indices":[179,7,93,218,238,33,235,224,17,33,0,109,33,171,22,0,0,0,0,0,0,0,0,0,0,0,0,0,0],"split_type":[0,0,0,0,0,0,0,0,0,0,0,0,0,0,0,0,0,0,0,0,0,0,0,0,0,0,0,0,0],"sum_hessian":[3.6476663E2,1.3408757E2,2.3067908E2,1.23517136E2,1.0570434E1,1.2449288E2,1.0618619E2,4.1652546E1,8.1864586E1,6.3660793E0,4.204354E0,1.1066658E2,1.3826308E1,8.370169E0,9.7816025E1,3.095377E1,1.0698776E1,2.6779669E1,5.5084915E1,3.2657516E0,3.1003277E0,4.0791866E1,6.987471E1,6.341578E0,7.48473E0,4.396276E0,3.973893E0,5.938039E1,3.8435635E1],"tree_param":{"num_deleted":"0","num_feature":"244","num_nodes":"29","size_leaf_vector":"1"}},{"base_weights":[2.0275349E-3,1.750871E-1,-1.45669E-1,2.3875795E-1,-2.0313774E-1,-8.560593E-1,-1.08738385E-1,4.8377696E-2,2.0096986E-1,-5.39757E-1,1.2613575E-1,-5.403476E-2,-1.2943628E-2,-7.105672E-3,-3.51514E-1,5.368075E-3,2.7846096E-2,-4.0006068E-2,-5.4634786E-3,-1.5879182E-2,2.0654751E-2,1.6608935E-2,-3.9546825E-3,-1.0162872E-2,-3.4787554E-2],"categories":[],"categories_nodes":[],"categories_segments":[],"categories_sizes":[],"default_left":[0,0,0,0,0,0,0,0,0,0,0,0,0,0,0,0,0,0,0,0,0,0,0,0,0],"id":27,"left_children":[1,3,5,7,9,11,13,-1,15,17,19,-1,-1,21,23,-1,-1,-1,-1,-1,-1,-1,-1,-1,-1],"loss_changes":[9.424123E0,4.172345E0,5.1482496E0,3.8743048E0,2.9338675E0,9.52919E-1,4.668809E0,0E0,4.613437E0,1.2996485E0,1.9321959E0,0E0,0E0,3.3634996E0,2.7049174E0,0E0,0E0,0E0,0E0,0E0,0E0,0E0,0E0,0E0,0E0],"parents":[2147483647,0,0,1,1,2,2,3,3,4,4,5,5,6,6,8,8,9,9,10,10,13,13,14,14],"right_children":[2,4,6,8,10,12,14,-1,16,18,20,-1,-1,22,24,-1,-1,-1,-1,-1,-1,-1,-1,-1,-1],"split_conditions":[0E0,5.653063E-2,-1.2303334E0,-1.2105193E0,2.4293856E-1,-6.178216E-1,-1.8552018E-2,4.8377696E-2,8.168698E-1,3.2908946E-1,-2.2842273E-1,-5.403476E-2,-1.2943628E-2,-5.395076E-1,3.6357728E-1,5.368075E-3,2.7846096E-2,-4.0006068E-2,-5.4634786E-3,-1.5879182E-2,2.0654751E-2,1.6608935E-2,-3.9546825E-3,-1.0162872E-2,-3.4787554E-2],"split_indices":[0,180,231,173,183,74,180,0,172,216,9,0,0,128,192,0,0,0,0,0,0,0,0,0,0],"split_type":[0,0,0,0,0,0,0,0,0,0,0,0,0,0,0,0,0,0,0,0,0,0,0,0,0],"sum_hessian":[3.6409473E2,1.6787877E2,1.9621596E2,1.4423175E2,2.3647024E1,8.466573E0,1.8774939E2,5.766459E0,1.3846529E2,1.1527163E1,1.2119862E1,5.442314E0,3.024259E0,1.3336163E2,5.438776E1,1.108868E2,2.757849E1,6.503081E0,5.0240817E0,4.581059E0,7.538802E0,2.2467459E1,1.1089417E2,3.933E1,1.5057756E1],"tree_param":{"num_deleted":"0","num_feature":"244","num_nodes":"25","size_leaf_vector":"1"}},{"base_weights":[1.3867844E-2,-1.09971344E-1,1.9227873E-1,-4.7453806E-2,-6.6152734E-1,5.0943192E-2,4.3336335E-1,-1.4169811E-2,-4.5172863E-2,-8.0740774E-1,2.5636356E-3,2.5348577E-1,-1.7765538E-1,2.6311687E-1,1.0189675E0,-2.1847198E-3,3.5488456E-2,-4.6996888E-2,-1.242899E-2,-8.207855E-3,1.9744273E-2,2.8954236E-2,-1.437015E-2,-0E0,2.902405E-2,6.467903E-2,2.233049E-2],"categories":[],"categories_nodes":[],"categories_segments":[],"categories_sizes":[],"default_left":[0,0,0,0,0,0,0,0,0,0,0,0,0,0,0,0,0,0,0,0,0,0,0,0,0,0,0],"id":28,"left_children":[1,3,5,7,9,11,13,15,-1,17,-1,19,21,23,25,-1,-1,-1,-1,-1,-1,-1,-1,-1,-1,-1,-1],"loss_changes":[8.162059E0,7.466959E0,5.1139855E0,5.633372E0,2.41854E0,4.5844383E0,5.2772474E0,4.1541753E0,0E0,1.0742092E0,0E0,3.200334E0,4.0592737E0,3.7314618E0,1.2713861E0,0E0,0E0,0E0,0E0,0E0,0E0,0E0,0E0,0E0,0E0,0E0,0E0],"parents":[2147483647,0,0,1,1,2,2,3,3,4,4,5,5,6,6,7,7,9,9,11,11,12,12,13,13,14,14],"right_children":[2,4,6,8,10,12,14,16,-1,18,-1,20,22,24,26,-1,-1,-1,-1,-1,-1,-1,-1,-1,-1,-1,-1],"split_conditions":[1.322379E-1,1.9417328E-1,3.6833718E-1,1.912004E0,1.1798769E0,3.919871E-1,8.19957E-1,1.4932544E0,-4.5172863E-2,6.597689E-1,2.5636356E-3,-2.4992764E-1,-1.1789782E0,3.3459595E-1,6.5689754E-1,-2.1847198E-3,3.5488456E-2,-4.6996888E-2,-1.242899E-2,-8.207855E-3,1.9744273E-2,2.8954236E-2,-1.437015E-2,-0E0,2.902405E-2,6.467903E-2,2.233049E-2],"split_indices":[234,180,92,0,147,173,37,84,0,4,0,73,18,238,224,0,0,0,0,0,0,0,0,0,0,0,0],"split_type":[0,0,0,0,0,0,0,0,0,0,0,0,0,0,0,0,0,0,0,0,0,0,0,0,0,0,0],"sum_hessian":[3.6447986E2,2.1503918E2,1.4944066E2,1.9428482E2,2.0754374E1,9.523524E1,5.4205425E1,1.8810414E2,6.1806803E0,1.7234713E1,3.5196602E0,5.0669605E1,4.456563E1,4.3251457E1,1.0953966E1,1.8176878E2,6.3353457E0,1.3235009E1,3.9997046E0,1.2596372E1,3.8073235E1,4.987531E0,3.9578102E1,2.4274088E1,1.897737E1,6.432766E0,4.5212007E0],"tree_param":{"num_deleted":"0","num_feature":"244","num_nodes":"27","size_leaf_vector":"1"}},{"base_weights":[-2.862146E-3,2.8007376E-1,-7.8127146E-2,7.928554E-1,1.3444144E-1,-1.4645697E-1,3.089619E-1,9.412509E-1,6.0123457E-3,2.2392282E-1,-5.015988E-1,3.102294E-1,-1.9907792E-1,-2.048844E-2,4.2038307E-1,2.1451907E-2,5.232637E-2,-5.39067E-4,2.4894238E-2,-4.4569068E-2,-1.9854594E-3,2.4298545E-2,-2.9831959E-2,-1.691693E-2,-2.4974411E-3,-2.7324317E-4,2.8669408E-2],"categories":[],"categories_nodes":[],"categories_segments":[],"categories_sizes":[],"default_left":[0,0,0,0,0,0,0,0,0,0,0,0,0,0,0,0,0,0,0,0,0,0,0,0,0,0,0],"id":29,"left_children":[1,3,5,7,9,11,13,15,-1,17,19,21,23,-1,25,-1,-1,-1,-1,-1,-1,-1,-1,-1,-1,-1,-1],"loss_changes":[7.8642983E0,5.6667137E0,7.7765975E0,1.4947758E0,3.684925E0,6.0695696E0,3.770936E0,2.3073196E-1,0E0,3.6132116E0,1.3466899E0,4.538836E0,4.606742E0,0E0,2.592455E0,0E0,0E0,0E0,0E0,0E0,0E0,0E0,0E0,0E0,0E0,0E0,0E0],"parents":[2147483647,0,0,1,1,2,2,3,3,4,4,5,5,6,6,7,7,9,9,10,10,11,11,12,12,14,14],"right_children":[2,4,6,8,10,12,14,16,-1,18,20,22,24,-1,26,-1,-1,-1,-1,-1,-1,-1,-1,-1,-1,-1,-1],"split_conditions":[-6.184754E-1,-6.7805636E-1,1.06664054E-1,-7.784458E-1,1.046885E0,-1.1472024E0,-9.2566526E-1,-2.440579E-1,6.0123457E-3,1.065442E0,1.8812896E-1,9.545255E-1,4.2586368E-1,-2.048844E-2,-9.505214E-2,2.1451907E-2,5.232637E-2,-5.39067E-4,2.4894238E-2,-4.4569068E-2,-1.9854594E-3,2.4298545E-2,-2.9831959E-2,-1.691693E-2,-2.4974411E-3,-2.7324317E-4,2.8669408E-2],"split_indices":[179,112,93,157,30,0,234,231,0,163,36,124,37,0,225,0,0,0,0,0,0,0,0,0,0,0,0],"split_type":[0,0,0,0,0,0,0,0,0,0,0,0,0,0,0,0,0,0,0,0,0,0,0,0,0,0,0],"sum_hessian":[3.6488315E2,7.581812E1,2.89065E2,1.5635068E1,6.0183056E1,2.4644243E2,4.2622585E1,1.2360033E1,3.275035E0,5.346631E1,6.7167478E0,2.4759953E1,2.2168248E2,5.2408614E0,3.7381725E1,3.1345253E0,9.225508E0,2.9117165E1,2.4349144E1,3.0210028E0,3.695745E0,2.1221786E1,3.538165E0,1.1363127E2,1.0805121E2,9.963037E0,2.7418688E1],"tree_param":{"num_deleted":"0","num_feature":"244","num_nodes":"27","size_leaf_vector":"1"}},{"base_weights":[5.386296E-3,-5.179896E-1,5.146472E-2,-6.2034374E-1,1.2728551E-2,2.0624748E-1,-7.898682E-2,-7.502065E-1,-3.35672E-3,-4.9689034E-1,2.4159583E-1,-3.8315797E-1,1.0083062E-2,-5.3121457E-3,-4.274475E-2,-4.2274248E-2,-6.3823625E-3,2.1355452E-2,5.319947E-3,-6.424715E-3,-3.9099913E-2,6.280277E-3,-1.1809026E-2],"categories":[],"categories_nodes":[],"categories_segments":[],"categories_sizes":[],"default_left":[0,0,0,0,0,0,0,0,0,0,0,0,0,0,0,0,0,0,0,0,0,0,0],"id":30,"left_children":[1,3,5,7,-1,9,11,13,-1,15,17,19,21,-1,-1,-1,-1,-1,-1,-1,-1,-1,-1],"loss_changes":[8.835853E0,2.5788212E0,6.82555E0,1.7919397E0,0E0,4.0164847E0,5.0287056E0,1.2710629E0,0E0,1.2193975E0,3.6457872E0,4.1242113E0,4.1093907E0,0E0,0E0,0E0,0E0,0E0,0E0,0E0,0E0,0E0,0E0],"parents":[2147483647,0,0,1,1,2,2,3,3,5,5,6,6,7,7,9,9,10,10,11,11,12,12],"right_children":[2,4,6,8,-1,10,12,14,-1,16,18,20,22,-1,-1,-1,-1,-1,-1,-1,-1,-1,-1],"split_conditions":[-1.0456289E0,9.6333456E-1,0E0,9.4418633E-1,1.2728551E-2,-1.575416E0,-2.7176768E-1,-6.586143E-1,-3.35672E-3,1.4308858E0,-4.3052293E-2,-2.0663184E-1,6.968339E-1,-5.3121457E-3,-4.274475E-2,-4.2274248E-2,-6.3823625E-3,2.1355452E-2,5.319947E-3,-6.424715E-3,-3.9099913E-2,6.280277E-3,-1.1809026E-2],"split_indices":[242,91,0,157,0,238,93,147,0,105,178,100,121,0,0,0,0,0,0,0,0,0,0],"split_type":[0,0,0,0,0,0,0,0,0,0,0,0,0,0,0,0,0,0,0,0,0,0,0],"sum_hessian":[3.6153568E2,2.8249998E1,3.3328568E2,2.5233377E1,3.0166223E0,1.5251265E2,1.8077304E2,2.000132E1,5.232057E0,6.5397677E0,1.4597287E2,4.04519E1,1.4032115E2,3.2122262E0,1.6789093E1,3.2576883E0,3.2820795E0,6.0313557E1,8.565932E1,2.564817E1,1.4803728E1,9.612489E1,4.4196255E1],"tree_param":{"num_deleted":"0","num_feature":"244","num_nodes":"23","size_leaf_vector":"1"}},{"base_weights":[-1.0866235E-2,5.825548E-2,-3.302208E-1,8.286331E-2,-6.9358873E-1,-4.3938512E-1,4.8859775E-1,4.789236E-3,2.957165E-1,-4.7116864E-2,-4.857962E-3,-6.2874705E-1,-6.95853E-2,6.0964255E-3,3.961396E-2,7.5126435E-3,-3.46232E-3,7.5126435E-3,2.6562521E-2,1.2833206E-3,-3.5309367E-2,7.983766E-3,-2.566599E-2],"categories":[],"categories_nodes":[],"categories_segments":[],"categories_sizes":[],"default_left":[0,0,0,0,0,0,0,0,0,0,0,0,0,0,0,0,0,0,0,0,0,0,0],"id":31,"left_children":[1,3,5,7,9,11,13,15,17,-1,-1,19,21,-1,-1,-1,-1,-1,-1,-1,-1,-1,-1],"loss_changes":[8.160001E0,5.6892557E0,6.1570973E0,4.855529E0,1.2806921E0,4.0111065E0,7.9184437E-1,3.4148858E0,3.355989E0,0E0,0E0,2.0407953E0,2.374388E0,0E0,0E0,0E0,0E0,0E0,0E0,0E0,0E0,0E0,0E0],"parents":[2147483647,0,0,1,1,2,2,3,3,4,4,5,5,6,6,7,7,8,8,11,11,12,12],"right_children":[2,4,6,8,10,12,14,16,18,-1,-1,20,22,-1,-1,-1,-1,-1,-1,-1,-1,-1,-1],"split_conditions":[5.653063E-2,1.912004E0,9.3227714E-1,5.026462E-1,2.9044348E-1,5.84737E-1,-2.36509E-1,0E0,3.2189733E-1,-4.7116864E-2,-4.857962E-3,0E0,4.4767857E-3,6.0964255E-3,3.961396E-2,7.5126435E-3,-3.46232E-3,7.5126435E-3,2.6562521E-2,1.2833206E-3,-3.5309367E-2,7.983766E-3,-2.566599E-2],"split_indices":[180,0,234,238,218,95,214,221,36,0,0,220,187,0,0,0,0,0,0,0,0,0,0],"split_type":[0,0,0,0,0,0,0,0,0,0,0,0,0,0,0,0,0,0,0,0,0,0,0],"sum_hessian":[3.6313538E2,2.989373E2,6.419811E1,2.9045355E2,8.483741E0,5.716273E1,7.0353775E0,2.1359842E2,7.685512E1,5.459258E0,3.0244825E0,3.716245E1,2.0000284E1,3.9712403E0,3.0641375E0,5.0519714E1,1.630787E2,4.355588E1,3.3299232E1,3.866406E0,3.329604E1,1.3460536E1,6.5397477E0],"tree_param":{"num_deleted":"0","num_feature":"244","num_nodes":"23","size_leaf_vector":"1"}},{"base_weights":[-9.762511E-3,1.4654521E-2,-6.8614304E-1,-1.734524E-1,1.079764E-1,-5.1567852E-2,-3.6042848E-1,-2.7381483E-1,3.1225172E-1,1.5900639E-1,-3.1690612E-1,-3.4223776E-2,4.187177E-3,-3.314978E-2,-1.0103628E-2,9.609223E-4,2.741203E-2,1.6158413E-2,2.613984E-3,-3.3705786E-2,3.7966606E-3],"categories":[],"categories_nodes":[],"categories_segments":[],"categories_sizes":[],"default_left":[0,0,0,0,0,0,0,0,0,0,0,0,0,0,0,0,0,0,0,0,0],"id":32,"left_children":[1,3,5,7,9,-1,11,13,15,17,19,-1,-1,-1,-1,-1,-1,-1,-1,-1,-1],"loss_changes":[6.2176924E0,6.237928E0,1.0724459E0,5.849153E0,5.22486E0,0E0,1.3915623E0,2.6160007E0,2.277948E0,3.6955051E0,3.7658603E0,0E0,0E0,0E0,0E0,0E0,0E0,0E0,0E0,0E0,0E0],"parents":[2147483647,0,0,1,1,2,2,3,3,4,4,6,6,7,7,8,8,9,9,10,10],"right_children":[2,4,6,8,10,-1,12,14,16,18,20,-1,-1,-1,-1,-1,-1,-1,-1,-1,-1],"split_conditions":[1.912004E0,-5.636726E-1,-3.6270964E-1,6.1933106E-1,1.2635133E0,-5.1567852E-2,1.2513292E-1,-1.181817E0,6.123766E-2,8.012871E-2,-4.2917326E-2,-3.4223776E-2,4.187177E-3,-3.314978E-2,-1.0103628E-2,9.609223E-4,2.741203E-2,1.6158413E-2,2.613984E-3,-3.3705786E-2,3.7966606E-3],"split_indices":[0,235,234,209,160,0,8,92,9,26,230,0,0,0,0,0,0,0,0,0,0],"split_type":[0,0,0,0,0,0,0,0,0,0,0,0,0,0,0,0,0,0,0,0,0],"sum_hessian":[3.6243973E2,3.5061322E2,1.1826491E1,1.156234E2,2.3498982E2,4.5405993E0,7.285892E0,9.6355354E1,1.9268042E1,2.105617E2,2.4428127E1,4.0299516E0,3.2559402E0,1.34979105E1,8.2857445E1,6.0772195E0,1.3190822E1,8.179051E1,1.2877118E2,1.2552586E1,1.1875543E1],"tree_param":{"num_deleted":"0","num_feature":"244","num_nodes":"21","size_leaf_vector":"1"}},{"base_weights":[-1.344686E-2,1.2489793E-1,-1.705203E-1,7.535118E-1,7.960909E-2,-2.8103933E-1,7.584836E-2,1.9518482E-3,5.098344E-2,2.044845E-1,-9.903352E-2,-1.8280715E-1,-6.04731E-1,-2.092701E-2,4.0167283E-2,-5.1358202E-3,1.6867014E-2,-9.904723E-3,2.7266935E-2,-1.2205005E-2,2.8232777E-2,-3.6692258E-2,1.0363221E-2,7.1012005E-3,-2.1845533E-2],"categories":[],"categories_nodes":[],"categories_segments":[],"categories_sizes":[],"default_left":[0,0,0,0,0,0,0,0,0,0,0,0,0,0,0,0,0,0,0,0,0,0,0,0,0],"id":33,"left_children":[1,3,5,7,9,11,13,-1,-1,15,17,19,21,23,-1,-1,-1,-1,-1,-1,-1,-1,-1,-1,-1],"loss_changes":[7.9791374E0,5.5060043E0,4.7336493E0,2.3370361E0,4.129524E0,3.679925E0,4.007422E0,0E0,0E0,4.497345E0,4.996677E0,4.4724903E0,3.094202E0,3.4583695E0,0E0,0E0,0E0,0E0,0E0,0E0,0E0,0E0,0E0,0E0,0E0],"parents":[2147483647,0,0,1,1,2,2,3,3,4,4,5,5,6,6,9,9,10,10,11,11,12,12,13,13],"right_children":[2,4,6,8,10,12,14,-1,-1,16,18,20,22,24,-1,-1,-1,-1,-1,-1,-1,-1,-1,-1,-1],"split_conditions":[1.9120039E-1,-1.7208036E0,2.724902E-1,-9.300745E-2,5.460141E-1,5.286032E-2,6.551207E-1,1.9518482E-3,5.098344E-2,-2.3996739E-1,2.2075026E-1,1.7967805E0,1.7838422E0,2.6410064E-1,4.0167283E-2,-5.1358202E-3,1.6867014E-2,-9.904723E-3,2.7266935E-2,-1.2205005E-2,2.8232777E-2,-3.6692258E-2,1.0363221E-2,7.1012005E-3,-2.1845533E-2],"split_indices":[0,0,234,127,124,180,117,0,0,93,93,8,49,96,0,0,0,0,0,0,0,0,0,0,0],"split_type":[0,0,0,0,0,0,0,0,0,0,0,0,0,0,0,0,0,0,0,0,0,0,0,0,0],"sum_hessian":[3.624044E2,1.924603E2,1.6994409E2,1.1734751E1,1.8072556E2,1.1749979E2,5.24443E1,3.598171E0,8.1365795E0,1.0661457E2,7.4110985E1,9.1580986E1,2.5918804E1,4.702286E1,5.4214425E0,3.2028824E1,7.458574E1,6.497066E1,9.14033E0,8.53864E1,6.194586E0,2.2552212E1,3.366592E0,3.408796E1,1.2934902E1],"tree_param":{"num_deleted":"0","num_feature":"244","num_nodes":"25","size_leaf_vector":"1"}},{"base_weights":[1.5659818E-2,4.4619493E-2,-7.8336227E-1,1.00777045E-1,-2.4076083E-1,-1.3643445E-2,-4.876509E-2,-2.3831002E-2,2.4979852E-1,-3.188608E-1,1.7886994E-2,-1.792664E-2,2.32648E-3,2.19413E-2,8.513246E-4,-1.01352995E-2,-3.988145E-2],"categories":[],"categories_nodes":[],"categories_segments":[],"categories_sizes":[],"default_left":[0,0,0,0,0,0,0,0,0,0,0,0,0,0,0,0,0],"id":34,"left_children":[1,3,5,7,9,-1,-1,11,13,15,-1,-1,-1,-1,-1,-1,-1],"loss_changes":[8.424148E0,5.634631E0,9.248376E-1,5.469451E0,2.8662586E0,0E0,0E0,3.871081E0,5.841799E0,2.7209492E0,0E0,0E0,0E0,0E0,0E0,0E0,0E0],"parents":[2147483647,0,0,1,1,2,2,3,3,4,4,7,7,8,8,9,9],"right_children":[2,4,6,8,10,-1,-1,12,14,16,-1,-1,-1,-1,-1,-1,-1],"split_conditions":[1.912004E0,6.449209E-2,-2.7177152E-1,-1.272631E-1,2.4650357E0,-1.3643445E-2,-4.876509E-2,-7.9956716E-1,4.899439E-1,1.3773865E0,1.7886994E-2,-1.792664E-2,2.32648E-3,2.19413E-2,8.513246E-4,-1.01352995E-2,-3.988145E-2],"split_indices":[0,180,128,93,147,0,0,238,124,160,0,0,0,0,0,0,0],"split_type":[0,0,0,0,0,0,0,0,0,0,0,0,0,0,0,0,0],"sum_hessian":[3.5772137E2,3.4624155E2,1.1479835E1,2.901439E2,5.6097652E1,3.9409356E0,7.5388985E0,1.5810744E2,1.3203645E2,5.0183403E1,5.9142494E0,2.6999205E1,1.3110823E2,7.213934E1,5.9897114E1,4.1698997E1,8.484407E0],"tree_param":{"num_deleted":"0","num_feature":"244","num_nodes":"17","size_leaf_vector":"1"}},{"base_weights":[-1.8272817E-2,2.7141787E-2,-3.9578542E-1,-7.834646E-2,1.723491E-1,-5.1080805E-1,1.4786296E-2,6.846953E-2,-2.746754E-1,2.7550867E-1,-8.582568E-2,-7.287837E-1,-9.189309E-2,8.196288E-3,-1.7408973E-2,-2.8910581E-2,-6.4322124E-3,6.725049E-3,3.3660375E-2,2.1473395E-2,-1.5529096E-2,-4.3744285E-2,1.0660578E-3,2.0348717E-2,-2.2454629E-2],"categories":[],"categories_nodes":[],"categories_segments":[],"categories_sizes":[],"default_left":[0,0,0,0,0,0,0,0,0,0,0,0,0,0,0,0,0,0,0,0,0,0,0,0,0],"id":35,"left_children":[1,3,5,7,9,11,-1,13,15,17,19,21,23,-1,-1,-1,-1,-1,-1,-1,-1,-1,-1,-1,-1],"loss_changes":[6.364906E0,5.051838E0,3.3854566E0,5.533266E0,3.7459388E0,3.0393286E0,0E0,4.4429154E0,3.5429654E0,5.4785733E0,4.859314E0,2.5724964E0,2.659789E0,0E0,0E0,0E0,0E0,0E0,0E0,0E0,0E0,0E0,0E0,0E0,0E0],"parents":[2147483647,0,0,1,1,2,2,3,3,4,4,5,5,7,7,8,8,9,9,10,10,11,11,12,12],"right_children":[2,4,6,8,10,12,-1,14,16,18,20,22,24,-1,-1,-1,-1,-1,-1,-1,-1,-1,-1,-1,-1],"split_conditions":[1.3384027E0,1.2908937E-1,1.0936655E0,-6.6690575E-3,2.7198997E-1,1.8639174E-1,1.4786296E-2,2.606855E-1,-6.01866E-1,-6.2309746E-3,-1.7328613E-1,9.9527854E-1,-2.9622177E-2,8.196288E-3,-1.7408973E-2,-2.8910581E-2,-6.4322124E-3,6.725049E-3,3.3660375E-2,2.1473395E-2,-1.5529096E-2,-4.3744285E-2,1.0660578E-3,2.0348717E-2,-2.2454629E-2],"split_indices":[0,234,237,65,96,59,0,168,122,93,178,74,179,0,0,0,0,0,0,0,0,0,0,0,0],"split_type":[0,0,0,0,0,0,0,0,0,0,0,0,0,0,0,0,0,0,0,0,0,0,0,0,0],"sum_hessian":[3.6275146E2,3.2439062E2,3.8360844E1,1.877606E2,1.3663002E2,3.3238106E1,5.1227384E0,1.0750764E2,8.025297E1,9.785145E1,3.877857E1,2.1218824E1,1.20192795E1,8.815703E1,1.9350613E1,2.488449E1,5.536848E1,7.341215E1,2.4439297E1,1.1365469E1,2.74131E1,1.7732027E1,3.4867988E0,4.8401656E0,7.179114E0],"tree_param":{"num_deleted":"0","num_feature":"244","num_nodes":"25","size_leaf_vector":"1"}},{"base_weights":[1.5964996E-2,-1.5203527E-1,1.14362836E-1,-2.0266703E-1,4.3721116E-1,1.6528E-1,-3.7507674E-1,-4.8559436E-1,-1.0536369E-1,7.4865013E-1,-8.383863E-3,-5.9201145E-1,1.9297415E-1,-8.9799577E-1,6.731749E-2,-3.4305997E-2,-4.364397E-3,-9.18621E-3,1.288659E-2,1.2683297E-2,5.2745353E-2,-4.358011E-2,-9.975933E-3,1.3068547E-2,-4.901591E-3,-5.7553824E-2,-1.1611078E-2,2.037329E-2,-2.8279454E-2],"categories":[],"categories_nodes":[],"categories_segments":[],"categories_sizes":[],"default_left":[0,0,0,0,0,0,0,0,0,0,0,0,0,0,0,0,0,0,0,0,0,0,0,0,0,0,0,0,0],"id":36,"left_children":[1,3,5,7,9,11,13,15,17,19,-1,21,23,25,27,-1,-1,-1,-1,-1,-1,-1,-1,-1,-1,-1,-1,-1,-1],"loss_changes":[6.0553646E0,4.158495E0,5.8461E0,3.38585E0,2.3061109E0,4.5767922E0,5.292759E0,2.4152107E0,2.7798796E0,8.343673E-1,0E0,7.731123E-1,4.1015887E0,1.400033E0,3.1100633E0,0E0,0E0,0E0,0E0,0E0,0E0,0E0,0E0,0E0,0E0,0E0,0E0,0E0,0E0],"parents":[2147483647,0,0,1,1,2,2,3,3,4,4,5,5,6,6,7,7,8,8,9,9,11,11,12,12,13,13,14,14],"right_children":[2,4,6,8,10,12,14,16,18,20,-1,22,24,26,28,-1,-1,-1,-1,-1,-1,-1,-1,-1,-1,-1,-1,-1,-1],"split_conditions":[-1.9918454E-1,1.4294674E0,1.5985829E0,-2.6471287E-1,-9.628805E-2,-2.1207902E0,4.6628973E-1,-7.9130733E-1,9.1202706E-1,-4.1634837E-1,-8.383863E-3,-1.8173474E-1,1.2426689E0,1.8154595E-2,8.3509433E-1,-3.4305997E-2,-4.364397E-3,-9.18621E-3,1.288659E-2,1.2683297E-2,5.2745353E-2,-4.358011E-2,-9.975933E-3,1.3068547E-2,-4.901591E-3,-5.7553824E-2,-1.1611078E-2,2.037329E-2,-2.8279454E-2],"split_indices":[92,117,158,34,3,209,157,70,217,227,0,142,220,209,119,0,0,0,0,0,0,0,0,0,0,0,0,0,0],"split_type":[0,0,0,0,0,0,0,0,0,0,0,0,0,0,0,0,0,0,0,0,0,0,0,0,0,0,0,0,0],"sum_hessian":[3.6145282E2,1.329309E2,2.2852193E2,1.23172874E2,9.758023E0,2.0777354E2,2.0748386E1,3.0236488E1,9.2936386E1,6.393734E0,3.364289E0,6.483932E0,2.0128961E2,9.140416E0,1.1607969E1,1.9463848E1,1.0772641E1,7.707258E1,1.5863803E1,3.267491E0,3.1262429E0,3.228297E0,3.2556348E0,1.6334352E2,3.7946087E1,5.9858756E0,3.1545405E0,7.884654E0,3.723316E0],"tree_param":{"num_deleted":"0","num_feature":"244","num_nodes":"29","size_leaf_vector":"1"}},{"base_weights":[1.1190133E-3,4.886771E-2,-3.7391058E-1,-2.1588368E-2,3.261937E-1,-5.029084E-1,1.6325073E-2,1.4963661E-1,-1.4538674E-1,9.578106E-3,4.900582E-1,-7.7633166E-1,-1.8821608E-1,-2.7785553E-2,1.0220534E-2,-9.587444E-3,2.0260654E-2,-1.41724795E-2,1.2067947E-2,2.8313408E-2,-1.3242329E-2,-4.426607E-2,-7.3463726E-3,-1.8862968E-2,1.856427E-2],"categories":[],"categories_nodes":[],"categories_segments":[],"categories_sizes":[],"default_left":[0,0,0,0,0,0,0,0,0,0,0,0,0,0,0,0,0,0,0,0,0,0,0,0,0],"id":37,"left_children":[1,3,5,7,9,11,-1,13,15,17,19,21,23,-1,-1,-1,-1,-1,-1,-1,-1,-1,-1,-1,-1],"loss_changes":[6.509648E0,6.352089E0,3.9315672E0,5.5007105E0,3.3627672E0,2.8363075E0,0E0,4.355375E0,3.9597006E0,1.7608998E0,2.7069988E0,1.0583162E0,2.1171432E0,0E0,0E0,0E0,0E0,0E0,0E0,0E0,0E0,0E0,0E0,0E0,0E0],"parents":[2147483647,0,0,1,1,2,2,3,3,4,4,5,5,7,7,8,8,9,9,10,10,11,11,12,12],"right_children":[2,4,6,8,10,12,-1,14,16,18,20,22,24,-1,-1,-1,-1,-1,-1,-1,-1,-1,-1,-1,-1],"split_conditions":[1.3384027E0,7.4098307E-1,1.0506458E0,-4.3052293E-2,-2.4388066E-1,-4.22345E-2,1.6325073E-2,-1.0456289E0,2.293767E0,5.0601006E-2,7.0891786E-1,1.3559006E0,8.0982035E-1,-2.7785553E-2,1.0220534E-2,-9.587444E-3,2.0260654E-2,-1.41724795E-2,1.2067947E-2,2.8313408E-2,-1.3242329E-2,-4.426607E-2,-7.3463726E-3,-1.8862968E-2,1.856427E-2],"split_indices":[0,91,37,178,217,59,0,242,125,173,7,173,198,0,0,0,0,0,0,0,0,0,0,0,0],"split_type":[0,0,0,0,0,0,0,0,0,0,0,0,0,0,0,0,0,0,0,0,0,0,0,0,0],"sum_hessian":[3.5860715E2,3.1911398E2,3.949319E1,2.5491347E2,6.42005E1,3.3709522E1,5.78367E0,1.0654083E2,1.4837263E2,2.2464252E1,4.1736248E1,1.7082506E1,1.6627014E1,6.8867097E0,9.965412E1,1.3761815E2,1.0754492E1,9.632302E0,1.283195E1,3.8256485E1,3.4797618E0,1.4079048E1,3.003458E0,1.2804955E1,3.8220606E0],"tree_param":{"num_deleted":"0","num_feature":"244","num_nodes":"25","size_leaf_vector":"1"}},{"base_weights":[-6.080167E-3,6.398212E-1,-3.0215377E-2,-6.2274665E-4,8.586628E-1,7.7986665E-2,-1.643319E-1,1.6635796E-2,5.2169807E-2,2.257313E-1,-1.1031439E-1,-4.055707E-1,-7.250004E-2,-2.4595303E-3,1.7996248E-2,-2.0219184E-2,1.624726E-3,-2.5106957E-2,1.219917E-2,2.5186947E-2,-6.3213827E-3],"categories":[],"categories_nodes":[],"categories_segments":[],"categories_sizes":[],"default_left":[0,0,0,0,0,0,0,0,0,0,0,0,0,0,0,0,0,0,0,0,0],"id":38,"left_children":[1,3,5,-1,7,9,11,-1,-1,13,15,17,19,-1,-1,-1,-1,-1,-1,-1,-1],"loss_changes":[5.6824512E0,1.970911E0,5.097309E0,0E0,5.6360483E-1,5.43625E0,3.432932E0,0E0,0E0,4.0826416E0,3.6808057E0,2.8752284E0,3.6871333E0,0E0,0E0,0E0,0E0,0E0,0E0,0E0,0E0],"parents":[2147483647,0,0,1,1,2,2,4,4,5,5,6,6,9,9,10,10,11,11,12,12],"right_children":[2,4,6,-1,8,10,12,-1,-1,14,16,18,20,-1,-1,-1,-1,-1,-1,-1,-1],"split_conditions":[-1.7208036E0,-9.6255124E-1,-1.1870155E-1,-6.2274665E-4,2.5615172E-2,4.3635374E-1,-3.3657756E-1,1.6635796E-2,5.2169807E-2,-2.2250785E-1,-3.088765E-1,3.9438182E-1,-1.5186638E0,-2.4595303E-3,1.7996248E-2,-2.0219184E-2,1.624726E-3,-2.5106957E-2,1.219917E-2,2.5186947E-2,-6.3213827E-3],"split_indices":[0,226,180,0,127,124,92,0,0,86,236,215,214,0,0,0,0,0,0,0,0],"split_type":[0,0,0,0,0,0,0,0,0,0,0,0,0,0,0,0,0,0,0,0,0],"sum_hessian":[3.5766965E2,1.1815394E1,3.4585425E2,3.0903823E0,8.725012E0,1.9123956E2,1.5461469E2,3.136784E0,5.588228E0,1.0734607E2,8.38935E1,4.1387054E1,1.1322762E2,3.5173836E1,7.2172226E1,2.7053684E1,5.6839817E1,3.6362053E1,5.025004E0,8.817165E0,1.0441046E2],"tree_param":{"num_deleted":"0","num_feature":"244","num_nodes":"21","size_leaf_vector":"1"}},{"base_weights":[5.2992343E-3,1.13134325E-1,-1.18756264E-1,1.961404E-1,-8.9158535E-2,-6.152858E-1,-7.133781E-2,2.9370755E-1,-8.2043014E-2,6.1838616E-2,-5.10636E-1,-0E0,-8.139123E-1,-5.609334E-1,-2.2974543E-2,1.102301E-2,3.6954034E-2,7.4180323E-3,-2.3374904E-2,1.0674094E-2,-1.9230021E-2,-4.4385403E-2,-5.1554684E-3,-5.684591E-2,-1.8836837E-2,-1.0495221E-2,-4.2932767E-2,2.189867E-2,-3.5748517E-3],"categories":[],"categories_nodes":[],"categories_segments":[],"categories_sizes":[],"default_left":[0,0,0,0,0,0,0,0,0,0,0,0,0,0,0,0,0,0,0,0,0,0,0,0,0,0,0,0,0],"id":39,"left_children":[1,3,5,7,9,11,13,15,17,19,21,-1,23,25,27,-1,-1,-1,-1,-1,-1,-1,-1,-1,-1,-1,-1,-1,-1],"loss_changes":[4.8557286E0,3.3000138E0,3.9289064E0,3.8095798E0,3.764483E0,1.8039708E0,3.6682222E0,3.207759E0,3.421592E0,3.0334785E0,2.236092E0,0E0,1.0845208E0,1.233685E0,3.2460413E0,0E0,0E0,0E0,0E0,0E0,0E0,0E0,0E0,0E0,0E0,0E0,0E0,0E0,0E0],"parents":[2147483647,0,0,1,1,2,2,3,3,4,4,5,5,6,6,7,7,8,8,9,9,10,10,12,12,13,13,14,14],"right_children":[2,4,6,8,10,12,14,16,18,20,22,-1,24,26,28,-1,-1,-1,-1,-1,-1,-1,-1,-1,-1,-1,-1,-1,-1],"split_conditions":[1.9120039E-1,7.1292573E-1,-1.0456289E0,3.073425E-1,1.7838422E0,-1.8197441E-1,-3.7305826E-1,2.3626772E-1,1.8827246E-1,6.4710456E-1,-3.649377E-2,-0E0,-2.1033697E-1,-1.0294607E0,-4.5499513E-1,1.102301E-2,3.6954034E-2,7.4180323E-3,-2.3374904E-2,1.0674094E-2,-1.9230021E-2,-4.4385403E-2,-5.1554684E-3,-5.684591E-2,-1.8836837E-2,-1.0495221E-2,-4.2932767E-2,2.189867E-2,-3.5748517E-3],"split_indices":[0,124,242,65,136,127,93,20,132,55,197,0,215,80,2,0,0,0,0,0,0,0,0,0,0,0,0,0,0],"split_type":[0,0,0,0,0,0,0,0,0,0,0,0,0,0,0,0,0,0,0,0,0,0,0,0,0,0,0,0,0],"sum_hessian":[3.576264E2,1.9179926E2,1.6582715E2,1.3636845E2,5.5430805E1,1.3228101E1,1.5259904E2,1.0118392E2,3.5184525E1,4.1263794E1,1.4167013E1,3.4338722E0,9.794229E0,1.2580177E1,1.4001886E2,8.836989E1,1.2814032E1,2.2243977E1,1.2940548E1,3.13581E1,9.905691E0,6.618993E0,7.548021E0,4.5805573E0,5.2136717E0,6.7098503E0,5.8703275E0,1.2374835E1,1.2764403E2],"tree_param":{"num_deleted":"0","num_feature":"244","num_nodes":"29","size_leaf_vector":"1"}},{"base_weights":[-0E0,-1.1710237E-1,1.4024736E-1,-2.183198E-1,1.1572495E-2,5.9110135E-2,4.0792084E-1,-3.9278698E-1,-2.2503993E-2,1.1572495E-2,-2.872923E-2,2.3276703E-2,5.691873E-1,1.1572495E-2,5.989666E-1,-2.545987E-2,5.786248E-4,5.786248E-4,-2.2829382E-2,-2.323908E-2,5.786248E-4,2.0919165E-2,5.786248E-4,4.1420836E-2,4.628503E-3,3.3526734E-2,5.786248E-4,3.967603E-2,3.8114574E-3],"categories":[],"categories_nodes":[],"categories_segments":[],"categories_sizes":[],"default_left":[0,0,0,0,0,0,0,0,0,0,0,0,0,0,0,0,0,0,0,0,0,0,0,0,0,0,0,0,0],"id":40,"left_children":[1,3,5,7,9,11,13,15,17,19,-1,21,23,25,27,-1,-1,-1,-1,-1,-1,-1,-1,-1,-1,-1,-1,-1,-1],"loss_changes":[5.9817147E0,4.084124E0,3.5677724E0,4.7188153E0,1.8412081E0,2.3684688E0,3.0290089E0,4.2775345E0,3.850411E0,1.0660284E0,0E0,1.8797383E0,9.094176E-1,1.9496539E0,2.5392551E0,0E0,0E0,0E0,0E0,0E0,0E0,0E0,0E0,0E0,0E0,0E0,0E0,0E0,0E0],"parents":[2147483647,0,0,1,1,2,2,3,3,4,4,5,5,6,6,7,7,8,8,9,9,11,11,12,12,13,13,14,14],"right_children":[2,4,6,8,10,12,14,16,18,20,-1,22,24,26,28,-1,-1,-1,-1,-1,-1,-1,-1,-1,-1,-1,-1,-1,-1],"split_conditions":[4.8451368E-2,1.065442E0,9.353656E-1,-1.4925833E-1,3.181682E0,1.4932544E0,-8.8224664E-2,1.2455492E0,9.218942E-1,-1.0663637E0,-2.872923E-2,-1.1472024E0,1.6742764E-1,7.43357E-1,-1.5591437E-1,-2.545987E-2,5.786248E-4,5.786248E-4,-2.2829382E-2,-2.323908E-2,5.786248E-4,2.0919165E-2,5.786248E-4,4.1420836E-2,4.628503E-3,3.3526734E-2,5.786248E-4,3.967603E-2,3.8114574E-3],"split_indices":[238,163,152,235,77,84,2,171,160,68,0,0,17,187,22,0,0,0,0,0,0,0,0,0,0,0,0,0,0],"split_type":[0,0,0,0,0,0,0,0,0,0,0,0,0,0,0,0,0,0,0,0,0,0,0,0,0,0,0,0,0],"sum_hessian":[3.5899176E2,1.954654E2,1.6352637E2,1.3744598E2,5.8019417E1,1.2671186E2,3.6814503E1,7.1883194E1,6.556278E1,5.4001343E1,4.0180745E0,1.1955471E2,7.157156E0,1.1929095E1,2.4885408E1,5.862829E1,1.3254909E1,4.9037785E1,1.6524996E1,3.278692E0,5.072265E1,9.981392E0,1.0957332E2,4.021795E0,3.135361E0,3.1866996E0,8.742395E0,1.7618713E1,7.266694E0],"tree_param":{"num_deleted":"0","num_feature":"244","num_nodes":"29","size_leaf_vector":"1"}},{"base_weights":[-6.006492E-3,1.4597668E-1,-9.896712E-2,-1.092285E-1,2.6840967E-1,-3.4138152E-1,-2.2581438E-2,1.4190008E-1,-3.4101465E-1,4.3914214E-1,7.4988656E-2,-4.6544826E-1,6.628599E-2,-4.072324E-1,2.7554587E-2,4.281045E-2,-1.3885173E-3,1.5142295E-2,-2.56098E-2,-8.779163E-3,2.8819239E-2,1.0027211E-2,-1.3552767E-2,-3.15937E-2,-9.979057E-3,-9.979057E-3,3.260679E-2,-3.0179596E-2,1.9668018E-2,2.2624291E-2,-1.6573776E-3],"categories":[],"categories_nodes":[],"categories_segments":[],"categories_sizes":[],"default_left":[0,0,0,0,0,0,0,0,0,0,0,0,0,0,0,0,0,0,0,0,0,0,0,0,0,0,0,0,0,0,0],"id":41,"left_children":[1,3,5,7,9,11,13,15,17,19,21,23,25,27,29,-1,-1,-1,-1,-1,-1,-1,-1,-1,-1,-1,-1,-1,-1,-1,-1],"loss_changes":[5.1037793E0,4.326836E0,4.1311684E0,2.7269888E0,3.0081043E0,2.787262E0,3.4228785E0,2.8978426E0,2.870403E0,4.2929716E0,2.0682156E0,2.6375122E0,2.408566E0,3.5162349E0,4.0613217E0,0E0,0E0,0E0,0E0,0E0,0E0,0E0,0E0,0E0,0E0,0E0,0E0,0E0,0E0,0E0,0E0],"parents":[2147483647,0,0,1,1,2,2,3,3,4,4,5,5,6,6,7,7,8,8,9,9,10,10,11,11,12,12,13,13,14,14],"right_children":[2,4,6,8,10,12,14,16,18,20,22,24,26,28,30,-1,-1,-1,-1,-1,-1,-1,-1,-1,-1,-1,-1,-1,-1,-1,-1],"split_conditions":[-1.9808719E-1,-2.5222722E-1,-3.668626E-1,-1.5231876E-1,-5.697035E-1,4.3722317E-1,-8.114006E-1,-3.668626E-1,-6.979921E-1,-9.04301E-1,4.1186085E-1,6.651177E-1,4.326756E-1,1.4353384E0,-1.1843417E0,4.281045E-2,-1.3885173E-3,1.5142295E-2,-2.56098E-2,-8.779163E-3,2.8819239E-2,1.0027211E-2,-1.3552767E-2,-3.15937E-2,-9.979057E-3,-9.979057E-3,3.260679E-2,-3.0179596E-2,1.9668018E-2,2.2624291E-2,-1.6573776E-3],"split_indices":[180,218,112,40,22,209,92,112,235,235,181,82,122,14,232,0,0,0,0,0,0,0,0,0,0,0,0,0,0,0,0],"split_type":[0,0,0,0,0,0,0,0,0,0,0,0,0,0,0,0,0,0,0,0,0,0,0,0,0,0,0,0,0,0,0],"sum_hessian":[3.561691E2,1.3454796E2,2.2162114E2,4.339157E1,9.115638E1,5.1956345E1,1.696648E2,2.0805851E1,2.258572E1,4.746855E1,4.368783E1,3.9913044E1,1.20433E1,1.8973019E1,1.5069177E2,3.3299408E0,1.747591E1,4.459389E0,1.812633E1,8.479574E0,3.898898E1,3.2577236E1,1.1110593E1,2.86238E1,1.1289245E1,8.558737E0,3.4845622E0,1.5534005E1,3.4390132E0,1.8235008E1,1.3245677E2],"tree_param":{"num_deleted":"0","num_feature":"244","num_nodes":"31","size_leaf_vector":"1"}},{"base_weights":[1.0484912E-2,4.964814E-2,-3.4404618E-1,-2.803702E-1,8.925724E-2,-4.813888E-1,2.0629438E-2,-5.389298E-1,5.097896E-2,-2.56611E-1,1.3348757E-1,-2.5199258E-1,-7.923405E-1,-3.8293958E-2,8.061311E-3,-2.7252564E-2,1.7297564E-2,4.1037216E-3,-3.5466257E-2,1.6802272E-2,2.1903734E-3,1.9987798E-3,-2.7643466E-2,-1.8192567E-2,-5.5447806E-2],"categories":[],"categories_nodes":[],"categories_segments":[],"categories_sizes":[],"default_left":[0,0,0,0,0,0,0,0,0,0,0,0,0,0,0,0,0,0,0,0,0,0,0,0,0],"id":42,"left_children":[1,3,5,7,9,11,-1,13,15,17,19,21,23,-1,-1,-1,-1,-1,-1,-1,-1,-1,-1,-1,-1],"loss_changes":[4.987277E0,4.2583857E0,3.967474E0,3.0774002E0,4.4743595E0,1.9710569E0,0E0,3.3642883E0,3.111166E0,5.2324657E0,4.637386E0,1.8192496E0,1.2430658E0,0E0,0E0,0E0,0E0,0E0,0E0,0E0,0E0,0E0,0E0,0E0,0E0],"parents":[2147483647,0,0,1,1,2,2,3,3,4,4,5,5,7,7,8,8,9,9,10,10,11,11,12,12],"right_children":[2,4,6,8,10,12,-1,14,16,18,20,22,24,-1,-1,-1,-1,-1,-1,-1,-1,-1,-1,-1,-1],"split_conditions":[1.7956461E-1,-9.818303E-1,2.1583502E0,4.565836E-1,-3.3932707E-1,7.173079E-1,2.0629438E-2,4.0678173E-1,-1.4618424E-1,-7.037312E-1,-7.7616835E-1,-8.716752E-2,-2.4981421E-1,-3.8293958E-2,8.061311E-3,-2.7252564E-2,1.7297564E-2,4.1037216E-3,-3.5466257E-2,1.6802272E-2,2.1903734E-3,1.9987798E-3,-2.7643466E-2,-1.8192567E-2,-5.5447806E-2],"split_indices":[180,234,147,37,93,86,0,240,161,105,157,240,117,0,0,0,0,0,0,0,0,0,0,0,0],"split_type":[0,0,0,0,0,0,0,0,0,0,0,0,0,0,0,0,0,0,0,0,0,0,0,0,0],"sum_hessian":[3.5356546E2,3.1942252E2,3.414294E1,3.330726E1,2.8611526E2,2.9317278E1,4.8256636E0,1.8526173E1,1.4781084E1,3.1639671E1,2.544756E2,1.8097971E1,1.1219306E1,1.4028058E1,4.4981146E0,4.5004716E0,1.0280613E1,1.8441212E1,1.3198461E1,7.690661E1,1.7756898E2,9.456368E0,8.6416025E0,5.814852E0,5.4044538E0],"tree_param":{"num_deleted":"0","num_feature":"244","num_nodes":"25","size_leaf_vector":"1"}},{"base_weights":[-1.7878987E-2,2.0329313E-1,-7.8802556E-2,1.1994945E-1,7.0881176E-1,-1.2445176E-1,3.6155537E-1,-2.7322674E-1,2.3695545E-1,5.171239E-2,9.241014E-3,1.7207906E-1,-1.8158054E-1,-3.0085256E-2,5.5167884E-1,1.13926055E-2,-2.8624048E-2,3.4998585E-3,2.8826434E-2,2.3513032E-2,-1.224003E-2,-1.7913679E-2,-4.814196E-3,3.0362369E-3,3.947633E-2],"categories":[],"categories_nodes":[],"categories_segments":[],"categories_sizes":[],"default_left":[0,0,0,0,0,0,0,0,0,0,0,0,0,0,0,0,0,0,0,0,0,0,0,0,0],"id":43,"left_children":[1,3,5,7,9,11,13,15,17,-1,-1,19,21,-1,23,-1,-1,-1,-1,-1,-1,-1,-1,-1,-1],"loss_changes":[4.8725843E0,3.2062874E0,5.7575884E0,3.2479343E0,1.5865331E0,4.41201E0,5.3334975E0,2.6345072E0,2.9709294E0,0E0,0E0,5.4120884E0,3.2191749E0,0E0,2.5795107E0,0E0,0E0,0E0,0E0,0E0,0E0,0E0,0E0,0E0,0E0],"parents":[2147483647,0,0,1,1,2,2,3,3,4,4,5,5,6,6,7,7,8,8,11,11,12,12,14,14],"right_children":[2,4,6,8,10,12,14,16,18,-1,-1,20,22,-1,24,-1,-1,-1,-1,-1,-1,-1,-1,-1,-1],"split_conditions":[0E0,1.3450654E0,2.2075026E-1,-5.8300465E-1,-5.117948E-1,-7.4580604E-1,-9.2566526E-1,-3.3884272E-2,-5.830817E-2,5.171239E-2,9.241014E-3,1.575118E-1,-1.6221678E-1,-3.0085256E-2,-9.4615124E-2,1.13926055E-2,-2.8624048E-2,3.4998585E-3,2.8826434E-2,2.3513032E-2,-1.224003E-2,-1.7913679E-2,-4.814196E-3,3.0362369E-3,3.947633E-2],"split_indices":[220,157,93,217,130,179,234,147,9,0,0,20,36,0,226,0,0,0,0,0,0,0,0,0,0],"split_type":[0,0,0,0,0,0,0,0,0,0,0,0,0,0,0,0,0,0,0,0,0,0,0,0,0],"sum_hessian":[3.5642596E2,7.611734E1,2.8030862E2,6.657617E1,9.541162E0,2.5483585E2,2.5472794E1,1.4766472E1,5.1809704E1,5.167282E0,4.3738794E0,4.0557396E1,2.1427844E2,3.7553797E0,2.1717413E1,5.485631E0,9.280841E0,3.5738663E1,1.6071041E1,2.37101E1,1.6847298E1,6.833954E1,1.459389E2,7.634462E0,1.4082952E1],"tree_param":{"num_deleted":"0","num_feature":"244","num_nodes":"25","size_leaf_vector":"1"}},{"base_weights":[1.31438235E-2,-3.0151092E-2,2.900147E-1,2.120969E-1,-8.152461E-2,3.103518E-2,4.8849657E-1,5.1566094E-1,-2.4945138E-2,-1.9743119E-1,5.0698034E-2,4.61871E-1,-2.5834942E-1,-3.0941514E-3,5.83961E-1,-1.1272571E-2,3.247625E-2,-1.4232752E-2,1.5447686E-2,-2.2167793E-2,-4.1704E-3,9.462657E-3,-7.972577E-3,-5.568989E-3,4.1591804E-2,-2.3375345E-2,1.4178964E-2,4.307316E-3,3.802501E-2],"categories":[],"categories_nodes":[],"categories_segments":[],"categories_sizes":[],"default_left":[0,0,0,0,0,0,0,0,0,0,0,0,0,0,0,0,0,0,0,0,0,0,0,0,0,0,0,0,0],"id":44,"left_children":[1,3,5,7,9,11,13,15,17,19,21,23,25,-1,27,-1,-1,-1,-1,-1,-1,-1,-1,-1,-1,-1,-1,-1,-1],"loss_changes":[4.376377E0,3.9071858E0,2.481688E0,4.018199E0,3.986093E0,3.071872E0,1.5531096E0,2.635591E0,2.8986719E0,3.8231678E0,3.5903618E0,2.2763858E0,1.8261633E0,0E0,1.9674168E0,0E0,0E0,0E0,0E0,0E0,0E0,0E0,0E0,0E0,0E0,0E0,0E0,0E0,0E0],"parents":[2147483647,0,0,1,1,2,2,3,3,