{"learner":{"attributes":{"scikit_learn":"{\"_estimator_type\": \"classifier\"}"},"feature_names":["age_difference","age_weighted_recent_damage_diff","age_x_days_since_last_fight_diff","age_x_fights_in_last_year_diff","age_x_fights_since_last_win_diff","age_x_recent_sig_strike_diff_last_3_diff","age_x_recent_vs_career_decline_diff","age_x_years_since_last_fight_diff","avg_beaten_opponent_win_rate_diff","avg_opponent_win_rate_diff","both_finishers","both_grapplers","both_strikers","common_opponent_performance_diff","decision_losses_since_last_win_diff","defensive_fight","durability_collapse_diff","early_finish_advantage_diff","early_finish_rate_last_3_diff","early_finish_rate_last_5_diff","experience_difference","f1_activity_rate","f1_age","f1_age_in_prime","f1_age_past_prime","f1_age_x_days_since_last_fight","f1_age_x_fights_in_last_year","f1_age_x_fights_since_last_win","f1_age_x_recent_vs_career_decline","f1_age_x_years_since_last_fight","f1_athleticism_decline","f1_avg_beaten_opponent_total_fights","f1_avg_beaten_opponent_win_rate","f1_avg_fight_duration_rounds","f1_avg_lost_to_opponent_win_rate","f1_avg_opponent_total_fights","f1_avg_opponent_win_rate","f1_current_loss_streak","f1_current_win_streak","f1_days_between_last_2_fights","f1_days_since_last_fight","f1_decision_losses_since_last_win","f1_decision_rate","f1_draws","f1_early_finish_advantage","f1_early_finish_rate_last_3","f1_early_finish_rate_last_5","f1_fights_in_last_year","f1_fights_since_last_win","f1_finish_losses_since_last_win","f1_finish_rate","f1_finish_rate_last_3","f1_finish_rate_last_3_years","f1_finish_rate_last_5","f1_first_round_finish_rate","f1_first_round_ko_rate","f1_has_ever_won","f1_has_fight_history","f1_height_cm","f1_ko_rate","f1_ko_rate_last_3","f1_ko_rate_last_5","f1_long_layoff_over_1yr","f1_long_layoff_over_2yr","f1_losses","f1_losses_last_3_years","f1_losses_since_last_win","f1_opponent_quality_score","f1_performance_trend","f1_power_striker_score","f1_prospect_momentum_score","f1_reach_inches","f1_recent_control_time_diff_last_3","f1_recent_control_time_sec_last_3","f1_recent_finish_loss_last_fight","f1_recent_finish_loss_ratio_last_2","f1_recent_finish_losses_last_2","f1_recent_form_quality_adjusted","f1_recent_knockdown_diff_last_3","f1_recent_losses_last_2","f1_recent_sig_strike_diff_last_3","f1_recent_vs_career_win_rate","f1_round_3_fight_rate","f1_round_3_finish_rate","f1_round_3_performance_score","f1_round_3_win_rate","f1_sig_strikes_landed_per_min","f1_sig_strikes_landed_per_min_lifetime","f1_stance_orthodox","f1_stance_southpaw","f1_stance_switch","f1_striking_accuracy","f1_striking_differential","f1_striking_volume_control","f1_submission_rate","f1_time_decayed_finish_rate","f1_time_decayed_ko_rate","f1_time_decayed_win_rate","f1_time_decayed_win_rate_adj_opp_quality","f1_title_fight_experience","f1_total_fights","f1_weight_lbs","f1_win_rate_last_3","f1_win_rate_last_3_years","f1_win_rate_last_5","f1_wins","f1_wins_last_3_years","f1_youth_form_score","f2_activity_rate","f2_age","f2_age_in_prime","f2_age_past_prime","f2_age_x_days_since_last_fight","f2_age_x_fights_in_last_year","f2_age_x_fights_since_last_win","f2_age_x_recent_vs_career_decline","f2_age_x_years_since_last_fight","f2_athleticism_decline","f2_avg_beaten_opponent_total_fights","f2_avg_beaten_opponent_win_rate","f2_avg_fight_duration_rounds","f2_avg_lost_to_opponent_win_rate","f2_avg_opponent_total_fights","f2_avg_opponent_win_rate","f2_current_loss_streak","f2_current_win_streak","f2_days_between_last_2_fights","f2_days_since_last_fight","f2_decision_losses_since_last_win","f2_decision_rate","f2_draws","f2_early_finish_advantage","f2_early_finish_rate_last_3","f2_early_finish_rate_last_5","f2_fights_in_last_year","f2_fights_since_last_win","f2_finish_losses_since_last_win","f2_finish_rate","f2_finish_rate_last_3","f2_finish_rate_last_3_years","f2_finish_rate_last_5","f2_first_round_finish_rate","f2_first_round_ko_rate","f2_has_ever_won","f2_has_fight_history","f2_height_cm","f2_ko_rate","f2_ko_rate_last_3","f2_ko_rate_last_5","f2_long_layoff_over_1yr","f2_long_layoff_over_2yr","f2_losses","f2_losses_last_3_years","f2_losses_since_last_win","f2_opponent_quality_score","f2_performance_trend","f2_power_striker_score","f2_prospect_momentum_score","f2_reach_inches","f2_recent_control_time_diff_last_3","f2_recent_control_time_sec_last_3","f2_recent_finish_loss_last_fight","f2_recent_finish_loss_ratio_last_2","f2_recent_finish_losses_last_2","f2_recent_form_quality_adjusted","f2_recent_knockdown_diff_last_3","f2_recent_losses_last_2","f2_recent_sig_strike_diff_last_3","f2_recent_vs_career_win_rate","f2_round_3_fight_rate","f2_round_3_finish_rate","f2_round_3_performance_score","f2_round_3_win_rate","f2_sig_strikes_landed_per_min","f2_sig_strikes_landed_per_min_lifetime","f2_stance_orthodox","f2_stance_southpaw","f2_stance_switch","f2_striking_accuracy","f2_striking_differential","f2_striking_volume_control","f2_submission_rate","f2_time_decayed_finish_rate","f2_time_decayed_ko_rate","f2_time_decayed_win_rate","f2_time_decayed_win_rate_adj_opp_quality","f2_title_fight_experience","f2_total_fights","f2_weight_lbs","f2_win_rate_last_3","f2_win_rate_last_3_years","f2_win_rate_last_5","f2_wins","f2_wins_last_3_years","f2_youth_form_score","fights_since_last_win_diff","finish_losses_since_last_win_diff","finish_rate_diff","finish_rate_last_3_years_diff","first_round_finish_rate_diff","first_round_ko_rate_diff","has_ever_won_diff","height_advantage","is_title_fight","long_layoff_over_1yr_diff","long_layoff_over_2yr_diff","losses_last_3_years_diff","losses_since_last_win_diff","num_common_opponents","opponent_quality_score_diff","opponent_quality_score_diff_squared","orthodox_vs_orthodox","orthodox_vs_southpaw","power_striker_matchup","power_striker_score_diff","prospect_momentum_score_diff","reach_advantage","recent_control_time_diff_last_3_diff","recent_control_time_sec_last_3_diff","recent_finish_loss_last_fight_diff","recent_finish_loss_ratio_last_2_diff","recent_finish_losses_last_2_diff","recent_form_diff","recent_form_quality_adjusted_diff","recent_knockdown_diff_last_3_diff","recent_sig_strike_diff_last_3_diff","recent_vs_career_win_rate_diff","round_3_performance_diff","round_3_win_rate_diff","southpaw_vs_southpaw","striker_vs_grappler","striking_accuracy_diff","striking_differential","striking_differential_x_opponent_quality_diff","striking_output_diff","style_volatility_mismatch_diff","takedown_ability_diff","takedown_matchup","time_decayed_finish_rate_diff","time_decayed_ko_rate_diff","time_decayed_win_rate_adj_opp_quality_diff","time_decayed_win_rate_diff","win_rate_last_3_years_diff","win_streak_diff","wins_last_3_years_diff","youth_form_score_diff"],"feature_types":["float","float","float","float","float","float","float","float","float","float","float","float","float","float","float","float","float","float","float","float","float","float","float","float","float","float","float","float","float","float","float","float","float","float","float","float","float","float","float","float","float","float","float","float","float","float","float","float","float","float","float","float","float","float","float","float","float","float","float","float","float","float","float","float","float","float","float","float","float","float","float","float","float","float","float","float","float","float","float","float","float","float","float","float","float","float","float","float","float","float","float","float","float","float","float","float","float","float","float","float","float","float","float","float","float","float","float","float","float","float","float","float","float","float","float","float","float","float","float","float","float","float","float","float","float","float","float","float","float","float","float","float","float","float","float","float","float","float","float","float","float","float","float","float","float","float","float","float","float","float","float","float","float","float","float","float","float","float","float","float","float","float","float","float","float","float","float","float","float","float","float","float","float","float","float","float","float","float","float","float","float","float","float","float","float","float","float","float","float","float","float","float","float","float","float","float","float","float","float","float","float","float","float","float","float","float","float","float","float","float","float","float","float","float","float","float","float","float","float","float","float","float","float","float","float","float","float","float","float","float","float","float","float","float","float","float","float","float","float","float","float","float","float","float","float","float"],"gradient_booster":{"model":{"cats":{"enc":[],"feature_segments":[],"sorted_idx":[]},"gbtree_model_param":{"num_parallel_tree":"1","num_trees":"200"},"iteration_indptr":[0,1,2,3,4,5,6,7,8,9,10,11,12,13,14,15,16,17,18,19,20,21,22,23,24,25,26,27,28,29,30,31,32,33,34,35,36,37,38,39,40,41,42,43,44,45,46,47,48,49,50,51,52,53,54,55,56,57,58,59,60,61,62,63,64,65,66,67,68,69,70,71,72,73,74,75,76,77,78,79,80,81,82,83,84,85,86,87,88,89,90,91,92,93,94,95,96,97,98,99,100,101,102,103,104,105,106,107,108,109,110,111,112,113,114,115,116,117,118,119,120,121,122,123,124,125,126,127,128,129,130,131,132,133,134,135,136,137,138,139,140,141,142,143,144,145,146,147,148,149,150,151,152,153,154,155,156,157,158,159,160,161,162,163,164,165,166,167,168,169,170,171,172,173,174,175,176,177,178,179,180,181,182,183,184,185,186,187,188,189,190,191,192,193,194,195,196,197,198,199,200],"tree_info":[0,0,0,0,0,0,0,0,0,0,0,0,0,0,0,0,0,0,0,0,0,0,0,0,0,0,0,0,0,0,0,0,0,0,0,0,0,0,0,0,0,0,0,0,0,0,0,0,0,0,0,0,0,0,0,0,0,0,0,0,0,0,0,0,0,0,0,0,0,0,0,0,0,0,0,0,0,0,0,0,0,0,0,0,0,0,0,0,0,0,0,0,0,0,0,0,0,0,0,0,0,0,0,0,0,0,0,0,0,0,0,0,0,0,0,0,0,0,0,0,0,0,0,0,0,0,0,0,0,0,0,0,0,0,0,0,0,0,0,0,0,0,0,0,0,0,0,0,0,0,0,0,0,0,0,0,0,0,0,0,0,0,0,0,0,0,0,0,0,0,0,0,0,0,0,0,0,0,0,0,0,0,0,0,0,0,0,0,0,0,0,0,0,0,0,0,0,0,0,0],"trees":[{"base_weights":[8.690474E-3,-3.0443057E-1,3.7731072E-1,3.6440074E-2,-4.823836E-1,5.196907E-1,3.6440074E-2,3.6440074E-2,-7.74914E-1,-6.22499E-1,-1.08060434E-1,7.401642E-1,2.5736007E-1,3.0757353E-2,3.6440074E-2,-2.5417829E-2,1.8220037E-3,-5.8845233E-2,-1.0518353E-2,-3.6883317E-2,-7.3143207E-3,-3.4124937E-2,1.6517714E-3,4.430064E-2,8.203382E-3,1.8220037E-3,2.1525128E-2,1.8220037E-3,2.4114728E-2],"categories":[],"categories_nodes":[],"categories_segments":[],"categories_sizes":[],"default_left":[0,0,0,0,0,0,0,0,0,0,0,0,0,0,0,0,0,0,0,0,0,0,0,0,0,0,0,0,0],"id":0,"left_children":[1,3,5,7,9,11,13,15,17,19,21,23,25,-1,27,-1,-1,-1,-1,-1,-1,-1,-1,-1,-1,-1,-1,-1,-1],"loss_changes":[4.3899902E1,1.4160309E1,1.2185785E1,6.1765018E0,7.2996025E0,7.8311806E0,1.4978633E0,3.542531E0,1.8099842E0,5.4568596E0,3.4333818E0,6.084633E0,2.517046E0,0E0,1.0690811E0,0E0,0E0,0E0,0E0,0E0,0E0,0E0,0E0,0E0,0E0,0E0,0E0,0E0,0E0],"parents":[2147483647,0,0,1,1,2,2,3,3,4,4,5,5,6,6,7,7,8,8,9,9,10,10,11,11,12,12,14,14],"right_children":[2,4,6,8,10,12,14,16,18,20,22,24,26,-1,28,-1,-1,-1,-1,-1,-1,-1,-1,-1,-1,-1,-1,-1,-1],"split_conditions":[4.59509E-2,-1.9403987E-1,-2.1516467E-2,5.089511E-1,2.724902E-1,5.776971E-1,-1.0653745E0,-9.4258976E-1,-2.629212E-1,3.568966E-1,-7.110795E-1,2.4435885E-2,1.570842E-1,3.0757353E-2,1.9373553E0,-2.5417829E-2,1.8220037E-3,-5.8845233E-2,-1.0518353E-2,-3.6883317E-2,-7.3143207E-3,-3.4124937E-2,1.6517714E-3,4.430064E-2,8.203382E-3,1.8220037E-3,2.1525128E-2,1.8220037E-3,2.4114728E-2],"split_indices":[223,179,180,3,236,24,26,92,215,233,92,4,225,0,122,0,0,0,0,0,0,0,0,0,0,0,0,0,0],"split_type":[0,0,0,0,0,0,0,0,0,0,0,0,0,0,0,0,0,0,0,0,0,0,0,0,0,0,0,0,0],"sum_hessian":[3.7711554E2,2.0385535E2,1.7326018E2,6.394947E1,1.3990588E2,1.3776697E2,3.549321E1,5.5811386E1,8.138085E0,1.0112352E2,3.8782356E1,7.365856E1,6.4108406E1,3.1309123E0,3.2362297E1,1.0572981E1,4.5238403E1,4.016371E0,4.121714E0,8.081918E1,2.0304338E1,7.0305896E0,3.1751768E1,5.8210148E1,1.5448416E1,2.8650322E1,3.545808E1,2.842615E1,3.9361477E0],"tree_param":{"num_deleted":"0","num_feature":"246","num_nodes":"29","size_leaf_vector":"1"}},{"base_weights":[1.1526977E-2,-3.5860586E-1,3.3635452E-1,-1.1832418E-1,-7.783621E-1,5.791611E-1,3.425252E-2,-4.3194705E-1,-1.1125669E-2,-9.970552E-1,-3.1576526E-1,7.6706827E-1,2.1213146E-1,-1.1125669E-2,4.476608E-1,-5.243534E-2,-1.2958067E-2,-5.5628346E-4,-4.4109315E-2,-5.301816E-2,-9.326619E-3,-3.785043E-2,-5.5628346E-4,4.90196E-2,2.3489615E-2,-5.5628346E-4,3.5666738E-2,-5.5628346E-4,2.0653216E-2,3.9617907E-2,2.6614026E-3],"categories":[],"categories_nodes":[],"categories_segments":[],"categories_sizes":[],"default_left":[0,0,0,0,0,0,0,0,0,0,0,0,0,0,0,0,0,0,0,0,0,0,0,0,0,0,0,0,0,0,0],"id":1,"left_children":[1,3,5,7,9,11,13,15,17,19,21,23,25,27,29,-1,-1,-1,-1,-1,-1,-1,-1,-1,-1,-1,-1,-1,-1,-1,-1],"loss_changes":[4.587719E1,1.784872E1,1.4847019E1,6.0796137E0,6.1718483E0,7.555065E0,7.043189E0,4.1841445E0,4.551039E0,1.9385567E0,4.435256E0,4.199848E0,5.2181206E0,2.005613E0,4.570804E0,0E0,0E0,0E0,0E0,0E0,0E0,0E0,0E0,0E0,0E0,0E0,0E0,0E0,0E0,0E0,0E0],"parents":[2147483647,0,0,1,1,2,2,3,3,4,4,5,5,6,6,7,7,8,8,9,9,10,10,11,11,12,12,13,13,14,14],"right_children":[2,4,6,8,10,12,14,16,18,20,22,24,26,28,30,-1,-1,-1,-1,-1,-1,-1,-1,-1,-1,-1,-1,-1,-1,-1,-1],"split_conditions":[-2.8723389E-2,5.736012E-1,1.9120039E-1,-3.1089744E-1,1.510863E-1,-1.02592446E-1,3.6833718E-1,-2.8433186E-1,2.0216937E0,9.174922E-1,2.9216906E-1,-5.7183113E-2,3.4272918E-1,9.114575E-1,3.2512438E-1,-5.243534E-2,-1.2958067E-2,-5.5628346E-4,-4.4109315E-2,-5.301816E-2,-9.326619E-3,-3.785043E-2,-5.5628346E-4,4.90196E-2,2.3489615E-2,-5.5628346E-4,3.5666738E-2,-5.5628346E-4,2.0653216E-2,3.9617907E-2,2.6614026E-3],"split_indices":[240,0,0,92,231,180,92,112,159,209,36,112,225,218,96,0,0,0,0,0,0,0,0,0,0,0,0,0,0,0,0],"split_type":[0,0,0,0,0,0,0,0,0,0,0,0,0,0,0,0,0,0,0,0,0,0,0,0,0,0,0,0,0,0,0],"sum_hessian":[3.7845905E2,1.7670091E2,2.0175812E2,1.1334105E2,6.3359867E1,1.1116446E2,9.059365E1,4.0396687E1,7.294437E1,4.2090183E1,2.1269688E1,7.2621994E1,3.854247E1,5.7628113E1,3.296554E1,7.6044374E0,3.2792248E1,6.8175705E1,4.76866E0,3.8640446E1,3.4497344E0,1.052867E1,1.0741016E1,4.0747486E1,3.1874506E1,2.6035667E1,1.2506802E1,4.7952724E1,9.675387E0,1.6918217E1,1.6047325E1],"tree_param":{"num_deleted":"0","num_feature":"246","num_nodes":"31","size_leaf_vector":"1"}},{"base_weights":[-1.1485113E-2,-2.9913253E-1,3.353864E-1,-7.1256214E-1,-1.7378728E-1,5.7279956E-1,6.569943E-2,-8.021805E-1,9.063468E-4,1.8126935E-2,-4.8808712E-1,8.502058E-1,3.1986013E-1,4.0797874E-1,1.8126935E-2,-0E0,-4.6194118E-2,-2.2195213E-2,9.063468E-4,-2.8885553E-2,9.063468E-4,9.063468E-4,4.6628725E-2,3.7610658E-2,9.063468E-4,9.063468E-4,3.1354196E-2,9.063468E-4,3.2111466E-2],"categories":[],"categories_nodes":[],"categories_segments":[],"categories_sizes":[],"default_left":[0,0,0,0,0,0,0,0,0,0,0,0,0,0,0,0,0,0,0,0,0,0,0,0,0,0,0,0,0],"id":2,"left_children":[1,3,5,7,9,11,13,15,-1,17,19,21,23,25,27,-1,-1,-1,-1,-1,-1,-1,-1,-1,-1,-1,-1,-1,-1],"loss_changes":[3.777355E1,1.06025715E1,1.0903376E1,4.5450363E0,9.990957E0,6.086094E0,4.4837947E0,4.4391613E0,0E0,7.4991055E0,2.9652996E0,3.308424E0,8.154411E0,2.7506495E0,2.6122217E0,0E0,0E0,0E0,0E0,0E0,0E0,0E0,0E0,0E0,0E0,0E0,0E0,0E0,0E0],"parents":[2147483647,0,0,1,1,2,2,3,3,4,4,5,5,6,6,7,7,9,9,10,10,11,11,12,12,13,13,14,14],"right_children":[2,4,6,8,10,12,14,16,-1,18,20,22,24,26,28,-1,-1,-1,-1,-1,-1,-1,-1,-1,-1,-1,-1,-1,-1],"split_conditions":[3.8292415E-2,-4.7325817E-1,5.776971E-1,1.6124375E-1,3.654433E-1,-1.5082462E-1,-3.02078E-1,-1.595512E0,9.063468E-4,-4.564182E-1,5.669484E-1,-7.784809E-1,-2.338424E-1,5.2281445E-1,2.0357158E0,-0E0,-4.6194118E-2,-2.2195213E-2,9.063468E-4,-2.8885553E-2,9.063468E-4,9.063468E-4,4.6628725E-2,3.7610658E-2,9.063468E-4,9.063468E-4,3.1354196E-2,9.063468E-4,3.2111466E-2],"split_indices":[223,215,24,107,179,179,179,214,0,92,8,224,3,244,118,0,0,0,0,0,0,0,0,0,0,0,0,0,0],"split_type":[0,0,0,0,0,0,0,0,0,0,0,0,0,0,0,0,0,0,0,0,0,0,0,0,0,0,0,0,0],"sum_hessian":[3.7536285E2,2.0543188E2,1.6993098E2,4.651794E1,1.5891394E2,8.957808E1,8.03529E1,4.3430656E1,3.0872836E0,9.818492E1,6.072902E1,4.1408016E1,4.817006E1,2.9264809E1,5.108809E1,5.76235E0,3.7668304E1,3.3697754E1,6.448717E1,5.1858364E1,8.870654E0,3.3585877E0,3.804943E1,2.2279385E1,2.5890675E1,1.0560454E1,1.8704355E1,4.570117E1,5.3869205E0],"tree_param":{"num_deleted":"0","num_feature":"246","num_nodes":"29","size_leaf_vector":"1"}},{"base_weights":[-4.4250647E-3,-2.8955734E-1,2.581856E-1,-5.0712526E-1,-3.521673E-2,5.2931035E-1,1.5006046E-2,-2.635898E-1,-7.957023E-1,-3.3450177E-1,-1.5685871E-2,8.8471824E-1,3.1701043E-1,-1.5685871E-2,5.225621E-1,-7.842936E-4,-3.189993E-2,-4.4241473E-2,-7.842936E-4,-2.9172877E-2,-7.842936E-4,-7.842936E-4,-1.5371238E-2,1.2164175E-3,5.123606E-2,2.495227E-2,-7.842936E-4,-7.842936E-4,3.515796E-2,3.976805E-2,5.55108E-3],"categories":[],"categories_nodes":[],"categories_segments":[],"categories_sizes":[],"default_left":[0,0,0,0,0,0,0,0,0,0,0,0,0,0,0,0,0,0,0,0,0,0,0,0,0,0,0,0,0,0,0],"id":3,"left_children":[1,3,5,7,9,11,13,15,17,19,21,23,25,27,29,-1,-1,-1,-1,-1,-1,-1,-1,-1,-1,-1,-1,-1,-1,-1,-1],"loss_changes":[2.8453085E1,1.0029852E1,1.2973924E1,6.6547737E0,3.1038647E0,6.7401123E0,1.0093132E1,6.02059E0,3.4214916E0,2.7109382E0,1.8732246E0,3.9973469E0,4.568004E0,2.9782703E0,3.8081703E0,0E0,0E0,0E0,0E0,0E0,0E0,0E0,0E0,0E0,0E0,0E0,0E0,0E0,0E0,0E0,0E0],"parents":[2147483647,0,0,1,1,2,2,3,3,4,4,5,5,6,6,7,7,8,8,9,9,10,10,11,11,12,12,13,13,14,14],"right_children":[2,4,6,8,10,12,14,16,18,20,22,24,26,28,30,-1,-1,-1,-1,-1,-1,-1,-1,-1,-1,-1,-1,-1,-1,-1,-1],"split_conditions":[0E0,-5.697035E-1,-1.2535849E-1,3.8549936E-1,-3.1089744E-1,-8.4556293E-1,8.2692215E-3,6.6018945E-1,7.777006E-1,2.6758242E-1,4.1266307E-2,-9.946978E-1,2.1110961E-1,2.293767E0,4.4241852E-1,-7.842936E-4,-3.189993E-2,-4.4241473E-2,-7.842936E-4,-2.9172877E-2,-7.842936E-4,-7.842936E-4,-1.5371238E-2,1.2164175E-3,5.123606E-2,2.495227E-2,-7.842936E-4,-7.842936E-4,3.515796E-2,3.976805E-2,5.55108E-3],"split_indices":[223,109,179,167,92,22,93,182,218,82,3,237,40,124,96,0,0,0,0,0,0,0,0,0,0,0,0,0,0,0,0],"split_type":[0,0,0,0,0,0,0,0,0,0,0,0,0,0,0,0,0,0,0,0,0,0,0,0,0,0,0,0,0,0,0],"sum_hessian":[3.7649716E2,1.8064172E2,1.9585545E2,9.661139E1,8.4030334E1,9.185596E1,1.0399949E2,5.362023E1,4.299116E1,2.9269386E1,5.4760944E1,3.298984E1,5.886611E1,7.016898E1,3.3830505E1,3.0599161E1,2.3021069E1,3.893757E1,4.053592E0,1.6799973E1,1.2469414E1,3.4434555E1,2.0326391E1,4.8810854E0,2.8108755E1,4.111477E1,1.7751347E1,6.5683136E1,4.4858494E0,1.9637625E1,1.419288E1],"tree_param":{"num_deleted":"0","num_feature":"246","num_nodes":"31","size_leaf_vector":"1"}},{"base_weights":[3.5637433E-3,-2.656208E-1,3.0757317E-1,-2.1301773E-3,-6.036991E-1,5.232031E-1,-1.786304E-1,-3.6869898E-1,2.2782852E-1,2.0869859E-1,-7.023802E-1,1.3450263E-1,7.4606735E-1,-5.6674826E-1,1.1076306E-1,-3.197403E-2,-2.2189221E-3,-1.9201491E-2,1.6345803E-2,-2.4161635E-2,3.5495725E-2,-4.6201844E-2,-1.9971475E-2,2.2014251E-2,-6.608631E-3,5.0769478E-2,2.2014251E-2,1.9656189E-2,-3.7208747E-2,-1.0062443E-2,2.1885067E-2],"categories":[],"categories_nodes":[],"categories_segments":[],"categories_sizes":[],"default_left":[0,0,0,0,0,0,0,0,0,0,0,0,0,0,0,0,0,0,0,0,0,0,0,0,0,0,0,0,0,0,0],"id":4,"left_children":[1,3,5,7,9,11,13,15,17,19,21,23,25,27,29,-1,-1,-1,-1,-1,-1,-1,-1,-1,-1,-1,-1,-1,-1,-1,-1],"loss_changes":[3.0812902E1,1.7712545E1,1.8691769E1,9.731966E0,7.2234097E0,1.0498585E1,6.3603034E0,3.8358746E0,4.4490786E0,4.055875E0,4.848427E0,4.697739E0,6.6159477E0,4.479294E0,3.488448E0,0E0,0E0,0E0,0E0,0E0,0E0,0E0,0E0,0E0,0E0,0E0,0E0,0E0,0E0,0E0,0E0],"parents":[2147483647,0,0,1,1,2,2,3,3,4,4,5,5,6,6,7,7,8,8,9,9,10,10,11,11,12,12,13,13,14,14],"right_children":[2,4,6,8,10,12,14,16,18,20,22,24,26,28,30,-1,-1,-1,-1,-1,-1,-1,-1,-1,-1,-1,-1,-1,-1,-1,-1],"split_conditions":[-1.2475649E-1,-1.2275773E-1,-2.1516467E-2,-8.645928E-2,-9.56002E-1,-1.16781525E-1,-8.235463E-2,4.354757E-1,-3.3371717E-1,-8.395091E-1,4.899439E-1,-1.1707801E-1,0E0,-1.8228836E-1,6.18704E-2,-3.197403E-2,-2.2189221E-3,-1.9201491E-2,1.6345803E-2,-2.4161635E-2,3.5495725E-2,-4.6201844E-2,-1.9971475E-2,2.2014251E-2,-6.608631E-3,5.0769478E-2,2.2014251E-2,1.9656189E-2,-3.7208747E-2,-1.0062443E-2,2.1885067E-2],"split_indices":[93,180,180,241,0,209,228,36,198,44,36,2,0,87,93,0,0,0,0,0,0,0,0,0,0,0,0,0,0,0,0],"split_type":[0,0,0,0,0,0,0,0,0,0,0,0,0,0,0,0,0,0,0,0,0,0,0,0,0,0,0,0,0,0,0],"sum_hessian":[3.7308463E2,1.9776837E2,1.7531627E2,1.11876465E2,8.589191E1,1.2154221E2,5.3774048E1,4.306294E1,6.881353E1,9.072642E0,7.681927E1,4.5039852E1,7.6502365E1,2.2707373E1,3.1066675E1,2.2770943E1,2.0291996E1,9.04938E0,5.976415E1,3.7424855E0,5.3301563E0,4.298713E1,3.3832138E1,1.8512884E1,2.6526966E1,4.133659E1,3.5165775E1,3.264925E0,1.9442448E1,1.5936415E1,1.513026E1],"tree_param":{"num_deleted":"0","num_feature":"246","num_nodes":"31","size_leaf_vector":"1"}},{"base_weights":[-5.860398E-3,2.553571E-1,-3.1601694E-1,2.2507897E-2,5.4641646E-1,5.0367445E-1,-4.3091354E-1,-2.8666875E-1,2.4739917E-1,-9.930147E-2,6.971807E-1,-4.282406E-2,9.211004E-1,-5.504135E-1,1.0426533E-1,-2.641095E-2,1.3334333E-3,4.9930416E-2,8.602837E-3,5.1970244E-3,-4.2662863E-2,5.1099725E-2,2.3324288E-2,2.0497989E-2,-3.0244082E-2,7.966904E-3,6.303625E-2,1.0470912E-3,-3.222514E-2,-1.2353828E-2,3.2693885E-2],"categories":[],"categories_nodes":[],"categories_segments":[],"categories_sizes":[],"default_left":[0,0,0,0,0,0,0,0,0,0,0,0,0,0,0,0,0,0,0,0,0,0,0,0,0,0,0,0,0,0,0],"id":5,"left_children":[1,3,5,7,9,11,13,15,17,19,21,23,25,27,29,-1,-1,-1,-1,-1,-1,-1,-1,-1,-1,-1,-1,-1,-1,-1,-1],"loss_changes":[3.1256397E1,1.4121334E1,1.6896803E1,8.307469E0,9.175701E0,5.2323494E0,1.0052843E1,3.8690686E0,3.7716808E0,3.1306288E0,5.1655083E0,3.1004643E0,3.018505E0,6.9225693E0,5.95403E0,0E0,0E0,0E0,0E0,0E0,0E0,0E0,0E0,0E0,0E0,0E0,0E0,0E0,0E0,0E0,0E0],"parents":[2147483647,0,0,1,1,2,2,3,3,4,4,5,5,6,6,7,7,8,8,9,9,10,10,11,11,12,12,13,13,14,14],"right_children":[2,4,6,8,10,12,14,16,18,20,22,24,26,28,30,-1,-1,-1,-1,-1,-1,-1,-1,-1,-1,-1,-1,-1,-1,-1,-1],"split_conditions":[-1.2275773E-1,-1.272631E-1,-9.56002E-1,0E0,-6.258473E-1,8.0422714E-2,6.18704E-2,1.065442E0,-1.3384027E0,1.1626712E0,-3.8240078E-1,2.1464767E0,2.2013992E-1,0E0,1.852979E-1,-2.641095E-2,1.3334333E-3,4.9930416E-2,8.602837E-3,5.1970244E-3,-4.2662863E-2,5.1099725E-2,2.3324288E-2,2.0497989E-2,-3.0244082E-2,7.966904E-3,6.303625E-2,1.0470912E-3,-3.222514E-2,-1.2353828E-2,3.2693885E-2],"split_indices":[180,93,0,241,209,70,93,162,0,44,0,23,169,220,228,0,0,0,0,0,0,0,0,0,0,0,0,0,0,0,0],"split_type":[0,0,0,0,0,0,0,0,0,0,0,0,0,0,0,0,0,0,0,0,0,0,0,0,0,0,0,0,0,0,0],"sum_hessian":[3.8232733E2,2.0745801E2,1.7486931E2,1.16043465E2,9.141455E1,2.0975138E1,1.5389417E2,4.8561962E1,6.748151E1,1.7242708E1,7.417184E1,9.368129E0,1.1607009E1,1.2593301E2,2.7961164E1,2.7215233E1,2.1346727E1,4.913129E0,6.2568375E1,1.4156171E1,3.0865374E0,2.9198046E1,4.4973793E1,5.2397604E0,4.1283684E0,4.122972E0,7.4840364E0,1.7765697E1,1.0816731E2,1.7282051E1,1.0679113E1],"tree_param":{"num_deleted":"0","num_feature":"246","num_nodes":"31","size_leaf_vector":"1"}},{"base_weights":[-1.5631419E-2,2.8470024E-1,-2.717731E-1,3.8195103E-1,-3.164986E-1,-5.349015E-1,-1.931956E-2,1.4105608E-1,5.947996E-1,-4.7886E-1,2.3332918E-2,-4.6910295E-1,-6.114127E-2,-2.533733E-1,2.6648492E-1,-7.257083E-3,1.6621428E-2,1.1261402E-2,3.7762262E-2,-3.065513E-2,7.908488E-3,-2.9112777E-2,-1.3855526E-2,2.2061033E-2,-1.3855526E-2,2.2259472E-2,-1.3855526E-2],"categories":[],"categories_nodes":[],"categories_segments":[],"categories_sizes":[],"default_left":[0,0,0,0,0,0,0,0,0,0,0,0,0,0,0,0,0,0,0,0,0,0,0,0,0,0,0],"id":6,"left_children":[1,3,5,7,9,11,13,15,17,19,-1,21,-1,23,25,-1,-1,-1,-1,-1,-1,-1,-1,-1,-1,-1,-1],"loss_changes":[2.9229942E1,1.0389495E1,1.3573154E1,7.6278877E0,3.4842718E0,4.00988E0,7.229129E0,4.083781E0,4.5139923E0,1.997889E0,0E0,3.0656757E0,0E0,4.828667E0,5.525591E0,0E0,0E0,0E0,0E0,0E0,0E0,0E0,0E0,0E0,0E0,0E0,0E0],"parents":[2147483647,0,0,1,1,2,2,3,3,4,4,5,5,6,6,7,7,8,8,9,9,11,11,13,13,14,14],"right_children":[2,4,6,8,10,12,14,16,18,20,-1,22,-1,24,26,-1,-1,-1,-1,-1,-1,-1,-1,-1,-1,-1,-1],"split_conditions":[0E0,6.0169823E-2,-2.8723389E-2,-1.3239108E-1,1.2302654E0,1.912004E0,-1.2257394E-1,0E0,-3.1934884E-1,6.480364E-1,2.3332918E-2,2.724902E-1,-6.114127E-2,-1.127798E0,-4.2509165E-2,-7.257083E-3,1.6621428E-2,1.1261402E-2,3.7762262E-2,-3.065513E-2,7.908488E-3,-2.9112777E-2,-1.3855526E-2,2.2061033E-2,-1.3855526E-2,2.2259472E-2,-1.3855526E-2],"split_indices":[0,180,240,93,32,0,93,244,233,236,0,236,0,179,170,0,0,0,0,0,0,0,0,0,0,0,0],"split_type":[0,0,0,0,0,0,0,0,0,0,0,0,0,0,0,0,0,0,0,0,0,0,0,0,0,0,0],"sum_hessian":[3.7657254E2,1.7310329E2,2.0346925E2,1.494578E2,2.3645489E1,9.888649E1,1.0458276E2,7.111017E1,7.8347626E1,2.0012753E1,3.6327348E0,9.1921646E1,6.964842E0,5.7751617E1,4.6831146E1,2.838276E1,4.2727413E1,2.4633556E1,5.371407E1,1.6690142E1,3.3226109E0,6.9290825E1,2.2630821E1,8.283238E0,4.946838E1,3.6760975E1,1.007017E1],"tree_param":{"num_deleted":"0","num_feature":"246","num_nodes":"27","size_leaf_vector":"1"}},{"base_weights":[9.81841E-4,2.739378E-1,-2.3461191E-1,3.7877312E-1,-3.6138433E-1,-4.8458338E-1,-1.0799423E-2,1.2715581E-1,6.217285E-1,-5.306375E-1,2.3483928E-2,-7.001976E-1,-2.476914E-1,-2.476914E-1,2.7640155E-1,-7.531027E-3,2.329672E-2,1.1891182E-2,3.8875915E-2,-3.4717895E-2,5.320336E-3,-4.013538E-2,-1.238457E-2,-1.238457E-2,-3.5647698E-2,5.9071877E-3,-1.238457E-2,2.7731372E-2,7.3319714E-4],"categories":[],"categories_nodes":[],"categories_segments":[],"categories_sizes":[],"default_left":[0,0,0,0,0,0,0,0,0,0,0,0,0,0,0,0,0,0,0,0,0,0,0,0,0,0,0,0,0],"id":7,"left_children":[1,3,5,7,9,11,13,15,17,19,-1,21,23,25,27,-1,-1,-1,-1,-1,-1,-1,-1,-1,-1,-1,-1,-1,-1],"loss_changes":[2.4605146E1,1.200023E1,1.1426833E1,9.22971E0,3.9563007E0,6.2205772E0,9.114539E0,7.376924E0,4.398611E0,2.4472756E0,0E0,3.262083E0,1.0700281E0,2.8013248E0,4.0079036E0,0E0,0E0,0E0,0E0,0E0,0E0,0E0,0E0,0E0,0E0,0E0,0E0,0E0,0E0],"parents":[2147483647,0,0,1,1,2,2,3,3,4,4,5,5,6,6,7,7,8,8,9,9,11,11,12,12,13,13,14,14],"right_children":[2,4,6,8,10,12,14,16,18,20,-1,22,24,26,28,-1,-1,-1,-1,-1,-1,-1,-1,-1,-1,-1,-1,-1,-1],"split_conditions":[0E0,5.653063E-2,-8.549805E-2,-1.1919364E-1,1.6585348E0,2.4684407E-2,6.9791056E-2,4.844789E-3,-3.7966564E-1,7.4098307E-1,2.3483928E-2,5.882089E-1,9.11551E-1,-2.4347396E-1,-4.3177378E-1,-7.531027E-3,2.329672E-2,1.1891182E-2,3.8875915E-2,-3.4717895E-2,5.320336E-3,-4.013538E-2,-1.238457E-2,-1.238457E-2,-3.5647698E-2,5.9071877E-3,-1.238457E-2,2.7731372E-2,7.3319714E-4],"split_indices":[0,180,223,93,141,236,92,223,233,91,0,209,9,180,22,0,0,0,0,0,0,0,0,0,0,0,0,0,0],"split_type":[0,0,0,0,0,0,0,0,0,0,0,0,0,0,0,0,0,0,0,0,0,0,0,0,0,0,0,0,0],"sum_hessian":[3.7898257E2,1.7569095E2,2.0329161E2,1.5128793E2,2.4403015E1,9.527218E1,1.08019424E2,7.5269684E1,7.601826E1,2.0674332E1,3.7286844E0,5.5853313E1,3.9418865E1,5.389351E1,5.412592E1,4.150143E1,3.376825E1,2.285826E1,5.316E1,1.6500666E1,4.1736646E0,4.751377E1,8.339541E0,3.562222E1,3.796647E0,1.9842844E1,3.4050663E1,2.5508945E1,2.8616974E1],"tree_param":{"num_deleted":"0","num_feature":"246","num_nodes":"29","size_leaf_vector":"1"}},{"base_weights":[1.9581433E-2,-1.9979937E-1,2.5237098E-1,-4.1876912E-1,7.924988E-2,7.8111947E-1,1.5886669E-1,-5.442718E-1,2.6847115E-1,3.5964206E-1,-2.3450577E-1,-1.9074174E-3,9.0357995E-1,-1.8421806E-1,3.017268E-1,-4.125084E-2,-1.7931206E-2,-1.6898235E-2,2.7625447E-2,3.4078665E-2,-0E0,-1.8793449E-2,3.2074384E-2,5.2317675E-2,1.2642219E-2,-2.6472023E-2,2.937718E-3,6.280669E-3,2.9607827E-2],"categories":[],"categories_nodes":[],"categories_segments":[],"categories_sizes":[],"default_left":[0,0,0,0,0,0,0,0,0,0,0,0,0,0,0,0,0,0,0,0,0,0,0,0,0,0,0,0,0],"id":8,"left_children":[1,3,5,7,9,11,13,15,17,19,21,-1,23,25,27,-1,-1,-1,-1,-1,-1,-1,-1,-1,-1,-1,-1,-1,-1],"loss_changes":[1.9359564E1,1.1984819E1,8.978494E0,9.662279E0,7.7627444E0,2.8738136E0,7.8334317E0,4.5453854E0,3.328617E0,5.3792295E0,5.4491324E0,0E0,1.8901024E0,5.0847893E0,5.640641E0,0E0,0E0,0E0,0E0,0E0,0E0,0E0,0E0,0E0,0E0,0E0,0E0,0E0,0E0],"parents":[2147483647,0,0,1,1,2,2,3,3,4,4,5,5,6,6,7,7,8,8,9,9,10,10,12,12,13,13,14,14],"right_children":[2,4,6,8,10,12,14,16,18,20,22,-1,24,26,28,-1,-1,-1,-1,-1,-1,-1,-1,-1,-1,-1,-1,-1,-1],"split_conditions":[1.4280382E-2,-6.6690575E-3,-1.2593521E0,4.8261914E-1,-1.2275773E-1,-9.66871E-1,-2.1735881E-1,-5.636726E-1,-2.658213E-1,-4.3177378E-1,9.936224E-1,-1.9074174E-3,1.0695512E0,-2.1974342E-1,3.9228075E-3,-4.125084E-2,-1.7931206E-2,-1.6898235E-2,2.7625447E-2,3.4078665E-2,-0E0,-1.8793449E-2,3.2074384E-2,5.2317675E-2,1.2642219E-2,-2.6472023E-2,2.937718E-3,6.280669E-3,2.9607827E-2],"split_indices":[225,151,22,231,180,218,240,237,87,22,218,0,114,218,93,0,0,0,0,0,0,0,0,0,0,0,0,0,0],"split_type":[0,0,0,0,0,0,0,0,0,0,0,0,0,0,0,0,0,0,0,0,0,0,0,0,0,0,0,0,0],"sum_hessian":[3.7529782E2,1.9306529E2,1.8223254E2,1.080983E2,8.4966995E1,2.6117857E1,1.5611469E2,9.170485E1,1.6393448E1,4.496017E1,4.0006824E1,3.3796558E0,2.2738201E1,4.560435E1,1.1051033E2,3.491784E1,5.6787014E1,5.0562215E0,1.1337228E1,2.3237722E1,2.1722446E1,3.50377E1,4.9691215E0,1.80224E1,4.7158012E0,2.1459873E1,2.4144478E1,6.990035E1,4.060998E1],"tree_param":{"num_deleted":"0","num_feature":"246","num_nodes":"29","size_leaf_vector":"1"}},{"base_weights":[1.2046071E-2,2.0423716E-1,-2.4980636E-1,-3.4352562E-1,3.1960228E-1,-4.4349375E-1,5.062995E-2,-4.7619048E-1,4.128245E-2,1.1848163E-1,5.608921E-1,-5.271244E-1,2.5836265E-1,-5.6878036E-1,1.6367549E-1,-2.3478733E-3,-3.896494E-2,9.182593E-3,-1.9513063E-2,1.579593E-2,4.125832E-2,3.1978549E-3,-3.2064993E-2,3.7896864E-2,-2.08557E-2,-4.6531636E-2,-0E0,1.4652801E-2,-1.9357117E-2],"categories":[],"categories_nodes":[],"categories_segments":[],"categories_sizes":[],"default_left":[0,0,0,0,0,0,0,0,0,0,0,0,0,0,0,0,0,0,0,0,0,0,0,0,0,0,0,0,0],"id":9,"left_children":[1,3,5,7,9,11,13,15,-1,17,19,21,23,25,27,-1,-1,-1,-1,-1,-1,-1,-1,-1,-1,-1,-1,-1,-1],"loss_changes":[1.8939068E1,1.3865173E1,9.327498E0,6.4368644E0,8.638943E0,5.9021244E0,4.585014E0,4.4780617E0,0E0,3.433928E0,4.9863987E0,5.990885E0,4.188082E0,2.0046978E0,4.0560265E0,0E0,0E0,0E0,0E0,0E0,0E0,0E0,0E0,0E0,0E0,0E0,0E0,0E0,0E0],"parents":[2147483647,0,0,1,1,2,2,3,3,4,4,5,5,6,6,7,7,9,9,10,10,11,11,12,12,13,13,14,14],"right_children":[2,4,6,8,10,12,14,16,-1,18,20,22,24,26,28,-1,-1,-1,-1,-1,-1,-1,-1,-1,-1,-1,-1,-1,-1],"split_conditions":[-1.02592446E-1,-1.7747182E-1,-4.3177378E-1,1.3857114E0,-1.272631E-1,2.4355167E-1,-8.382498E-1,-1.2386054E-2,4.128245E-2,1.0567483E0,0E0,-1.0348548E0,2.6136149E-2,9.729807E-2,1.9417328E-1,-2.3478733E-3,-3.896494E-2,9.182593E-3,-1.9513063E-2,1.579593E-2,4.125832E-2,3.1978549E-3,-3.2064993E-2,3.7896864E-2,-2.08557E-2,-4.6531636E-2,-0E0,1.4652801E-2,-1.9357117E-2],"split_indices":[180,215,109,32,93,93,80,181,0,225,9,17,239,9,180,0,0,0,0,0,0,0,0,0,0,0,0,0,0],"split_type":[0,0,0,0,0,0,0,0,0,0,0,0,0,0,0,0,0,0,0,0,0,0,0,0,0,0,0,0,0],"sum_hessian":[3.7265012E2,2.15259E2,1.5739111E2,3.6953983E1,1.7830501E2,9.560956E1,6.1781563E1,3.3797287E1,3.1566958E0,9.828645E1,8.0018555E1,8.577979E1,9.829767E0,8.776495E0,5.3005066E1,1.4602895E1,1.9194393E1,8.786631E1,1.0420146E1,4.286134E1,3.715722E1,1.3816479E1,7.196331E1,5.665555E0,4.1642118E0,4.882999E0,3.8934958E0,4.344894E1,9.556126E0],"tree_param":{"num_deleted":"0","num_feature":"246","num_nodes":"29","size_leaf_vector":"1"}},{"base_weights":[-1.0766837E-2,2.512499E-1,-2.3190112E-1,5.5394995E-1,4.7149286E-2,-8.884543E-2,-5.601922E-1,7.510024E-1,2.8535065E-1,-4.1035017E-1,2.3522872E-1,-2.3342723E-1,2.047613E-1,-7.3179084E-1,-1.8988544E-1,2.7712245E-2,5.8130246E-2,2.2724537E-2,-1.4391387E-2,-4.3780366E-3,-3.859997E-2,6.1262557E-3,3.6632627E-2,-5.334862E-2,-8.817934E-3,2.4198402E-2,-7.1664824E-4,-4.239766E-2,-5.21695E-3,7.611481E-4,-3.832967E-2],"categories":[],"categories_nodes":[],"categories_segments":[],"categories_sizes":[],"default_left":[0,0,0,0,0,0,0,0,0,0,0,0,0,0,0,0,0,0,0,0,0,0,0,0,0,0,0,0,0,0,0],"id":10,"left_children":[1,3,5,7,9,11,13,15,17,19,21,23,25,27,29,-1,-1,-1,-1,-1,-1,-1,-1,-1,-1,-1,-1,-1,-1,-1,-1],"loss_changes":[2.1714153E1,1.0524131E1,9.48144E0,3.3997574E0,9.077859E0,6.16875E0,3.7221298E0,2.5062008E0,3.222936E0,3.5156336E0,4.09266E0,4.463849E0,3.8336847E0,2.8633213E0,2.6744266E0,0E0,0E0,0E0,0E0,0E0,0E0,0E0,0E0,0E0,0E0,0E0,0E0,0E0,0E0,0E0,0E0],"parents":[2147483647,0,0,1,1,2,2,3,3,4,4,5,5,6,6,7,7,8,8,9,9,10,10,11,11,12,12,13,13,14,14],"right_children":[2,4,6,8,10,12,14,16,18,20,22,24,26,28,30,-1,-1,-1,-1,-1,-1,-1,-1,-1,-1,-1,-1,-1,-1,-1,-1],"split_conditions":[0E0,-1.9947965E-1,-1.6807517E-2,-7.531814E-2,-1.024495E-1,3.8323537E-1,3.3689633E-1,3.9369386E-1,3.7880734E-1,-1.2651084E-1,9.02162E-1,-1.2303334E0,-3.901121E-2,9.0402335E-2,8.5765815E-1,2.7712245E-2,5.8130246E-2,2.2724537E-2,-1.4391387E-2,-4.3780366E-3,-3.859997E-2,6.1262557E-3,3.6632627E-2,-5.334862E-2,-8.817934E-3,2.4198402E-2,-7.1664824E-4,-4.239766E-2,-5.21695E-3,7.611481E-4,-3.832967E-2],"split_indices":[0,180,180,178,98,240,8,70,72,2,91,232,25,93,159,0,0,0,0,0,0,0,0,0,0,0,0,0,0,0,0],"split_type":[0,0,0,0,0,0,0,0,0,0,0,0,0,0,0,0,0,0,0,0,0,0,0,0,0,0,0,0,0,0,0],"sum_hessian":[3.7116113E2,1.6960812E2,2.0155302E2,6.741758E1,1.02190544E2,1.41478E2,6.007502E1,3.7637386E1,2.9780193E1,2.9272438E1,7.2918106E1,9.51624E1,4.6315598E1,4.0200203E1,1.987482E1,2.72166E1,1.0420784E1,2.3289263E1,6.4909306E0,1.6172623E1,1.3099814E1,6.0628567E1,1.2289537E1,4.8515725E0,9.031083E1,2.3362513E1,2.2953087E1,3.3489395E1,6.7108083E0,1.5250962E1,4.6238585E0],"tree_param":{"num_deleted":"0","num_feature":"246","num_nodes":"31","size_leaf_vector":"1"}},{"base_weights":[-1.0664006E-2,-2.1791728E-1,2.1502042E-1,-2.9833713E-1,4.7767842E-1,-3.5963327E-1,2.940094E-1,4.249714E-1,-3.8727877E-1,2.309778E-2,8.4210736E-1,-5.7729334E-1,4.4187192E-2,-4.7455914E-2,4.344183E-1,3.7102517E-2,-1.2068767E-2,-2.9600142E-2,-8.423309E-3,1.9413147E-2,-2.6410628E-2,5.9810966E-2,2.8377594E-3,-4.1059356E-2,-2.2942673E-3,1.9801378E-2,-2.0591846E-2,-1.9728886E-2,9.405463E-3,2.970611E-2,6.387742E-3],"categories":[],"categories_nodes":[],"categories_segments":[],"categories_sizes":[],"default_left":[0,0,0,0,0,0,0,0,0,0,0,0,0,0,0,0,0,0,0,0,0,0,0,0,0,0,0,0,0,0,0],"id":11,"left_children":[1,3,5,7,9,11,13,15,17,19,21,23,25,27,29,-1,-1,-1,-1,-1,-1,-1,-1,-1,-1,-1,-1,-1,-1,-1,-1],"loss_changes":[1.7465744E1,1.1083659E1,8.252078E0,1.1493592E1,3.3429594E0,2.0445504E0,7.6200275E0,4.4542255E0,6.891281E0,2.4243958E0,2.9885378E0,1.7968779E0,1.6607244E0,3.9972904E0,5.3700256E0,0E0,0E0,0E0,0E0,0E0,0E0,0E0,0E0,0E0,0E0,0E0,0E0,0E0,0E0,0E0,0E0],"parents":[2147483647,0,0,1,1,2,2,3,3,4,4,5,5,6,6,7,7,8,8,9,9,10,10,11,11,12,12,13,13,14,14],"right_children":[2,4,6,8,10,12,14,16,18,20,22,24,26,28,30,-1,-1,-1,-1,-1,-1,-1,-1,-1,-1,-1,-1,-1,-1,-1,-1],"split_conditions":[2.8560763E-2,1.0127306E0,-9.229224E-1,-2.9027772E-1,1.5309438E-1,3.2266006E-1,-1.3659877E-1,-4.7319084E-1,-1.7086442E-1,-3.2844877E-1,-1.5591437E-1,3.3025968E-1,6.214165E-1,9.554062E-3,-4.3177378E-1,3.7102517E-2,-1.2068767E-2,-2.9600142E-2,-8.423309E-3,1.9413147E-2,-2.6410628E-2,5.9810966E-2,2.8377594E-3,-4.1059356E-2,-2.2942673E-3,1.9801378E-2,-2.0591846E-2,-1.9728886E-2,9.405463E-3,2.970611E-2,6.387742E-3],"split_indices":[225,218,218,180,35,114,91,184,231,225,22,71,114,218,22,0,0,0,0,0,0,0,0,0,0,0,0,0,0,0,0],"split_type":[0,0,0,0,0,0,0,0,0,0,0,0,0,0,0,0,0,0,0,0,0,0,0,0,0,0,0,0,0,0,0],"sum_hessian":[3.6959482E2,1.9291357E2,1.7668124E2,1.735624E2,1.9351185E1,2.076857E1,1.5591267E2,1.8468319E1,1.5509407E2,9.205826E0,1.014536E1,1.3376606E1,7.391964E0,4.541534E1,1.1049733E2,1.2538418E1,5.929902E0,7.900933E1,7.608474E1,5.8248305E0,3.380995E0,6.544141E0,3.6012194E0,8.66586E0,4.7107463E0,4.3706717E0,3.0212922E0,1.8258963E1,2.7156378E1,7.182757E1,3.8669758E1],"tree_param":{"num_deleted":"0","num_feature":"246","num_nodes":"31","size_leaf_vector":"1"}},{"base_weights":[-4.8658834E-4,2.1880403E-1,-2.5508055E-1,1.5859243E-2,4.260377E-1,-6.831004E-1,-1.2908916E-1,2.2094847E-1,-2.0969766E-1,2.506541E-1,6.935216E-1,-9.4109577E-1,-2.9285863E-1,2.167456E-1,-3.0619848E-1,1.1047424E-2,-2.324157E-2,-2.3376424E-2,5.371114E-3,2.9322332E-2,1.1047424E-2,4.403041E-2,1.1047424E-2,-5.3231753E-2,-1.2292704E-2,5.8123725E-3,-4.127745E-2,-2.4852937E-2,1.9271946E-2,-1.1464806E-2,-5.1468767E-2],"categories":[],"categories_nodes":[],"categories_segments":[],"categories_sizes":[],"default_left":[0,0,0,0,0,0,0,0,0,0,0,0,0,0,0,0,0,0,0,0,0,0,0,0,0,0,0,0,0,0,0],"id":12,"left_children":[1,3,5,7,9,11,13,15,17,19,21,23,25,27,29,-1,-1,-1,-1,-1,-1,-1,-1,-1,-1,-1,-1,-1,-1,-1,-1],"loss_changes":[2.1157372E1,8.507693E0,9.366245E0,5.4322095E0,4.520939E0,3.670908E0,8.510485E0,2.8582215E0,4.440116E0,2.2298942E0,3.6710968E0,1.6626091E0,4.0579033E0,5.9248652E0,4.880006E0,0E0,0E0,0E0,0E0,0E0,0E0,0E0,0E0,0E0,0E0,0E0,0E0,0E0,0E0,0E0,0E0],"parents":[2147483647,0,0,1,1,2,2,3,3,4,4,5,5,6,6,7,7,8,8,9,9,10,10,11,11,12,12,13,13,14,14],"right_children":[2,4,6,8,10,12,14,16,18,20,22,24,26,28,30,-1,-1,-1,-1,-1,-1,-1,-1,-1,-1,-1,-1,-1,-1,-1,-1],"split_conditions":[1.9120039E-1,5.3770896E-3,-2.7176768E-1,6.9496E-2,4.7325817E-1,6.729568E-1,-1.9403987E-1,7.942764E-1,-2.9384407E-1,-2.660724E-1,5.15925E-1,6.9590306E-1,-8.829504E-2,-4.5280874E-1,4.4113774E0,1.1047424E-2,-2.324157E-2,-2.3376424E-2,5.371114E-3,2.9322332E-2,1.1047424E-2,4.403041E-2,1.1047424E-2,-5.3231753E-2,-1.2292704E-2,5.8123725E-3,-4.127745E-2,-2.4852937E-2,1.9271946E-2,-1.1464806E-2,-5.1468767E-2],"split_indices":[0,240,93,179,215,206,179,17,109,180,179,65,180,215,194,0,0,0,0,0,0,0,0,0,0,0,0,0,0,0,0],"split_type":[0,0,0,0,0,0,0,0,0,0,0,0,0,0,0,0,0,0,0,0,0,0,0,0,0,0,0,0,0,0,0],"sum_hessian":[3.7519962E2,2.0144008E2,1.7375954E2,1.0256087E2,9.88792E1,3.832972E1,1.3542981E2,5.1204456E1,5.1356415E1,6.1117E1,3.7762207E1,2.2070633E1,1.6259087E1,4.5599987E1,8.982983E1,4.6314774E1,4.8896847E0,2.8238478E1,2.3117935E1,1.5965246E1,4.5151752E1,2.735587E1,1.0406336E1,1.816729E1,3.903342E0,9.532316E0,6.726771E0,8.2312355E0,3.736875E1,8.251099E1,7.3188396E0],"tree_param":{"num_deleted":"0","num_feature":"246","num_nodes":"31","size_leaf_vector":"1"}},{"base_weights":[-1.2770374E-2,1.9216575E-1,-2.5458318E-1,5.1608527E-1,7.297844E-2,-6.4349914E-1,-1.386566E-1,-3.7327114E-2,6.299826E-1,-3.455469E-1,2.3363943E-1,-7.408682E-1,1.435441E-2,-5.734203E-3,-5.5192703E-1,1.5190375E-2,-2.7184585E-2,4.2996418E-2,1.7140381E-2,-2.7976867E-3,-2.5373278E-2,2.9694963E-2,4.1623362E-3,-4.5589384E-2,-1.4313516E-2,3.1033624E-2,-4.9308627E-3,-3.8135074E-2,-3.845496E-3],"categories":[],"categories_nodes":[],"categories_segments":[],"categories_sizes":[],"default_left":[0,0,0,0,0,0,0,0,0,0,0,0,0,0,0,0,0,0,0,0,0,0,0,0,0,0,0,0,0],"id":13,"left_children":[1,3,5,7,9,11,13,15,17,19,21,23,-1,25,27,-1,-1,-1,-1,-1,-1,-1,-1,-1,-1,-1,-1,-1,-1],"loss_changes":[1.8791E1,7.8601336E0,7.750658E0,3.547779E0,1.0293617E1,3.8975925E0,7.438881E0,2.0949924E0,2.6972637E0,2.9841537E0,5.907305E0,2.5055027E0,0E0,6.1627398E0,3.1840515E0,0E0,0E0,0E0,0E0,0E0,0E0,0E0,0E0,0E0,0E0,0E0,0E0,0E0,0E0],"parents":[2147483647,0,0,1,1,2,2,3,3,4,4,5,5,6,6,7,7,8,8,9,9,10,10,11,11,13,13,14,14],"right_children":[2,4,6,8,10,12,14,16,18,20,22,24,-1,26,28,-1,-1,-1,-1,-1,-1,-1,-1,-1,-1,-1,-1,-1,-1],"split_conditions":[1.9120039E-1,-4.4252756E-1,-2.7176768E-1,-5.90441E-1,-1.6538192E-1,1.1197361E0,1.0347265E0,-3.8240078E-1,-2.3118438E-1,0E0,-9.56002E-1,1.4123516E0,1.435441E-2,-4.7892264E-1,1.2169619E-2,1.5190375E-2,-2.7184585E-2,4.2996418E-2,1.7140381E-2,-2.7976867E-3,-2.5373278E-2,2.9694963E-2,4.1623362E-3,-4.5589384E-2,-1.4313516E-2,3.1033624E-2,-4.9308627E-3,-3.8135074E-2,-3.845496E-3],"split_indices":[0,179,93,218,98,218,190,0,178,220,0,41,0,25,93,0,0,0,0,0,0,0,0,0,0,0,0,0,0],"split_type":[0,0,0,0,0,0,0,0,0,0,0,0,0,0,0,0,0,0,0,0,0,0,0,0,0,0,0,0,0],"sum_hessian":[3.753212E2,2.0303825E2,1.7228296E2,5.349203E1,1.4954622E2,3.831809E1,1.3396486E2,9.094982E0,4.439705E1,4.0990883E1,1.08555336E2,3.49704E1,3.3476892E0,1.0231317E2,3.1651688E1,5.5550895E0,3.5398927E0,2.3354252E1,2.1042797E1,1.0222314E1,3.076857E1,3.090639E1,7.764895E1,2.452415E1,1.044625E1,1.2339077E1,8.99741E1,2.13584E1,1.0293288E1],"tree_param":{"num_deleted":"0","num_feature":"246","num_nodes":"29","size_leaf_vector":"1"}},{"base_weights":[-1.5263855E-2,1.790987E-1,-2.4124175E-1,-3.4404486E-2,3.9755505E-1,-5.453195E-1,-1.0346559E-1,1.8157528E-1,-2.7587873E-1,3.1768227E-1,9.092769E-1,-4.2202297E-1,-1.1092869E0,-2.774711E-1,1.8066405E-1,9.078764E-3,-2.7433857E-2,-2.8463945E-2,-3.3289585E-3,9.078764E-3,2.9703727E-2,9.078764E-3,5.62911E-2,-1.6219629E-2,-4.6296086E-2,-2.6650865E-2,-6.541911E-2,-1.6219629E-2,1.8676858E-2,2.6525712E-2,-9.630642E-3],"categories":[],"categories_nodes":[],"categories_segments":[],"categories_sizes":[],"default_left":[0,0,0,0,0,0,0,0,0,0,0,0,0,0,0,0,0,0,0,0,0,0,0,0,0,0,0,0,0,0,0],"id":14,"left_children":[1,3,5,7,9,11,13,15,17,19,21,23,25,27,29,-1,-1,-1,-1,-1,-1,-1,-1,-1,-1,-1,-1,-1,-1,-1,-1],"loss_changes":[1.6606236E1,9.522169E0,7.2547398E0,6.135242E0,3.8478842E0,3.3190956E0,6.1270742E0,5.074483E0,3.174244E0,4.37504E0,1.9563589E0,3.1159601E0,2.8576756E-1,3.7203226E0,6.310789E0,0E0,0E0,0E0,0E0,0E0,0E0,0E0,0E0,0E0,0E0,0E0,0E0,0E0,0E0,0E0,0E0],"parents":[2147483647,0,0,1,1,2,2,3,3,4,4,5,5,6,6,7,7,8,8,9,9,10,10,11,11,12,12,13,13,14,14],"right_children":[2,4,6,8,10,12,14,16,18,20,22,24,26,28,30,-1,-1,-1,-1,-1,-1,-1,-1,-1,-1,-1,-1,-1,-1,-1,-1],"split_conditions":[1.9120039E-1,1.226472E-2,-3.6601835E-1,6.447994E-2,9.790514E-1,1.6595811E0,2.844147E-1,1.4117625E0,-5.697035E-1,4.3820202E-1,2.8560763E-2,9.530849E-1,7.9773057E-1,8.0631274E-1,2.389076E-1,9.078764E-3,-2.7433857E-2,-2.8463945E-2,-3.3289585E-3,9.078764E-3,2.9703727E-2,9.078764E-3,5.62911E-2,-1.6219629E-2,-4.6296086E-2,-2.6650865E-2,-6.541911E-2,-1.6219629E-2,1.8676858E-2,2.6525712E-2,-9.630642E-3],"split_indices":[0,240,240,179,81,35,92,221,109,215,225,181,122,91,96,0,0,0,0,0,0,0,0,0,0,0,0,0,0,0,0],"split_type":[0,0,0,0,0,0,0,0,0,0,0,0,0,0,0,0,0,0,0,0,0,0,0,0,0,0,0,0,0,0,0],"sum_hessian":[3.7411804E2,2.0100204E2,1.73116E2,1.0184803E2,9.915402E1,5.2831295E1,1.20284706E2,5.0677155E1,5.1170876E1,8.733798E1,1.1816037E1,4.493342E1,7.8978777E0,7.483186E1,4.545284E1,4.2373398E1,8.303757E0,2.0390032E1,3.0780844E1,5.313961E1,3.4198368E1,3.0215898E0,8.794447E0,3.609962E1,8.833799E0,3.1011755E0,4.7967024E0,6.794131E1,6.8905563E0,2.338352E1,2.206932E1],"tree_param":{"num_deleted":"0","num_feature":"246","num_nodes":"31","size_leaf_vector":"1"}},{"base_weights":[1.0407227E-2,1.9985285E-1,-2.0643191E-1,3.0462053E-1,-1.1323796E-1,-5.8881414E-1,-9.2080005E-2,5.975175E-1,1.1486568E-1,-3.532116E-1,2.5850233E-1,-8.4670377E-1,1.330119E-1,1.810461E-1,-3.0162847E-1,4.139849E-2,1.471744E-2,-5.710054E-3,1.712916E-2,-4.3103132E-2,-5.256872E-3,-5.5156783E-3,3.2658998E-2,-4.6764392E-2,-4.017466E-3,-1.6707381E-2,2.2829253E-2,3.41621E-2,1.2949613E-3,-2.5469838E-2,-2.129204E-4],"categories":[],"categories_nodes":[],"categories_segments":[],"categories_sizes":[],"default_left":[0,0,0,0,0,0,0,0,0,0,0,0,0,0,0,0,0,0,0,0,0,0,0,0,0,0,0,0,0,0,0],"id":15,"left_children":[1,3,5,7,9,11,13,15,17,19,21,23,25,27,29,-1,-1,-1,-1,-1,-1,-1,-1,-1,-1,-1,-1,-1,-1,-1,-1],"loss_changes":[1.5263869E1,6.575929E0,7.4998407E0,8.195094E0,4.661804E0,7.567218E0,7.8084774E0,3.7968845E0,4.906459E0,3.8458319E0,3.1433997E0,1.83601E0,1.9730134E0,4.5789127E0,4.7062407E0,0E0,0E0,0E0,0E0,0E0,0E0,0E0,0E0,0E0,0E0,0E0,0E0,0E0,0E0,0E0,0E0],"parents":[2147483647,0,0,1,1,2,2,3,3,4,4,5,5,6,6,7,7,8,8,9,9,10,10,11,11,12,12,13,13,14,14],"right_children":[2,4,6,8,10,12,14,16,18,20,22,24,26,28,30,-1,-1,-1,-1,-1,-1,-1,-1,-1,-1,-1,-1,-1,-1,-1,-1],"split_conditions":[1.9120039E-1,3.073425E-1,-2.7176768E-1,-2.094739E-1,1.2908937E-1,3.229273E-1,1.9540675E-1,-2.0255832E-1,3.8292415E-2,-3.2761276E-1,-1.0584754E-2,7.696197E-1,-3.4421197E-1,-3.3870554E-1,2.2120307E-1,4.139849E-2,1.471744E-2,-5.710054E-3,1.712916E-2,-4.3103132E-2,-5.256872E-3,-5.5156783E-3,3.2658998E-2,-4.6764392E-2,-4.017466E-3,-1.6707381E-2,2.2829253E-2,3.41621E-2,1.2949613E-3,-2.5469838E-2,-2.129204E-4],"split_indices":[0,64,93,179,236,218,184,25,223,118,77,240,93,40,9,0,0,0,0,0,0,0,0,0,0,0,0,0,0,0,0],"split_type":[0,0,0,0,0,0,0,0,0,0,0,0,0,0,0,0,0,0,0,0,0,0,0,0,0,0,0,0,0,0,0],"sum_hessian":[3.676558E2,1.9651033E2,1.7114548E2,1.474998E2,4.901052E1,3.8242485E1,1.3290298E2,5.6937614E1,9.0562195E1,2.9977596E1,1.9032923E1,2.815056E1,1.0091927E1,5.7550407E1,7.535258E1,3.117737E1,2.5760242E1,4.5176937E1,4.5385258E1,8.881563E0,2.1096033E1,1.0080287E1,8.952637E0,2.4919188E1,3.231373E0,3.9898465E0,6.1020803E0,1.2627614E1,4.4922794E1,4.3741634E1,3.1610945E1],"tree_param":{"num_deleted":"0","num_feature":"246","num_nodes":"31","size_leaf_vector":"1"}},{"base_weights":[1.086654E-2,1.7752331E-1,-1.9302617E-1,-1.7985484E-1,2.781811E-1,-8.058502E-1,-1.124422E-1,-6.041354E-1,-2.7117403E-2,-4.2667713E-2,3.0651382E-1,-9.921304E-1,-0E0,-2.930974E-1,1.9088675E-1,-4.476393E-2,7.334688E-3,1.3090684E-2,-1.5540294E-2,1.8192094E-2,-1.3169284E-2,-5.570994E-2,-1.8968122E-2,-6.058759E-3,-2.612847E-2,1.8868316E-2,-2.5552665E-3],"categories":[],"categories_nodes":[],"categories_segments":[],"categories_sizes":[],"default_left":[0,0,0,0,0,0,0,0,0,0,0,0,0,0,0,0,0,0,0,0,0,0,0,0,0,0,0],"id":16,"left_children":[1,3,5,7,9,11,13,15,17,-1,19,21,-1,23,25,-1,-1,-1,-1,-1,-1,-1,-1,-1,-1,-1,-1],"loss_changes":[1.2764419E1,7.5189033E0,8.247834E0,2.9667048E0,5.5505066E0,2.9721136E0,8.337208E0,2.8849688E0,3.0445302E0,0E0,5.3341293E0,6.9831467E-1,0E0,3.6646023E0,3.8711085E0,0E0,0E0,0E0,0E0,0E0,0E0,0E0,0E0,0E0,0E0,0E0,0E0],"parents":[2147483647,0,0,1,1,2,2,3,3,4,4,5,5,6,6,7,7,8,8,10,10,11,11,13,13,14,14],"right_children":[2,4,6,8,10,12,14,16,18,-1,20,22,-1,24,26,-1,-1,-1,-1,-1,-1,-1,-1,-1,-1,-1,-1],"split_conditions":[-1.207758E-1,-5.5031395E-1,-1.1417414E0,-7.110795E-1,-1.7528081E0,5.064505E-1,4.8451368E-2,-2.8723389E-2,4.7865528E-1,-4.2667713E-2,6.901363E-1,4.7203827E-1,-0E0,6.0169823E-2,1.292852E-1,-4.476393E-2,7.334688E-3,1.3090684E-2,-1.5540294E-2,1.8192094E-2,-1.3169284E-2,-5.570994E-2,-1.8968122E-2,-6.058759E-3,-2.612847E-2,1.8868316E-2,-2.5552665E-3],"split_indices":[180,218,113,92,215,97,240,240,119,0,25,27,0,180,7,0,0,0,0,0,0,0,0,0,0,0,0],"split_type":[0,0,0,0,0,0,0,0,0,0,0,0,0,0,0,0,0,0,0,0,0,0,0,0,0,0,0],"sum_hessian":[3.7156412E2,2.0479204E2,1.6677208E2,4.461378E1,1.6017825E2,1.8191153E1,1.4858093E2,1.0853728E1,3.3760056E1,3.1152353E0,1.5706302E2,1.4642723E1,3.5484295E0,9.334836E1,5.5232567E1,7.77837E0,3.0753589E0,1.6589048E1,1.7171005E1,1.4319556E2,1.386747E1,1.13918705E1,3.250852E0,5.4488777E1,3.8859585E1,3.7833775E1,1.7398794E1],"tree_param":{"num_deleted":"0","num_feature":"246","num_nodes":"27","size_leaf_vector":"1"}},{"base_weights":[-2.1720361E-2,1.6143139E-1,-1.8325175E-1,-5.408597E-2,3.4522685E-1,-2.549977E-1,2.5900975E-1,-1.9457781E-1,3.721257E-1,6.806335E-2,5.201278E-1,-5.840666E-1,-1.566778E-1,7.1750456E-1,-9.755228E-2,1.6633647E-3,-3.0577177E-2,-9.479207E-3,2.9032886E-2,9.202379E-3,-3.5995066E-2,1.4704779E-2,3.8265128E-2,-3.441842E-2,8.072769E-4,3.7800912E-3,-1.7644463E-2,6.867904E-3,5.417001E-2,1.9431276E-2,-2.0130364E-2],"categories":[],"categories_nodes":[],"categories_segments":[],"categories_sizes":[],"default_left":[0,0,0,0,0,0,0,0,0,0,0,0,0,0,0,0,0,0,0,0,0,0,0,0,0,0,0,0,0,0,0],"id":17,"left_children":[1,3,5,7,9,11,13,15,17,19,21,23,25,27,29,-1,-1,-1,-1,-1,-1,-1,-1,-1,-1,-1,-1,-1,-1,-1,-1],"loss_changes":[1.0940762E1,6.90936E0,6.3361025E0,4.9350896E0,4.473795E0,5.3973665E0,4.7543383E0,5.9486327E0,2.5654476E0,3.6679523E0,3.3536215E0,2.497819E0,6.1099434E0,2.4436798E0,2.7111268E0,0E0,0E0,0E0,0E0,0E0,0E0,0E0,0E0,0E0,0E0,0E0,0E0,0E0,0E0,0E0,0E0],"parents":[2147483647,0,0,1,1,2,2,3,3,4,4,5,5,6,6,7,7,8,8,9,9,10,10,11,11,12,12,13,13,14,14],"right_children":[2,4,6,8,10,12,14,16,18,20,22,24,26,28,30,-1,-1,-1,-1,-1,-1,-1,-1,-1,-1,-1,-1,-1,-1,-1,-1],"split_conditions":[0E0,1.4280382E-2,9.229224E-1,7.894977E-1,-1.16781525E-1,-2.7176768E-1,-4.3177378E-1,5.357155E-1,-2.1749406E-1,9.0140826E-1,9.48117E-2,8.190465E-1,2.3567271E-1,-2.44245E-2,7.973021E-1,1.6633647E-3,-3.0577177E-2,-9.479207E-3,2.9032886E-2,9.202379E-3,-3.5995066E-2,1.4704779E-2,3.8265128E-2,-3.441842E-2,8.072769E-4,3.7800912E-3,-1.7644463E-2,6.867904E-3,5.417001E-2,1.9431276E-2,-2.0130364E-2],"split_indices":[0,225,218,202,209,93,22,123,33,178,126,223,184,214,217,0,0,0,0,0,0,0,0,0,0,0,0,0,0,0,0],"split_type":[0,0,0,0,0,0,0,0,0,0,0,0,0,0,0,0,0,0,0,0,0,0,0,0,0,0,0,0,0,0,0],"sum_hessian":[3.655538E2,1.7102234E2,1.9453146E2,7.879246E1,9.222987E1,1.6793733E2,2.659413E1,5.9844166E1,1.8948292E1,3.644183E1,5.5788048E1,3.726311E1,1.3067422E2,1.1313952E1,1.5280177E1,3.913809E1,2.0706076E1,5.0247517E0,1.3923541E1,3.254475E1,3.897079E0,2.844845E1,2.7339598E1,3.1763199E1,5.499911E0,5.9885468E1,7.078876E1,5.013497E0,6.300456E0,5.659174E0,9.621003E0],"tree_param":{"num_deleted":"0","num_feature":"246","num_nodes":"31","size_leaf_vector":"1"}},{"base_weights":[-1.1254023E-2,3.1083265E-1,-9.8836854E-2,1.23196706E-1,6.22441E-1,-1.668148E-1,4.7661838E-1,5.166263E-1,-9.323846E-2,2.759092E-1,9.541288E-1,1.7066805E-1,-2.4197713E-1,2.4299541E-1,8.90365E-1,3.540453E-2,3.1219986E-3,-1.767401E-2,1.0295447E-2,-2.3883153E-2,2.851486E-2,1.43878935E-2,5.9944637E-2,4.1310947E-2,-7.061846E-3,-2.1170601E-2,-2.5664095E-3,2.0709531E-2,-2.1359073E-2,2.3776032E-2,6.027133E-2],"categories":[],"categories_nodes":[],"categories_segments":[],"categories_sizes":[],"default_left":[0,0,0,0,0,0,0,0,0,0,0,0,0,0,0,0,0,0,0,0,0,0,0,0,0,0,0,0,0,0,0],"id":18,"left_children":[1,3,5,7,9,11,13,15,17,19,21,23,25,27,29,-1,-1,-1,-1,-1,-1,-1,-1,-1,-1,-1,-1,-1,-1,-1,-1],"loss_changes":[1.0616573E1,4.600409E0,1.1674164E1,4.551286E0,3.1303387E0,6.7992907E0,2.8182106E0,1.5385008E0,2.8074913E0,3.9855366E0,1.984024E0,1.025467E1,7.474206E0,2.7591906E0,8.195591E-1,0E0,0E0,0E0,0E0,0E0,0E0,0E0,0E0,0E0,0E0,0E0,0E0,0E0,0E0,0E0,0E0],"parents":[2147483647,0,0,1,1,2,2,3,3,4,4,5,5,6,6,7,7,8,8,9,9,10,10,11,11,12,12,13,13,14,14],"right_children":[2,4,6,8,10,12,14,16,18,20,22,24,26,28,30,-1,-1,-1,-1,-1,-1,-1,-1,-1,-1,-1,-1,-1,-1,-1,-1],"split_conditions":[0E0,6.029358E-1,1.836798E-1,-3.7620327E-1,-1.13015786E-1,-2.8291264E-1,2.1447325E-1,3.073425E-1,-2.2842273E-1,1.682242E-1,-2.3824836E-1,-4.3910658E-1,4.2586368E-1,1.6011102E-1,4.9239475E-1,3.540453E-2,3.1219986E-3,-1.767401E-2,1.0295447E-2,-2.3883153E-2,2.851486E-2,1.43878935E-2,5.9944637E-2,4.1310947E-2,-7.061846E-3,-2.1170601E-2,-2.5664095E-3,2.0709531E-2,-2.1359073E-2,2.3776032E-2,6.027133E-2],"split_indices":[220,106,93,2,6,180,94,64,9,138,72,127,36,180,173,0,0,0,0,0,0,0,0,0,0,0,0,0,0,0,0],"split_type":[0,0,0,0,0,0,0,0,0,0,0,0,0,0,0,0,0,0,0,0,0,0,0,0,0,0,0,0,0,0,0],"sum_hessian":[3.7218835E2,7.878072E1,2.9340765E2,5.024301E1,2.8537714E1,2.6319998E2,3.0207659E1,1.7502508E1,3.27405E1,1.4999873E1,1.3537842E1,4.7467457E1,2.1573253E2,2.0475258E1,9.732402E0,1.1764096E1,5.738411E0,1.7590445E1,1.5150058E1,3.943382E0,1.1056491E1,4.330969E0,9.206873E0,1.4875119E1,3.259234E1,1.09643074E2,1.06089455E2,1.673223E1,3.7430289E0,5.421093E0,4.3113084E0],"tree_param":{"num_deleted":"0","num_feature":"246","num_nodes":"31","size_leaf_vector":"1"}},{"base_weights":[3.7665062E-3,-2.593848E-1,1.2531894E-1,-3.444633E-1,3.766229E-1,3.2184798E-1,-4.9611848E-2,-5.875877E-1,-1.5710059E-1,-9.076814E-3,6.115086E-1,6.1135656E-1,1.6649169E-1,-2.8569886E-1,1.6321632E-1,-3.837512E-2,-1.5498875E-3,-1.2178706E-2,2.7595103E-2,4.335304E-2,1.0749308E-2,3.6354225E-2,-4.30855E-3,2.6172722E-2,1.8145022E-3,-3.0457739E-2,-4.293756E-3,2.2060182E-2,-3.0383177E-3],"categories":[],"categories_nodes":[],"categories_segments":[],"categories_sizes":[],"default_left":[0,0,0,0,0,0,0,0,0,0,0,0,0,0,0,0,0,0,0,0,0,0,0,0,0,0,0,0,0],"id":19,"left_children":[1,3,5,7,9,11,13,15,17,-1,19,21,23,25,27,-1,-1,-1,-1,-1,-1,-1,-1,-1,-1,-1,-1,-1,-1],"loss_changes":[1.1903235E1,6.533802E0,8.805685E0,4.63231E0,2.0869787E0,5.2979937E0,6.9063306E0,4.39384E0,3.9162843E0,0E0,1.4624493E0,3.494792E0,3.700246E0,4.1251917E0,4.568783E0,0E0,0E0,0E0,0E0,0E0,0E0,0E0,0E0,0E0,0E0,0E0,0E0,0E0,0E0],"parents":[2147483647,0,0,1,1,2,2,3,3,4,4,5,5,6,6,7,7,8,8,10,10,11,11,12,12,13,13,14,14],"right_children":[2,4,6,8,10,12,14,16,18,-1,20,22,24,26,28,-1,-1,-1,-1,-1,-1,-1,-1,-1,-1,-1,-1,-1,-1],"split_conditions":[-3.1089744E-1,9.508624E-1,0E0,5.8568656E-1,-4.2569138E-2,2.3535112E-1,0E0,4.458306E-1,1.6969397E0,-9.076814E-3,-5.6555873E-1,8.5765815E-1,0E0,-4.7325817E-1,-4.3177378E-1,-3.837512E-2,-1.5498875E-3,-1.2178706E-2,2.7595103E-2,4.335304E-2,1.0749308E-2,3.6354225E-2,-4.30855E-3,2.6172722E-2,1.8145022E-3,-3.0457739E-2,-4.293756E-3,2.2060182E-2,-3.0383177E-3],"split_indices":[92,241,0,66,98,86,240,236,114,0,92,159,220,215,22,0,0,0,0,0,0,0,0,0,0,0,0,0,0],"split_type":[0,0,0,0,0,0,0,0,0,0,0,0,0,0,0,0,0,0,0,0,0,0,0,0,0,0,0,0,0],"sum_hessian":[3.6815198E2,1.1570445E2,2.5244751E2,1.0259587E2,1.3108578E1,1.1875828E2,1.3368924E2,4.349123E1,5.9104645E1,3.8237019E0,9.284876E0,4.0223103E1,7.853517E1,6.3441757E1,7.024748E1,3.2444965E1,1.1046265E1,5.339038E1,5.7142606E0,6.2310457E0,3.05383E0,3.458589E1,5.6372094E0,1.997715E1,5.8558025E1,2.3253027E1,4.018873E1,3.1111422E1,3.9136063E1],"tree_param":{"num_deleted":"0","num_feature":"246","num_nodes":"29","size_leaf_vector":"1"}},{"base_weights":[-1.4989536E-2,2.0883773E-1,-1.4983787E-1,-2.5113849E-2,4.273573E-1,-5.674163E-1,-6.0187545E-2,1.2441755E-1,-5.5227584E-1,6.0438767E-2,6.377248E-1,-6.862806E-1,4.9452945E-3,-2.752428E-1,1.4086442E-1,-3.4988638E-2,1.0276909E-2,-3.0127761E-3,-4.359615E-2,-6.1245137E-3,3.397019E-2,3.5784125E-2,-7.319958E-3,-2.1041874E-2,-5.0327983E-2,2.8370654E-2,-2.3952857E-2,1.9399332E-2,-1.8698607E-2,2.2920314E-4,2.4621952E-2],"categories":[],"categories_nodes":[],"categories_segments":[],"categories_sizes":[],"default_left":[0,0,0,0,0,0,0,0,0,0,0,0,0,0,0,0,0,0,0,0,0,0,0,0,0,0,0,0,0,0,0],"id":20,"left_children":[1,3,5,7,9,11,13,15,17,19,21,23,25,27,29,-1,-1,-1,-1,-1,-1,-1,-1,-1,-1,-1,-1,-1,-1,-1,-1],"loss_changes":[1.1178376E1,7.1652093E0,8.610113E0,5.5602794E0,5.4829845E0,2.8408403E0,8.36833E0,3.8094244E0,2.3271732E0,3.3917966E0,2.9767551E0,2.4346676E0,2.6084054E0,6.3120584E0,4.7614336E0,0E0,0E0,0E0,0E0,0E0,0E0,0E0,0E0,0E0,0E0,0E0,0E0,0E0,0E0,0E0,0E0],"parents":[2147483647,0,0,1,1,2,2,3,3,4,4,5,5,6,6,7,7,8,8,9,9,10,10,11,11,12,12,13,13,14,14],"right_children":[2,4,6,8,10,12,14,16,18,20,22,24,26,28,30,-1,-1,-1,-1,-1,-1,-1,-1,-1,-1,-1,-1,-1,-1,-1,-1],"split_conditions":[-1.9403987E-1,-6.6690575E-3,-6.416264E-1,1.4117625E0,-2.8622566E-2,1.5373771E-1,0E0,-6.8545836E-1,-4.2050242E-1,8.102617E-2,1.1772404E0,-2.768078E-1,3.7503842E-1,-9.56002E-1,7.87042E-1,-3.4988638E-2,1.0276909E-2,-3.0127761E-3,-4.359615E-2,-6.1245137E-3,3.397019E-2,3.5784125E-2,-7.319958E-3,-2.1041874E-2,-5.0327983E-2,2.8370654E-2,-2.3952857E-2,1.9399332E-2,-1.8698607E-2,2.2920314E-4,2.4621952E-2],"split_indices":[179,151,92,221,197,239,236,225,44,210,169,105,34,0,80,0,0,0,0,0,0,0,0,0,0,0,0,0,0,0,0],"split_type":[0,0,0,0,0,0,0,0,0,0,0,0,0,0,0,0,0,0,0,0,0,0,0,0,0,0,0,0,0,0,0],"sum_hessian":[3.6623804E2,1.3720644E2,2.290316E2,6.6469864E1,7.073657E1,3.9341206E1,1.896904E2,5.222916E1,1.42407E1,2.6419283E1,4.4317287E1,3.2555893E1,6.7853146E0,9.171539E1,9.797501E1,3.8861895E0,4.834297E1,6.1994624E0,8.041237E0,2.0886906E1,5.5323763E0,4.0505077E1,3.8122067E0,1.9237934E1,1.3317959E1,3.1541252E0,3.6311893E0,1.1372978E1,8.0342415E1,7.154111E1,2.6433903E1],"tree_param":{"num_deleted":"0","num_feature":"246","num_nodes":"31","size_leaf_vector":"1"}},{"base_weights":[1.8687462E-3,-1.6275226E-1,1.9945179E-1,1.7371656E-2,-3.450041E-1,3.0057478E-1,-2.2152857E-1,-3.6566785E-1,1.5418546E-1,-5.0525744E-2,-2.8277096E-1,3.6069494E-1,-1.9867831E-1,-6.532382E-1,5.734506E-2,9.609575E-3,-3.0528763E-2,1.1832113E-2,-2.2665158E-2,-8.026123E-3,-3.087749E-2,6.413345E-3,2.7012387E-2,1.7265717E-2,-3.2436054E-2,-4.5048617E-2,-8.148964E-3,-2.0198006E-2,1.648925E-2],"categories":[],"categories_nodes":[],"categories_segments":[],"categories_sizes":[],"default_left":[0,0,0,0,0,0,0,0,0,0,0,0,0,0,0,0,0,0,0,0,0,0,0,0,0,0,0,0,0],"id":21,"left_children":[1,3,5,7,9,11,13,15,17,-1,19,21,23,25,27,-1,-1,-1,-1,-1,-1,-1,-1,-1,-1,-1,-1,-1,-1],"loss_changes":[1.2196837E1,6.7432184E0,7.3608527E0,5.5218887E0,3.9674177E0,4.263755E0,4.1968536E0,3.956418E0,4.031067E0,0E0,3.773435E0,5.0655994E0,4.1429276E0,1.4402604E0,2.8970573E0,0E0,0E0,0E0,0E0,0E0,0E0,0E0,0E0,0E0,0E0,0E0,0E0,0E0,0E0],"parents":[2147483647,0,0,1,1,2,2,3,3,4,4,5,5,6,6,7,7,8,8,10,10,11,11,12,12,13,13,14,14],"right_children":[2,4,6,8,10,12,14,16,18,-1,20,22,24,26,28,-1,-1,-1,-1,-1,-1,-1,-1,-1,-1,-1,-1,-1,-1],"split_conditions":[-1.1919364E-1,1.9120039E-1,6.0169823E-2,-3.7217256E-1,-1.2303334E0,1.1472024E0,-3.2908946E-1,-2.991828E-1,5.2904427E-2,-5.0525744E-2,-5.7234084E-3,0E0,7.364522E-2,5.350968E-2,-1.6817263E-1,9.609575E-3,-3.0528763E-2,1.1832113E-2,-2.2665158E-2,-8.026123E-3,-3.087749E-2,6.413345E-3,2.7012387E-2,1.7265717E-2,-3.2436054E-2,-4.5048617E-2,-8.148964E-3,-2.0198006E-2,1.648925E-2],"split_indices":[93,0,180,40,232,0,216,173,92,0,180,236,157,237,72,0,0,0,0,0,0,0,0,0,0,0,0,0,0],"split_type":[0,0,0,0,0,0,0,0,0,0,0,0,0,0,0,0,0,0,0,0,0,0,0,0,0,0,0,0,0],"sum_hessian":[3.7065717E2,2.0201433E2,1.6864285E2,1.0177934E2,1.00234985E2,1.364016E2,3.2241245E1,2.6153463E1,7.562588E1,7.1311574E0,9.310382E1,1.22167946E2,1.4233658E1,1.2267204E1,1.9974043E1,7.9199758E0,1.8233488E1,6.727011E1,8.355764E0,6.950239E1,2.3601439E1,5.4234116E1,6.793383E1,6.4489484E0,7.78471E0,7.457242E0,4.8099623E0,7.10084E0,1.2873202E1],"tree_param":{"num_deleted":"0","num_feature":"246","num_nodes":"29","size_leaf_vector":"1"}},{"base_weights":[1.6206017E-2,-9.0168335E-2,2.5512543E-1,4.4543612E-1,-1.5706739E-1,3.6797178E-1,-1.14200726E-1,9.4017017E-1,1.6513103E-1,3.38878E-1,-2.0523712E-1,-1.5026297E-1,4.5579523E-1,-2.5185817E-1,2.7577424E-2,2.355869E-2,5.770458E-2,-1.315555E-2,2.1927996E-2,-9.82501E-4,3.4923E-2,-8.625108E-3,-4.4492412E-2,6.747355E-3,-4.1902337E-2,2.8252816E-2,-3.4535404E-3,-2.6855638E-2,2.936323E-3],"categories":[],"categories_nodes":[],"categories_segments":[],"categories_sizes":[],"default_left":[0,0,0,0,0,0,0,0,0,0,0,0,0,0,0,0,0,0,0,0,0,0,0,0,0,0,0,0,0],"id":22,"left_children":[1,3,5,7,9,11,13,15,17,19,21,23,25,27,-1,-1,-1,-1,-1,-1,-1,-1,-1,-1,-1,-1,-1,-1,-1],"loss_changes":[9.386242E0,9.213467E0,4.82442E0,3.7769532E0,5.53086E0,4.107973E0,2.7224698E0,4.1966248E-1,2.5052466E0,2.7609038E0,4.5446863E0,2.9371963E0,4.4160147E0,2.2032566E0,0E0,0E0,0E0,0E0,0E0,0E0,0E0,0E0,0E0,0E0,0E0,0E0,0E0,0E0,0E0],"parents":[2147483647,0,0,1,1,2,2,3,3,4,4,5,5,6,6,7,7,8,8,9,9,10,10,11,11,12,12,13,13],"right_children":[2,4,6,8,10,12,14,16,18,20,22,24,26,28,-1,-1,-1,-1,-1,-1,-1,-1,-1,-1,-1,-1,-1,-1,-1],"split_conditions":[3.788641E-1,-1.1472024E0,3.073425E-1,2.3629355E-1,-1.4355426E0,-6.491514E-1,5.310219E-1,-3.2761276E-1,-6.144145E-1,-6.742233E-2,1.912004E0,7.3401415E-1,1.7094471E0,-5.697035E-1,2.7577424E-2,2.355869E-2,5.770458E-2,-1.315555E-2,2.1927996E-2,-9.82501E-4,3.4923E-2,-8.625108E-3,-4.4492412E-2,6.747355E-3,-4.1902337E-2,2.8252816E-2,-3.4535404E-3,-2.6855638E-2,2.936323E-3],"split_indices":[231,0,64,121,239,199,209,118,8,91,0,36,44,109,0,0,0,0,0,0,0,0,0,0,0,0,0,0,0],"split_type":[0,0,0,0,0,0,0,0,0,0,0,0,0,0,0,0,0,0,0,0,0,0,0,0,0,0,0,0,0],"sum_hessian":[3.6417657E2,2.5212619E2,1.1205037E2,2.7200615E1,2.2492558E2,8.603661E1,2.601376E1,8.857108E0,1.8343506E1,1.919428E1,2.057313E2,1.2199479E1,7.383713E1,2.2196146E1,3.8176146E0,3.924075E0,4.933033E0,7.0203314E0,1.1323174E1,9.945342E0,9.2489395E0,1.976773E2,8.053989E0,9.088897E0,3.1105826E0,6.1209198E1,1.2627931E1,1.1357516E1,1.0838629E1],"tree_param":{"num_deleted":"0","num_feature":"246","num_nodes":"29","size_leaf_vector":"1"}},{"base_weights":[-1.5279509E-2,1.2959617E-1,-1.8274581E-1,3.1231826E-2,4.015152E-1,-4.3246314E-1,-6.310643E-2,6.976955E-1,-1.848477E-2,1.8014196E-1,7.126768E-1,-2.477848E-1,-6.941572E-1,6.7227703E-1,-1.1664349E-1,1.546036E-5,5.4467734E-2,-7.2247E-3,1.4012004E-2,1.6292877E-2,-2.6112853E-2,-1.4918798E-5,4.496376E-2,-3.219011E-2,-1.238924E-2,-1.2868725E-2,-4.2448625E-2,5.190457E-2,2.399205E-3,-1.1355418E-2,8.956048E-3],"categories":[],"categories_nodes":[],"categories_segments":[],"categories_sizes":[],"default_left":[0,0,0,0,0,0,0,0,0,0,0,0,0,0,0,0,0,0,0,0,0,0,0,0,0,0,0,0,0,0,0],"id":23,"left_children":[1,3,5,7,9,11,13,15,17,19,21,23,25,27,29,-1,-1,-1,-1,-1,-1,-1,-1,-1,-1,-1,-1,-1,-1,-1,-1],"loss_changes":[9.007963E0,5.284133E0,5.102254E0,5.0653663E0,3.4679136E0,3.283761E0,4.7832975E0,2.7882757E0,5.2643375E0,3.554815E0,2.937724E0,1.6431371E0,1.5077925E0,1.7459292E0,3.7054787E0,0E0,0E0,0E0,0E0,0E0,0E0,0E0,0E0,0E0,0E0,0E0,0E0,0E0,0E0,0E0,0E0],"parents":[2147483647,0,0,1,1,2,2,3,3,4,4,5,5,6,6,7,7,8,8,9,9,10,10,11,11,12,12,13,13,14,14],"right_children":[2,4,6,8,10,12,14,16,18,20,22,24,26,28,30,-1,-1,-1,-1,-1,-1,-1,-1,-1,-1,-1,-1,-1,-1,-1,-1],"split_conditions":[1.9120039E-1,4.902895E-1,-3.3167046E-1,-1.7208036E0,5.484362E-1,5.132771E-1,-8.808891E-1,1.0325933E-1,4.327395E-1,1.0506458E0,-1.1719942E0,-2.6790416E-1,-2.9335575E-2,9.158458E-2,5.2465606E-1,1.546036E-5,5.4467734E-2,-7.2247E-3,1.4012004E-2,1.6292877E-2,-2.6112853E-2,-1.4918798E-5,4.496376E-2,-3.219011E-2,-1.238924E-2,-1.2868725E-2,-4.2448625E-2,5.190457E-2,2.399205E-3,-1.1355418E-2,8.956048E-3],"split_indices":[0,231,240,0,234,125,8,97,71,123,9,236,178,40,91,0,0,0,0,0,0,0,0,0,0,0,0,0,0,0,0],"split_type":[0,0,0,0,0,0,0,0,0,0,0,0,0,0,0,0,0,0,0,0,0,0,0,0,0,0,0,0,0,0,0],"sum_hessian":[3.666378E2,1.9637881E2,1.7025897E2,1.4530031E2,5.1078506E1,5.403139E1,1.16227585E2,9.321477E0,1.3597882E2,3.0955673E1,2.0122833E1,2.9085255E1,2.4946135E1,6.9762955E0,1.0925129E2,3.8040743E0,5.517402E0,9.623547E1,3.974335E1,2.6199024E1,4.7566485E0,4.270009E0,1.5852824E1,9.363664E0,1.9721592E1,7.3939285E0,1.7552206E1,3.8798354E0,3.09646E0,7.995805E1,2.929324E1],"tree_param":{"num_deleted":"0","num_feature":"246","num_nodes":"31","size_leaf_vector":"1"}},{"base_weights":[7.0911986E-3,4.6242103E-1,-5.177105E-2,6.1227375E-1,-5.7101138E-2,-2.5928685E-1,6.3914575E-2,-6.178062E-3,7.017118E-1,-1.8793708E-2,2.215778E-2,-5.679424E-1,-1.07947834E-1,4.191252E-1,-2.2662941E-2,1.595083E-2,4.564179E-2,-1.8144457E-2,-4.607785E-2,-1.2217343E-2,1.5410081E-2,4.0179923E-2,6.772395E-3,-9.027804E-3,1.0232311E-2],"categories":[],"categories_nodes":[],"categories_segments":[],"categories_sizes":[],"default_left":[0,0,0,0,0,0,0,0,0,0,0,0,0,0,0,0,0,0,0,0,0,0,0,0,0],"id":24,"left_children":[1,3,5,7,9,11,13,-1,15,-1,-1,17,19,21,23,-1,-1,-1,-1,-1,-1,-1,-1,-1,-1],"loss_changes":[9.979813E0,3.4179926E0,7.8910365E0,2.3585806E0,1.9411708E0,5.4110036E0,6.5559406E0,0E0,2.0904894E0,0E0,0E0,2.4343548E0,4.6894193E0,4.4012775E0,6.1676583E0,0E0,0E0,0E0,0E0,0E0,0E0,0E0,0E0,0E0,0E0],"parents":[2147483647,0,0,1,1,2,2,3,3,4,4,5,5,6,6,8,8,11,11,12,12,13,13,14,14],"right_children":[2,4,6,8,10,12,14,-1,16,-1,-1,18,20,22,24,-1,-1,-1,-1,-1,-1,-1,-1,-1,-1],"split_conditions":[-1.1472024E0,7.255617E-1,-1.21380925E-1,-9.547566E-1,7.871855E-1,-7.156613E-1,-6.416264E-1,-6.178062E-3,-2.0445693E-1,-1.8793708E-2,2.215778E-2,4.274433E-1,5.4364467E-1,9.05008E-2,1.2633437E-1,1.595083E-2,4.564179E-2,-1.8144457E-2,-4.607785E-2,-1.2217343E-2,1.5410081E-2,4.0179923E-2,6.772395E-3,-9.027804E-3,1.0232311E-2],"split_indices":[0,183,91,243,222,73,179,0,218,0,0,123,236,121,9,0,0,0,0,0,0,0,0,0,0],"split_type":[0,0,0,0,0,0,0,0,0,0,0,0,0,0,0,0,0,0,0,0,0,0,0,0,0],"sum_hessian":[3.651474E2,4.1209965E1,3.2393744E2,3.1995132E1,9.214832E0,1.1581416E2,2.0812328E2,3.3049152E0,2.8690218E1,5.9023066E0,3.3125257E0,3.698E1,7.883416E1,4.0259678E1,1.678636E2,1.1261568E1,1.7428648E1,2.4868395E1,1.2111607E1,5.986551E1,1.8968653E1,1.6165272E1,2.4094404E1,9.943784E1,6.842576E1],"tree_param":{"num_deleted":"0","num_feature":"246","num_nodes":"25","size_leaf_vector":"1"}},{"base_weights":[3.8322913E-3,1.5368675E-1,-1.6727185E-1,5.310068E-2,3.9907447E-1,-4.3606457E-1,-3.5937738E-2,9.205399E-2,-4.2641234E-2,2.3933744E-1,7.707927E-1,1.1429642E-1,-5.140324E-1,-2.0630129E-1,2.3517708E-1,-1.3590803E-3,1.13043785E-2,3.8379554E-2,1.13043785E-2,4.7731724E-2,1.13043785E-2,-1.7211497E-2,2.6509041E-2,-2.9212793E-2,1.0303845E-2,3.4684322E-3,-2.2382183E-2,1.9287078E-2,-1.758547E-2],"categories":[],"categories_nodes":[],"categories_segments":[],"categories_sizes":[],"default_left":[0,0,0,0,0,0,0,0,0,0,0,0,0,0,0,0,0,0,0,0,0,0,0,0,0,0,0,0,0],"id":25,"left_children":[1,3,5,7,9,11,13,15,-1,17,19,21,23,25,27,-1,-1,-1,-1,-1,-1,-1,-1,-1,-1,-1,-1,-1,-1],"loss_changes":[9.533561E0,4.861257E0,6.0758667E0,5.1680117E0,3.215084E0,2.5475006E0,5.5305767E0,3.1694982E0,0E0,2.0449438E0,1.7030554E0,1.8079383E0,2.7187424E0,4.9616585E0,4.2502823E0,0E0,0E0,0E0,0E0,0E0,0E0,0E0,0E0,0E0,0E0,0E0,0E0,0E0,0E0],"parents":[2147483647,0,0,1,1,2,2,3,3,4,4,5,5,6,6,7,7,9,9,10,10,11,11,12,12,13,13,14,14],"right_children":[2,4,6,8,10,12,14,16,-1,18,20,22,24,26,28,-1,-1,-1,-1,-1,-1,-1,-1,-1,-1,-1,-1,-1,-1],"split_conditions":[1.9120039E-1,3.926342E-1,-3.7286603E-1,1.2994573E0,6.045161E-1,-1.3143857E0,4.5918945E-2,1.065442E0,-4.2641234E-2,-3.3757663E-1,1.3946803E0,4.2159912E-1,9.5211285E-1,-3.2761276E-1,5.791874E-1,-1.3590803E-3,1.13043785E-2,3.8379554E-2,1.13043785E-2,4.7731724E-2,1.13043785E-2,-1.7211497E-2,2.6509041E-2,-2.9212793E-2,1.0303845E-2,3.4684322E-3,-2.2382183E-2,1.9287078E-2,-1.758547E-2],"split_indices":[0,240,231,8,236,214,233,162,0,180,242,34,236,31,126,0,0,0,0,0,0,0,0,0,0,0,0,0,0],"split_type":[0,0,0,0,0,0,0,0,0,0,0,0,0,0,0,0,0,0,0,0,0,0,0,0,0,0,0,0,0],"sum_hessian":[3.6739014E2,1.962228E2,1.7116734E2,1.403261E2,5.5896694E1,5.517096E1,1.1599638E2,1.3550824E2,4.817862E0,4.043403E1,1.5462666E1,6.6290636E0,4.8541897E1,7.1607475E1,4.4388905E1,8.623205E1,4.9276188E1,5.812774E0,3.4621254E1,1.1438166E1,4.0245E0,3.1204767E0,3.508587E0,4.4527225E1,4.0146723E0,3.3565727E1,3.804175E1,3.5734436E1,8.6544695E0],"tree_param":{"num_deleted":"0","num_feature":"246","num_nodes":"29","size_leaf_vector":"1"}},{"base_weights":[1.0879791E-2,1.0978188E-1,-2.37417E-1,-4.0830195E-2,2.929857E-1,-4.6103585E-1,-6.349862E-2,-9.906777E-2,5.491187E-1,-7.105756E-2,3.8914472E-1,7.606048E-2,-5.890982E-1,4.859374E-2,-5.876664E-1,-7.83185E-3,2.2398455E-2,4.192748E-2,-0E0,-2.5531663E-2,7.952179E-3,8.81344E-3,2.9120231E-2,3.2471497E-2,-1.863466E-2,-4.5119305E-3,-3.530043E-2,-1.332123E-2,1.000041E-2,-5.2293595E-2,-3.277347E-3],"categories":[],"categories_nodes":[],"categories_segments":[],"categories_sizes":[],"default_left":[0,0,0,0,0,0,0,0,0,0,0,0,0,0,0,0,0,0,0,0,0,0,0,0,0,0,0,0,0,0,0],"id":26,"left_children":[1,3,5,7,9,11,13,15,17,19,21,23,25,27,29,-1,-1,-1,-1,-1,-1,-1,-1,-1,-1,-1,-1,-1,-1,-1,-1],"loss_changes":[9.058317E0,7.322835E0,4.0269494E0,5.0988503E0,4.252349E0,3.2432108E0,3.7227435E0,4.318293E0,2.0716429E0,3.8621922E0,3.7775936E0,2.885322E0,2.0403252E0,2.5247574E0,2.510072E0,0E0,0E0,0E0,0E0,0E0,0E0,0E0,0E0,0E0,0E0,0E0,0E0,0E0,0E0,0E0,0E0],"parents":[2147483647,0,0,1,1,2,2,3,3,4,4,5,5,6,6,7,7,8,8,9,9,10,10,11,11,12,12,13,13,14,14],"right_children":[2,4,6,8,10,12,14,16,18,20,22,24,26,28,30,-1,-1,-1,-1,-1,-1,-1,-1,-1,-1,-1,-1,-1,-1,-1,-1],"split_conditions":[-3.0007651E-2,-1.272631E-1,2.3567271E-1,1.756691E0,-6.258473E-1,0E0,1.4698349E0,1.2969064E0,-1.9947965E-1,-1.8471435E-1,-3.1218615E-1,-6.6690575E-3,-8.963357E-1,-1.9347775E-1,-4.22345E-2,-7.83185E-3,2.2398455E-2,4.192748E-2,-0E0,-2.5531663E-2,7.952179E-3,8.81344E-3,2.9120231E-2,3.2471497E-2,-1.863466E-2,-4.5119305E-3,-3.530043E-2,-1.332123E-2,1.000041E-2,-5.2293595E-2,-3.277347E-3],"split_indices":[180,93,97,114,209,206,87,32,180,217,100,64,188,72,58,0,0,0,0,0,0,0,0,0,0,0,0,0,0,0,0],"split_type":[0,0,0,0,0,0,0,0,0,0,0,0,0,0,0,0,0,0,0,0,0,0,0,0,0,0,0,0,0,0,0],"sum_hessian":[3.6458728E2,2.6141895E2,1.03168335E2,1.4359808E2,1.1782086E2,4.4161278E1,5.9007057E1,1.3160782E2,1.1990258E1,2.4455849E1,9.336501E1,8.430168E0,3.573111E1,4.9201843E1,9.805214E0,1.19887535E2,1.1720294E1,7.4343276E0,4.5559306E0,1.0477701E1,1.39781475E1,4.5583866E1,4.7781143E1,3.6026902E0,4.827478E0,7.2827315E0,2.8448376E1,1.55110445E1,3.36908E1,4.5859704E0,5.2192435E0],"tree_param":{"num_deleted":"0","num_feature":"246","num_nodes":"31","size_leaf_vector":"1"}},{"base_weights":[3.4138318E-3,1.7045158E-1,-1.3952601E-1,4.422697E-2,1.3524477E-1,-8.4936225E-1,-1.0258716E-1,-2.6531344E-2,2.799812E-1,-5.3797465E-2,-1.2350025E-2,-6.004755E-2,-6.8227404E-1,-9.352552E-3,1.338601E-2,1.9099023E-2,-3.7930948E-3,1.7000912E-3,-1.4889792E-2,-1.5023745E-2,-4.9931433E-2],"categories":[],"categories_nodes":[],"categories_segments":[],"categories_sizes":[],"default_left":[0,0,0,0,0,0,0,0,0,0,0,0,0,0,0,0,0,0,0,0,0],"id":27,"left_children":[1,3,5,-1,7,9,11,13,15,-1,-1,17,19,-1,-1,-1,-1,-1,-1,-1,-1],"loss_changes":[8.802216E0,4.198777E0,5.142875E0,0E0,3.8705127E0,9.889364E-1,4.659314E0,3.7783768E0,3.2219448E0,0E0,0E0,4.044182E0,1.218288E0,0E0,0E0,0E0,0E0,0E0,0E0,0E0,0E0],"parents":[2147483647,0,0,1,1,2,2,4,4,5,5,6,6,7,7,8,8,11,11,12,12],"right_children":[2,4,6,-1,8,10,12,14,16,-1,-1,18,20,-1,-1,-1,-1,-1,-1,-1,-1],"split_conditions":[0E0,-1.2105193E0,-1.2303334E0,4.422697E-2,-1.3239108E-1,-6.178216E-1,1.912004E0,2.1896262E-1,4.620713E-3,-5.3797465E-2,-1.2350025E-2,-1.6807517E-2,1.1070858E-1,-9.352552E-3,1.338601E-2,1.9099023E-2,-3.7930948E-3,1.7000912E-3,-1.4889792E-2,-1.5023745E-2,-4.9931433E-2],"split_indices":[0,173,232,0,93,73,0,197,180,0,0,180,40,0,0,0,0,0,0,0,0],"split_type":[0,0,0,0,0,0,0,0,0,0,0,0,0,0,0,0,0,0,0,0,0],"sum_hessian":[3.639648E2,1.680688E2,1.9589601E2,6.6300125E0,1.6143878E2,8.46808E0,1.8742793E2,7.629142E1,8.514737E1,5.461447E0,3.006633E0,1.7580295E2,1.1624991E1,4.9818607E1,2.6472815E1,6.6339355E1,1.8808012E1,1.2628358E2,4.9519367E1,6.2943854E0,5.330606E0],"tree_param":{"num_deleted":"0","num_feature":"246","num_nodes":"21","size_leaf_vector":"1"}},{"base_weights":[1.3202982E-2,-1.1144537E-1,1.9273522E-1,6.1390027E-2,-2.5773737E-1,5.0187387E-2,4.3638456E-1,1.7082441E-1,-2.7387238E-1,-6.724745E-1,-1.6548894E-1,2.5286344E-1,-1.7880231E-1,2.6581594E-1,1.0234222E0,-1.6123487E-2,1.343371E-2,9.618403E-3,-3.663779E-2,-4.301014E-2,-9.584087E-3,-1.42947035E-2,6.630917E-3,-8.451062E-3,1.9774899E-2,-2.0290712E-2,8.565952E-3,-3.5016208E-3,2.3823408E-2,6.4761244E-2,2.2780107E-2],"categories":[],"categories_nodes":[],"categories_segments":[],"categories_sizes":[],"default_left":[0,0,0,0,0,0,0,0,0,0,0,0,0,0,0,0,0,0,0,0,0,0,0,0,0,0,0,0,0,0,0],"id":28,"left_children":[1,3,5,7,9,11,13,15,17,19,21,23,25,27,29,-1,-1,-1,-1,-1,-1,-1,-1,-1,-1,-1,-1,-1,-1,-1,-1],"loss_changes":[8.259724E0,5.534237E0,5.209631E0,3.7613463E0,4.412503E0,4.5952454E0,5.286886E0,3.8243952E0,5.5946364E0,1.6865768E0,3.6056716E0,3.2626793E0,3.7921102E0,3.2556477E0,1.220377E0,0E0,0E0,0E0,0E0,0E0,0E0,0E0,0E0,0E0,0E0,0E0,0E0,0E0,0E0,0E0,0E0],"parents":[2147483647,0,0,1,1,2,2,3,3,4,4,5,5,6,6,7,7,8,8,9,9,10,10,11,11,12,12,13,13,14,14],"right_children":[2,4,6,8,10,12,14,16,18,20,22,24,26,28,30,-1,-1,-1,-1,-1,-1,-1,-1,-1,-1,-1,-1,-1,-1,-1,-1],"split_conditions":[1.322379E-1,0E0,3.6833718E-1,4.8110476E-1,-6.346922E-1,3.919871E-1,8.19957E-1,-9.229224E-1,-8.836417E-2,6.7257255E-1,1.4123516E0,-2.4992764E-1,4.5540306E-1,1.5705476E-2,6.5689754E-1,-1.6123487E-2,1.343371E-2,9.618403E-3,-3.663779E-2,-4.301014E-2,-9.584087E-3,-1.42947035E-2,6.630917E-3,-8.451062E-3,1.9774899E-2,-2.0290712E-2,8.565952E-3,-3.5016208E-3,2.3823408E-2,6.4761244E-2,2.2780107E-2],"split_indices":[236,0,92,167,151,173,36,218,72,36,41,72,53,237,225,0,0,0,0,0,0,0,0,0,0,0,0,0,0,0,0],"split_type":[0,0,0,0,0,0,0,0,0,0,0,0,0,0,0,0,0,0,0,0,0,0,0,0,0,0,0,0,0,0,0],"sum_hessian":[3.6417E2,2.1483405E2,1.4933597E2,9.843531E1,1.1639873E2,9.5234886E1,5.4101078E1,7.4806244E1,2.3629066E1,1.9837597E1,9.6561134E1,5.0696484E1,4.4538406E1,4.31784E1,1.0922681E1,1.1833253E1,6.2972996E1,1.1900571E1,1.1728496E1,1.3549855E1,6.287742E0,6.904883E1,2.7512308E1,1.2585369E1,3.8111115E1,2.7096262E1,1.7442144E1,1.6717724E1,2.6460674E1,6.4013443E0,4.521337E0],"tree_param":{"num_deleted":"0","num_feature":"246","num_nodes":"31","size_leaf_vector":"1"}},{"base_weights":[-1.7029233E-3,3.031276E-1,-8.30608E-2,8.2405305E-1,1.5363678E-1,-1.4990096E-1,2.970651E-1,9.7045934E-1,7.5524165E-3,2.9384333E-1,-2.377213E-1,-2.4726698E-1,3.836981E-2,-2.2028705E-2,4.1164568E-1,2.2471162E-2,5.381609E-2,-0E0,3.0607698E-2,-2.5521163E-2,2.8382426E-2,-2.016997E-2,-3.0874768E-3,1.7924083E-2,-4.2615063E-3,-7.1706646E-3,2.4892574E-2],"categories":[],"categories_nodes":[],"categories_segments":[],"categories_sizes":[],"default_left":[0,0,0,0,0,0,0,0,0,0,0,0,0,0,0,0,0,0,0,0,0,0,0,0,0,0,0],"id":29,"left_children":[1,3,5,7,9,11,13,15,-1,17,19,21,23,-1,25,-1,-1,-1,-1,-1,-1,-1,-1,-1,-1,-1,-1],"loss_changes":[9.146178E0,5.9043903E0,7.4605207E0,1.4545536E0,3.5083103E0,4.5885577E0,3.9591649E0,2.1824265E-1,0E0,4.317242E0,4.0765414E0,4.705223E0,3.4929984E0,0E0,1.9813218E0,0E0,0E0,0E0,0E0,0E0,0E0,0E0,0E0,0E0,0E0,0E0,0E0],"parents":[2147483647,0,0,1,1,2,2,3,3,4,4,5,5,6,6,7,7,9,9,10,10,11,11,12,12,14,14],"right_children":[2,4,6,8,10,12,14,16,-1,18,20,22,24,-1,26,-1,-1,-1,-1,-1,-1,-1,-1,-1,-1,-1,-1],"split_conditions":[-6.184754E-1,-6.7805636E-1,1.06664054E-1,-7.784458E-1,3.073425E-1,3.073425E-1,-9.2566526E-1,-2.440579E-1,7.5524165E-3,1.065442E0,-1.0598628E-1,4.2586368E-1,7.339424E-3,-2.2028705E-2,-5.783555E-1,2.2471162E-2,5.381609E-2,-0E0,3.0607698E-2,-2.5521163E-2,2.8382426E-2,-2.016997E-2,-3.0874768E-3,1.7924083E-2,-4.2615063E-3,-7.1706646E-3,2.4892574E-2],"split_indices":[179,112,93,156,64,151,236,232,0,162,93,36,34,0,225,0,0,0,0,0,0,0,0,0,0,0,0],"split_type":[0,0,0,0,0,0,0,0,0,0,0,0,0,0,0,0,0,0,0,0,0,0,0,0,0,0,0],"sum_hessian":[3.645636E2,7.596901E1,2.8859457E2,1.5784383E1,6.0184628E1,2.461764E2,4.241817E1,1.2479096E1,3.305287E0,4.468178E1,1.5502846E1,1.6240495E2,8.377146E1,5.203242E0,3.721493E1,3.1525896E0,9.326507E0,2.3805042E1,2.087674E1,1.1947693E1,3.555153E0,8.72562E1,7.514874E1,2.3031315E1,6.0740147E1,4.7576823E0,3.245725E1],"tree_param":{"num_deleted":"0","num_feature":"246","num_nodes":"27","size_leaf_vector":"1"}},{"base_weights":[6.812481E-3,-5.294883E-1,5.4046355E-2,-6.330133E-1,1.273677E-2,1.0463566E-1,-3.991175E-1,-7.598616E-1,-4.2996835E-3,-8.7283485E-2,2.1142827E-1,-1.1231345E-1,-7.438341E-1,-4.823231E-3,-4.3412585E-2,-1.2633701E-2,7.106898E-3,1.4705054E-2,-5.676212E-3,-1.8339153E-2,2.7902473E-2,-9.53032E-3,-5.532373E-2],"categories":[],"categories_nodes":[],"categories_segments":[],"categories_sizes":[],"default_left":[0,0,0,0,0,0,0,0,0,0,0,0,0,0,0,0,0,0,0,0,0,0,0],"id":30,"left_children":[1,3,5,7,-1,9,11,13,-1,15,17,19,21,-1,-1,-1,-1,-1,-1,-1,-1,-1,-1],"loss_changes":[9.272956E0,2.6449528E0,7.759589E0,1.7129221E0,0E0,6.248287E0,3.2394452E0,1.3721361E0,0E0,4.2120724E0,5.310834E0,3.7002363E0,2.7596369E0,0E0,0E0,0E0,0E0,0E0,0E0,0E0,0E0,0E0,0E0],"parents":[2147483647,0,0,1,1,2,2,3,3,5,5,6,6,7,7,9,9,10,10,11,11,12,12],"right_children":[2,4,6,8,-1,10,12,14,-1,16,18,20,22,-1,-1,-1,-1,-1,-1,-1,-1,-1,-1],"split_conditions":[-1.0456289E0,9.6333456E-1,1.7956461E-1,9.4418633E-1,1.273677E-2,-4.9096906E-1,4.6245688E-1,-6.586143E-1,-4.2996835E-3,2.869272E-1,1.4117625E0,4.3207356E-1,3.8475773E-1,-4.823231E-3,-4.3412585E-2,-1.2633701E-2,7.106898E-3,1.4705054E-2,-5.676212E-3,-1.8339153E-2,2.7902473E-2,-9.53032E-3,-5.532373E-2],"split_indices":[244,91,180,156,0,237,120,146,0,98,221,123,86,0,0,0,0,0,0,0,0,0,0],"split_type":[0,0,0,0,0,0,0,0,0,0,0,0,0,0,0,0,0,0,0,0,0,0,0],"sum_hessian":[3.612571E2,2.824394E1,3.3301318E2,2.5233242E1,3.0106983E0,3.0046075E2,3.2552406E1,2.0019112E1,5.21413E0,1.0714843E2,1.9331233E2,1.8650831E1,1.3901577E1,3.2064896E0,1.6812622E1,6.2457314E1,4.4691116E1,1.5442656E2,3.8885765E1,1.3955397E1,4.6954336E0,6.217622E0,7.6839547E0],"tree_param":{"num_deleted":"0","num_feature":"246","num_nodes":"23","size_leaf_vector":"1"}},{"base_weights":[-9.350906E-3,1.0370424E-1,-1.8699865E-1,1.653802E-2,4.0962005E-1,-7.6551837E-1,-1.1552348E-1,-2.7287468E-1,9.0935886E-2,1.0653952E-2,5.334665E-1,-9.046939E-1,-9.270184E-3,-4.8877973E-2,-5.055361E-1,-1.9178443E-3,-4.029555E-2,-3.9294623E-2,6.166204E-3,3.25832E-2,1.0653952E-2,-5.1123735E-2,-2.10486E-2,-2.2925729E-2,1.5952972E-3,-3.851619E-2,7.58563E-3],"categories":[],"categories_nodes":[],"categories_segments":[],"categories_sizes":[],"default_left":[0,0,0,0,0,0,0,0,0,0,0,0,0,0,0,0,0,0,0,0,0,0,0,0,0,0,0],"id":31,"left_children":[1,3,5,7,9,11,13,15,17,-1,19,21,-1,23,25,-1,-1,-1,-1,-1,-1,-1,-1,-1,-1,-1,-1],"loss_changes":[7.3928127E0,5.95312E0,5.8433414E0,3.8355327E0,2.1004524E0,1.0241175E0,3.3325791E0,4.4592156E0,4.1679134E0,0E0,2.3218384E0,2.1376514E-1,0E0,3.8048015E0,3.4542437E0,0E0,0E0,0E0,0E0,0E0,0E0,0E0,0E0,0E0,0E0,0E0,0E0],"parents":[2147483647,0,0,1,1,2,2,3,3,4,4,5,5,6,6,7,7,8,8,10,10,11,11,13,13,14,14],"right_children":[2,4,6,8,10,12,14,16,18,-1,20,22,-1,24,26,-1,-1,-1,-1,-1,-1,-1,-1,-1,-1,-1,-1],"split_conditions":[-8.686983E-2,7.4670213E-1,-1.1417414E0,-7.5738156E-1,-7.4325705E-1,8.4266824E-1,1.2177695E0,1.575118E-1,-1.888838E0,1.0653952E-2,4.2437226E-1,1.1472024E0,-9.270184E-3,-1.0914555E0,5.360375E-1,-1.9178443E-3,-4.029555E-2,-3.9294623E-2,6.166204E-3,3.25832E-2,1.0653952E-2,-5.1123735E-2,-2.10486E-2,-2.2925729E-2,1.5952972E-3,-3.851619E-2,7.58563E-3],"split_indices":[180,223,113,92,73,218,159,20,218,0,25,0,0,237,50,0,0,0,0,0,0,0,0,0,0,0,0],"split_type":[0,0,0,0,0,0,0,0,0,0,0,0,0,0,0,0,0,0,0,0,0,0,0,0,0,0,0],"sum_hessian":[3.6291272E2,2.2168533E2,1.4122737E2,1.7360118E2,4.808416E1,1.4308125E1,1.2691925E2,3.4680355E1,1.3892082E2,9.949267E0,3.813489E1,1.09493685E1,3.3587554E0,1.095765E2,1.7342749E1,2.4958866E1,9.721488E0,4.009925E0,1.3491089E2,3.2067352E1,6.0675383E0,7.7434344E0,3.2059343E0,1.7483543E1,9.209296E1,1.2348127E1,4.9946203E0],"tree_param":{"num_deleted":"0","num_feature":"246","num_nodes":"27","size_leaf_vector":"1"}},{"base_weights":[-1.0394535E-2,1.4988341E-2,-7.10897E-1,2.9767612E-1,-4.8562203E-2,-5.325666E-2,-3.7524652E-1,-1.508468E-1,4.4537225E-1,-2.6146716E-1,4.434611E-2,8.461429E-4,-4.044731E-2,3.5708786E-3,-3.8296606E-2,3.3132084E-2,2.5803472E-3,-5.4280264E-3,-2.2945924E-2,-1.0129185E-3,1.8266698E-2],"categories":[],"categories_nodes":[],"categories_segments":[],"categories_sizes":[],"default_left":[0,0,0,0,0,0,0,0,0,0,0,0,0,0,0,0,0,0,0,0,0],"id":32,"left_children":[1,3,5,7,9,-1,11,13,15,17,19,-1,-1,-1,-1,-1,-1,-1,-1,-1,-1],"loss_changes":[6.6811547E0,6.417287E0,1.1310449E0,4.4566183E0,5.770063E0,0E0,1.593239E0,2.5390668E0,4.1620417E0,3.9349208E0,4.2705913E0,0E0,0E0,0E0,0E0,0E0,0E0,0E0,0E0,0E0,0E0],"parents":[2147483647,0,0,1,1,2,2,3,3,4,4,6,6,7,7,8,8,9,9,10,10],"right_children":[2,4,6,8,10,-1,12,14,16,18,20,-1,-1,-1,-1,-1,-1,-1,-1,-1,-1],"split_conditions":[1.912004E0,-6.8792844E-1,-3.6270964E-1,-3.1528404E-1,-5.5043325E-2,-5.325666E-2,3.7159783E-1,1.7166046E-2,4.899439E-1,-3.3013046E-1,5.352193E-1,8.461429E-4,-4.044731E-2,3.5708786E-3,-3.8296606E-2,3.3132084E-2,2.5803472E-3,-5.4280264E-3,-2.2945924E-2,-1.0129185E-3,1.8266698E-2],"split_indices":[0,179,236,218,98,0,39,70,123,3,71,0,0,0,0,0,0,0,0,0,0],"split_type":[0,0,0,0,0,0,0,0,0,0,0,0,0,0,0,0,0,0,0,0,0],"sum_hessian":[3.621908E2,3.5033228E2,1.1858525E1,6.3914593E1,2.8641766E2,4.567181E0,7.2913437E0,1.5659997E1,4.8254597E1,8.6791595E1,1.9962608E2,4.2125688E0,3.078775E0,1.2033088E1,3.6269095E0,3.0492718E1,1.7761879E1,3.923934E1,4.7552258E1,1.6670009E2,3.292599E1],"tree_param":{"num_deleted":"0","num_feature":"246","num_nodes":"21","size_leaf_vector":"1"}},{"base_weights":[-1.2690556E-2,7.626902E-1,-4.1108124E-2,3.86661E-1,5.4370057E-2,-1.5382516E-1,1.20303765E-1,-0E0,3.507976E-2,-8.1817076E-2,-4.5832017E-1,-2.4299864E-1,2.0592068E-1,-2.5148692E-3,-3.9834958E-2,-3.4366686E-2,-3.8949535E-3,-1.9883966E-2,3.3416923E-2,1.7388478E-2,-4.920807E-3],"categories":[],"categories_nodes":[],"categories_segments":[],"categories_sizes":[],"default_left":[0,0,0,0,0,0,0,0,0,0,0,0,0,0,0,0,0,0,0,0,0],"id":33,"left_children":[1,3,5,7,-1,9,11,-1,-1,13,15,17,19,-1,-1,-1,-1,-1,-1,-1,-1],"loss_changes":[8.116203E0,1.1325102E0,6.4591017E0,9.9681985E-1,0E0,4.538206E0,4.610596E0,0E0,0E0,3.8453388E0,3.3488178E0,4.324798E0,5.1929083E0,0E0,0E0,0E0,0E0,0E0,0E0,0E0,0E0],"parents":[2147483647,0,0,1,1,2,2,3,3,5,5,6,6,9,9,10,10,11,11,12,12],"right_children":[2,4,6,8,-1,10,12,-1,-1,14,16,18,20,-1,-1,-1,-1,-1,-1,-1,-1],"split_conditions":[-1.7208036E0,4.7990665E-2,1.322379E-1,1.5676828E-1,5.4370057E-2,5.653063E-2,-5.924305E-1,-0E0,3.507976E-2,1.912004E0,5.2339035E-1,1.0948955E0,2.7198997E-1,-2.5148692E-3,-3.9834958E-2,-3.4366686E-2,-3.8949535E-3,-1.9883966E-2,3.3416923E-2,1.7388478E-2,-4.920807E-3],"split_indices":[0,35,236,237,0,180,92,0,0,0,95,218,96,0,0,0,0,0,0,0,0],"split_type":[0,0,0,0,0,0,0,0,0,0,0,0,0,0,0,0,0,0,0,0,0],"sum_hessian":[3.620131E2,1.17607355E1,3.5025235E2,6.607601E0,5.153134E0,2.0662715E2,1.436252E2,3.39982E0,3.207781E0,1.6840033E2,3.8226818E1,2.681855E1,1.16806656E2,1.624481E2,5.952219E0,2.3194244E1,1.5032575E1,2.3502794E1,3.315755E0,7.979891E1,3.700774E1],"tree_param":{"num_deleted":"0","num_feature":"246","num_nodes":"21","size_leaf_vector":"1"}},{"base_weights":[1.626195E-2,2.7380008E-1,-5.2973922E-2,-6.637297E-2,4.3174067E-1,-9.8722726E-2,3.5678577E-1,1.3215794E-1,-3.8489692E-2,1.1543872E-1,6.093042E-1,1.1368653E-2,-2.8864485E-1,-7.7919E-2,5.9522384E-1,-4.419846E-3,3.614303E-2,-1.2858887E-2,1.911701E-2,3.9939836E-2,6.2637464E-3,3.3898472E-3,-3.285144E-2,-9.445803E-3,-3.6845233E-2,-1.9994203E-2,1.949008E-2,3.134679E-3,4.7609523E-2],"categories":[],"categories_nodes":[],"categories_segments":[],"categories_sizes":[],"default_left":[0,0,0,0,0,0,0,0,0,0,0,0,0,0,0,0,0,0,0,0,0,0,0,0,0,0,0,0,0],"id":34,"left_children":[1,3,5,7,9,11,13,15,-1,17,19,21,23,25,27,-1,-1,-1,-1,-1,-1,-1,-1,-1,-1,-1,-1,-1,-1],"loss_changes":[6.491797E0,4.2166777E0,5.3970437E0,3.8101609E0,2.8662376E0,5.417136E0,3.1082473E0,2.8900685E0,0E0,2.236908E0,2.916419E0,6.2566104E0,4.1064653E0,1.9265647E0,3.4631853E0,0E0,0E0,0E0,0E0,0E0,0E0,0E0,0E0,0E0,0E0,0E0,0E0,0E0,0E0],"parents":[2147483647,0,0,1,1,2,2,3,3,4,4,5,5,6,6,7,7,9,9,10,10,11,11,12,12,13,13,14,14],"right_children":[2,4,6,8,10,12,14,16,-1,18,20,22,24,26,28,-1,-1,-1,-1,-1,-1,-1,-1,-1,-1,-1,-1,-1,-1],"split_conditions":[0E0,-2.32336E-1,1.9196467E-1,2.0038698E0,-4.9913883E-2,3.5892388E-1,-1.5895341E-1,-1.7377986E-1,-3.8489692E-2,-7.84822E-2,3.174876E-1,1.2677109E0,5.352193E-1,-4.286283E-1,2.1727774E-1,-4.419846E-3,3.614303E-2,-1.2858887E-2,1.911701E-2,3.9939836E-2,6.2637464E-3,3.3898472E-3,-3.285144E-2,-9.445803E-3,-3.6845233E-2,-1.9994203E-2,1.949008E-2,3.134679E-3,4.7609523E-2],"split_indices":[221,217,93,213,91,178,227,197,0,98,179,40,158,94,173,0,0,0,0,0,0,0,0,0,0,0,0,0,0],"split_type":[0,0,0,0,0,0,0,0,0,0,0,0,0,0,0,0,0,0,0,0,0,0,0,0,0,0,0,0,0],"sum_hessian":[3.5754135E2,7.543478E1,2.821066E2,2.390174E1,5.153304E1,2.546757E2,2.7430885E1,1.9163158E1,4.73858E0,1.9323864E1,3.2209175E1,1.6148308E2,9.319263E1,9.806368E0,1.7624517E1,1.4449216E1,4.7139425E0,7.923611E0,1.1400253E1,2.253144E1,9.677735E0,1.4987805E2,1.1605018E1,7.757768E1,1.5614944E1,6.0207205E0,3.7856472E0,7.657166E0,9.967352E0],"tree_param":{"num_deleted":"0","num_feature":"246","num_nodes":"29","size_leaf_vector":"1"}},{"base_weights":[-1.7927216E-2,3.0297862E-2,-4.17076E-1,-7.433786E-2,1.7438012E-1,-6.3881403E-1,-3.7173264E-2,-2.9790795E-1,4.637959E-2,7.909095E-2,4.3702433E-1,-7.7590525E-1,9.596123E-3,3.7824914E-1,-4.5363125E-1,-2.448746E-2,-6.288209E-3,-2.9531764E-4,2.7458224E-2,9.191229E-3,-1.1987298E-2,3.39666E-2,-0E0,-4.453467E-2,-7.85241E-3,-1.7884356E-4,4.006578E-2,-0E0,-3.5937686E-2],"categories":[],"categories_nodes":[],"categories_segments":[],"categories_sizes":[],"default_left":[0,0,0,0,0,0,0,0,0,0,0,0,0,0,0,0,0,0,0,0,0,0,0,0,0,0,0,0,0],"id":35,"left_children":[1,3,5,7,9,11,13,15,17,19,21,23,-1,25,27,-1,-1,-1,-1,-1,-1,-1,-1,-1,-1,-1,-1,-1,-1],"loss_changes":[7.133479E0,4.9662666E0,3.2854285E0,5.182141E0,3.4215217E0,3.0856285E0,3.0672777E0,2.7984548E0,3.3934393E0,3.5248048E0,3.8876414E0,1.3369656E0,0E0,1.5123734E0,1.1034139E0,0E0,0E0,0E0,0E0,0E0,0E0,0E0,0E0,0E0,0E0,0E0,0E0,0E0,0E0],"parents":[2147483647,0,0,1,1,2,2,3,3,4,4,5,5,6,6,7,7,8,8,9,9,10,10,11,11,13,13,14,14],"right_children":[2,4,6,8,10,12,14,16,18,20,22,24,-1,26,28,-1,-1,-1,-1,-1,-1,-1,-1,-1,-1,-1,-1,-1,-1],"split_conditions":[1.3384027E0,1.2908937E-1,1.8639174E-1,-1.8965068E-1,1.2169619E-2,2.0188704E0,2.6774836E-1,2.4992337E-3,4.223025E0,-4.2509165E-2,2.778414E-1,5.0333966E-2,9.596123E-3,6.6372085E-1,0E0,-2.448746E-2,-6.288209E-3,-2.9531764E-4,2.7458224E-2,9.191229E-3,-1.1987298E-2,3.39666E-2,-0E0,-4.453467E-2,-7.85241E-3,-1.7884356E-4,4.006578E-2,-0E0,-3.5937686E-2],"split_indices":[0,236,58,209,93,206,178,239,177,170,96,112,0,36,228,0,0,0,0,0,0,0,0,0,0,0,0,0,0],"split_type":[0,0,0,0,0,0,0,0,0,0,0,0,0,0,0,0,0,0,0,0,0,0,0,0,0,0,0,0,0],"sum_hessian":[3.6246213E2,3.2399112E2,3.8470985E1,1.8756633E2,1.364248E2,2.3695736E1,1.4775247E1,6.554213E1,1.220242E2,1.0133986E2,3.508494E1,2.0499252E1,3.1964848E0,7.322541E0,7.452706E0,3.483632E1,3.070581E1,1.112449E2,1.0779293E1,7.683702E1,2.4502836E1,2.2252953E1,1.2831989E1,1.678505E1,3.714202E0,4.2457986E0,3.0767426E0,3.0524714E0,4.400234E0],"tree_param":{"num_deleted":"0","num_feature":"246","num_nodes":"29","size_leaf_vector":"1"}},{"base_weights":[1.5831562E-2,-1.5314071E-1,1.1494358E-1,-2.9484224E-1,6.523587E-2,6.359564E-1,5.6775685E-2,-7.990847E-2,-5.306259E-1,4.207637E-1,-1.2446092E-1,9.0338284E-1,1.4223064E-1,-1.552643E-1,2.0645644E-1,-9.2454385E-3,3.590968E-2,-3.1729195E-2,3.448046E-3,9.878418E-3,5.1583476E-2,1.1122047E-2,-1.5543121E-2,5.3980704E-2,1.0488605E-2,-1.4780003E-2,2.1120945E-2,1.2798033E-3,-2.1360612E-2,8.05516E-3,3.7982877E-2],"categories":[],"categories_nodes":[],"categories_segments":[],"categories_sizes":[],"default_left":[0,0,0,0,0,0,0,0,0,0,0,0,0,0,0,0,0,0,0,0,0,0,0,0,0,0,0,0,0,0,0],"id":36,"left_children":[1,3,5,7,9,11,13,15,17,19,21,23,25,27,29,-1,-1,-1,-1,-1,-1,-1,-1,-1,-1,-1,-1,-1,-1,-1,-1],"loss_changes":[6.133316E0,4.231188E0,6.9611998E0,4.1024394E0,3.771854E0,2.8545618E0,6.6868916E0,3.9450417E0,2.5398865E0,2.4190454E0,2.4446893E0,1.4878407E0,1.3955858E0,4.560486E0,2.9992957E0,0E0,0E0,0E0,0E0,0E0,0E0,0E0,0E0,0E0,0E0,0E0,0E0,0E0,0E0,0E0,0E0],"parents":[2147483647,0,0,1,1,2,2,3,3,4,4,5,5,6,6,7,7,8,8,9,9,10,10,11,11,12,12,13,13,14,14],"right_children":[2,4,6,8,10,12,14,16,18,20,22,24,26,28,30,-1,-1,-1,-1,-1,-1,-1,-1,-1,-1,-1,-1,-1,-1,-1,-1],"split_conditions":[-1.9918454E-1,3.7032285E-1,-1.1570148E0,-6.6690575E-3,1.3796332E-1,3.073425E-1,-1.3281769E-2,6.483839E-1,1.431866E0,9.8238415E-1,3.2826728E-1,-7.1394265E-1,2.1928589E-1,5.053319E-1,1.8189684E0,-9.2454385E-3,3.590968E-2,-3.1729195E-2,3.448046E-3,9.878418E-3,5.1583476E-2,1.1122047E-2,-1.5543121E-2,5.3980704E-2,1.0488605E-2,-1.4780003E-2,2.1120945E-2,1.2798033E-3,-2.1360612E-2,8.05516E-3,3.7982877E-2],"split_indices":[92,113,26,64,172,64,240,126,28,173,122,69,86,182,141,0,0,0,0,0,0,0,0,0,0,0,0,0,0,0,0],"split_type":[0,0,0,0,0,0,0,0,0,0,0,0,0,0,0,0,0,0,0,0,0,0,0,0,0,0,0,0,0,0,0],"sum_hessian":[3.6139423E2,1.3303458E2,2.2835965E2,8.074684E1,5.2287735E1,2.176421E1,2.0659544E2,4.316336E1,3.7583485E1,1.7951773E1,3.4335964E1,1.3447893E1,8.316317E0,8.51977E1,1.21397736E2,3.893463E1,4.2287264E0,3.2122425E1,5.4610596E0,1.4237263E1,3.7145112E0,1.1746102E1,2.258986E1,1.0164604E1,3.2832887E0,3.08449E0,5.2318263E0,5.0465717E1,3.4731987E1,1.1355972E2,7.838014E0],"tree_param":{"num_deleted":"0","num_feature":"246","num_nodes":"31","size_leaf_vector":"1"}},{"base_weights":[2.0831442E-3,5.2343227E-2,-3.912338E-1,2.7250654E-1,-2.8807221E-2,-5.178546E-1,1.5085611E-2,4.5121175E-1,-6.0432456E-2,-2.0986702E-1,1.0940846E-1,-7.506811E-1,-1.5003268E-1,3.3612788E-2,4.7932966E-3,7.489973E-3,-3.413405E-2,1.8274534E-2,-1.5525701E-2,1.2987274E-3,3.6429662E-2,-4.4492356E-2,-1.4805141E-3,-3.5658177E-2,3.5559523E-3],"categories":[],"categories_nodes":[],"categories_segments":[],"categories_sizes":[],"default_left":[0,0,0,0,0,0,0,0,0,0,0,0,0,0,0,0,0,0,0,0,0,0,0,0,0],"id":37,"left_children":[1,3,5,7,9,11,-1,13,15,17,19,21,23,-1,-1,-1,-1,-1,-1,-1,-1,-1,-1,-1,-1],"loss_changes":[7.1796474E0,5.7954793E0,3.8271713E0,5.263942E0,5.9529133E0,2.856718E0,0E0,4.3707266E0,4.3544974E0,6.1111617E0,6.9147615E0,2.0140572E0,2.0995572E0,0E0,0E0,0E0,0E0,0E0,0E0,0E0,0E0,0E0,0E0,0E0,0E0],"parents":[2147483647,0,0,1,1,2,2,3,3,4,4,5,5,7,7,8,8,9,9,10,10,11,11,12,12],"right_children":[2,4,6,8,10,12,-1,14,16,18,20,22,24,-1,-1,-1,-1,-1,-1,-1,-1,-1,-1,-1,-1],"split_conditions":[1.3384027E0,-2.471406E-1,1.0506458E0,-5.3326305E-2,-1.1460617E-1,1.8639174E-1,1.5085611E-2,5.1816106E-1,5.407072E-1,-9.56002E-1,2.063133E-1,1.5681196E0,-8.9345074E-1,3.3612788E-2,4.7932966E-3,7.489973E-3,-3.413405E-2,1.8274534E-2,-1.5525701E-2,1.2987274E-3,3.6429662E-2,-4.4492356E-2,-1.4805141E-3,-3.5658177E-2,3.5559523E-3],"split_indices":[0,180,36,159,236,58,0,123,69,0,93,3,234,0,0,0,0,0,0,0,0,0,0,0,0],"split_type":[0,0,0,0,0,0,0,0,0,0,0,0,0,0,0,0,0,0,0,0,0,0,0,0,0],"sum_hessian":[3.584045E2,3.1878915E2,3.9615368E1,8.5553764E1,2.332354E2,3.383056E1,5.784809E0,5.5636147E1,2.9917616E1,1.01057365E2,1.3217802E2,1.9913082E1,1.3917478E1,3.3576515E1,2.2059633E1,2.2809715E1,7.107901E0,1.4506228E1,8.655113E1,1.17542816E2,1.4635208E1,1.6379171E1,3.5339105E0,3.4246109E0,1.0492867E1],"tree_param":{"num_deleted":"0","num_feature":"246","num_nodes":"25","size_leaf_vector":"1"}},{"base_weights":[-4.1203774E-3,6.5487725E-1,-2.8889412E-2,1.7155706E-3,8.786701E-1,-1.2822369E-1,1.0341361E-1,1.910857E-2,5.3525187E-2,-2.933624E-1,-0E0,3.799761E-1,2.074689E-3,-1.99521E-2,4.1703754E-3,2.637962E-3,-3.1909525E-2,2.412325E-2,-1.957898E-2,3.2799985E-2,-2.2593387E-3],"categories":[],"categories_nodes":[],"categories_segments":[],"categories_sizes":[],"default_left":[0,0,0,0,0,0,0,0,0,0,0,0,0,0,0,0,0,0,0,0,0],"id":38,"left_children":[1,3,5,-1,7,9,11,-1,-1,13,15,17,19,-1,-1,-1,-1,-1,-1,-1,-1],"loss_changes":[5.9407425E0,1.7182789E0,4.609128E0,0E0,4.4655037E-1,4.234909E0,4.183791E0,0E0,0E0,3.5584831E0,3.9880023E0,3.4283056E0,3.6326666E0,0E0,0E0,0E0,0E0,0E0,0E0,0E0,0E0],"parents":[2147483647,0,0,1,1,2,2,4,4,5,5,6,6,9,9,10,10,11,11,12,12],"right_children":[2,4,6,-1,8,10,12,-1,-1,14,16,18,20,-1,-1,-1,-1,-1,-1,-1,-1],"split_conditions":[-1.7208036E0,-6.542617E-1,-1.0380661E-1,1.7155706E-3,9.48117E-2,0E0,-1.08969815E-1,1.910857E-2,5.3525187E-2,2.759684E-1,1.368112E0,9.884503E-1,-2.154515E0,-1.99521E-2,4.1703754E-3,2.637962E-3,-3.1909525E-2,2.412325E-2,-1.957898E-2,3.2799985E-2,-2.2593387E-3],"split_indices":[0,228,93,0,126,197,184,0,0,112,40,36,226,0,0,0,0,0,0,0,0],"split_type":[0,0,0,0,0,0,0,0,0,0,0,0,0,0,0,0,0,0,0,0,0],"sum_hessian":[3.5730353E2,1.1875332E1,3.454282E2,3.5716085E0,8.303722E0,1.9774567E2,1.4768251E2,3.2933774E0,5.0103455E0,8.5792816E1,1.1195286E2,3.860094E1,1.0908157E2,6.716119E1,1.8631632E1,1.0421963E2,7.733225E0,3.4519825E1,4.0811143E0,6.626792E0,1.0245478E2],"tree_param":{"num_deleted":"0","num_feature":"246","num_nodes":"21","size_leaf_vector":"1"}},{"base_weights":[6.541804E-3,3.0221183E-2,-6.361121E-1,-2.1687285E-3,4.3188146E-1,-4.5612536E-2,-0E0,-1.0681732E-1,1.2133757E-1,5.695116E-1,-1.8651232E-2,-1.2726945E-2,3.4564517E-3,3.0246124E-2,2.9509505E-3,6.240616E-3,3.8270187E-2],"categories":[],"categories_nodes":[],"categories_segments":[],"categories_sizes":[],"default_left":[0,0,0,0,0,0,0,0,0,0,0,0,0,0,0,0,0],"id":39,"left_children":[1,3,5,7,9,-1,-1,11,13,15,-1,-1,-1,-1,-1,-1,-1],"loss_changes":[5.5438094E0,4.6353893E0,2.271841E0,4.2134376E0,3.226491E0,0E0,0E0,4.6296644E0,4.4528522E0,1.8655801E0,0E0,0E0,0E0,0E0,0E0,0E0,0E0],"parents":[2147483647,0,0,1,1,2,2,3,3,4,4,7,7,8,8,9,9],"right_children":[2,4,6,8,10,-1,-1,12,14,16,-1,-1,-1,-1,-1,-1,-1],"split_conditions":[1.912004E0,1.219901E0,5.6390613E-1,-1.1919364E-1,1.431866E0,-4.5612536E-2,-0E0,4.2586368E-1,-1.1417414E0,-6.2785643E-1,-1.8651232E-2,-1.2726945E-2,3.4564517E-3,3.0246124E-2,2.9509505E-3,6.240616E-3,3.8270187E-2],"split_indices":[0,127,227,93,115,0,0,36,26,73,0,0,0,0,0,0,0],"split_type":[0,0,0,0,0,0,0,0,0,0,0,0,0,0,0,0,0],"sum_hessian":[3.5734818E2,3.4571835E2,1.1629841E1,3.2060995E2,2.5108376E1,7.804523E0,3.8253176E0,1.7406613E2,1.4654384E2,2.1797865E1,3.3105094E0,9.4688736E1,7.937739E1,1.5551827E1,1.30992E2,7.3225045E0,1.4475361E1],"tree_param":{"num_deleted":"0","num_feature":"246","num_nodes":"17","size_leaf_vector":"1"}},{"base_weights":[8.363224E-4,-1.200742E-1,1.4595018E-1,-1.5890704E-2,-3.2823795E-1,3.6083135E-1,3.6481187E-2,1.2937993E-2,-5.3892154E-1,-4.0726396E-1,1.2937993E-2,8.541526E-2,5.010835E-1,3.1374547E-1,1.2937993E-2,6.468996E-4,-1.0015889E-2,-1.7638721E-3,-4.468153E-2,6.468996E-4,-2.5828008E-2,-1.7450428E-2,6.468996E-4,2.7244005E-2,6.468996E-4,2.900222E-2,6.468996E-4,6.468996E-4,2.96917E-2,6.468996E-4,1.9332903E-2],"categories":[],"categories_nodes":[],"categories_segments":[],"categories_sizes":[],"default_left":[0,0,0,0,0,0,0,0,0,0,0,0,0,0,0,0,0,0,0,0,0,0,0,0,0,0,0,0,0,0,0],"id":40,"left_children":[1,3,5,7,9,11,13,15,17,19,21,23,25,27,29,-1,-1,-1,-1,-1,-1,-1,-1,-1,-1,-1,-1,-1,-1,-1,-1],"loss_changes":[6.386192E0,4.2654724E0,3.8636222E0,2.9951973E0,2.3150449E0,2.0701995E0,2.4037683E0,2.0103335E0,1.7137821E0,3.0212536E0,6.071203E-1,1.692348E0,1.9266701E0,2.4718513E0,1.7513039E0,0E0,0E0,0E0,0E0,0E0,0E0,0E0,0E0,0E0,0E0,0E0,0E0,0E0,0E0,0E0,0E0],"parents":[2147483647,0,0,1,1,2,2,3,3,4,4,5,5,6,6,7,7,8,8,9,9,10,10,11,11,12,12,13,13,14,14],"right_children":[2,4,6,8,10,12,14,16,18,20,22,24,26,28,30,-1,-1,-1,-1,-1,-1,-1,-1,-1,-1,-1,-1,-1,-1,-1,-1],"split_conditions":[4.8451368E-2,5.736012E-1,-3.8240078E-1,1.6752082E0,8.0982035E-1,-2.1908328E-2,-1.8197441E-1,3.853187E-1,8.952195E-1,-1.0043491E0,4.879602E-1,-3.521117E-1,1.7430961E0,-4.3873832E-1,1.1837482E0,6.468996E-4,-1.0015889E-2,-1.7638721E-3,-4.468153E-2,6.468996E-4,-2.5828008E-2,-1.7450428E-2,6.468996E-4,2.7244005E-2,6.468996E-4,2.900222E-2,6.468996E-4,6.468996E-4,2.96917E-2,6.468996E-4,1.9332903E-2],"split_indices":[240,0,0,159,198,91,39,131,119,239,96,217,80,137,218,0,0,0,0,0,0,0,0,0,0,0,0,0,0,0,0],"split_type":[0,0,0,0,0,0,0,0,0,0,0,0,0,0,0,0,0,0,0,0,0,0,0,0,0,0,0,0,0,0,0],"sum_hessian":[3.5880374E2,1.9544238E2,1.6336137E2,1.3129001E2,6.4152374E1,5.4051594E1,1.09309784E2,1.2243706E2,8.852946E0,5.497342E1,9.178952E0,1.9021225E1,3.503037E1,2.563007E1,8.367971E1,8.016672E1,4.227034E1,4.2292695E0,4.6236763E0,1.0023961E1,4.494946E1,3.0830271E0,6.095925E0,5.028339E0,1.3992886E1,3.1637634E1,3.3927355E0,1.232938E1,1.330069E1,7.267451E1,1.1005204E1],"tree_param":{"num_deleted":"0","num_feature":"246","num_nodes":"31","size_leaf_vector":"1"}},{"base_weights":[-6.765869E-3,5.8589898E-2,-2.376637E-1,-1.257707E-1,1.78956E-1,-6.671817E-2,-5.1060075E-1,-2.2845645E-3,-4.9825504E-1,6.2695134E-1,1.1005206E-1,-3.2312948E-1,2.0965023E-1,-6.958307E-1,1.4318032E-2,-1.0455857E-2,1.0616897E-2,-3.263187E-2,2.7774011E-3,-1.38085E-3,3.928684E-2,-6.7031644E-3,1.0916839E-2,-5.4741967E-3,-4.0753014E-2,-5.600976E-3,3.138728E-2,-4.585424E-2,-0E0,-2.4339383E-2,2.0841977E-2],"categories":[],"categories_nodes":[],"categories_segments":[],"categories_sizes":[],"default_left":[0,0,0,0,0,0,0,0,0,0,0,0,0,0,0,0,0,0,0,0,0,0,0,0,0,0,0,0,0,0,0],"id":41,"left_children":[1,3,5,7,9,11,13,15,17,19,21,23,25,27,29,-1,-1,-1,-1,-1,-1,-1,-1,-1,-1,-1,-1,-1,-1,-1,-1],"loss_changes":[5.472936E0,6.2570896E0,3.6728992E0,5.0955424E0,5.192866E0,3.7221887E0,3.0483494E0,3.8575034E0,2.4675107E0,2.4372492E0,4.000486E0,2.73071E0,3.526618E0,3.5522308E0,2.128612E0,0E0,0E0,0E0,0E0,0E0,0E0,0E0,0E0,0E0,0E0,0E0,0E0,0E0,0E0,0E0,0E0],"parents":[2147483647,0,0,1,1,2,2,3,3,4,4,5,5,6,6,7,7,8,8,9,9,10,10,11,11,12,12,13,13,14,14],"right_children":[2,4,6,8,10,12,14,16,18,20,22,24,26,28,30,-1,-1,-1,-1,-1,-1,-1,-1,-1,-1,-1,-1,-1,-1,-1,-1],"split_conditions":[1.4117625E0,-2.361195E-1,3.5892388E-1,5.4393685E-1,-8.3841014E-1,2.8662184E-2,6.638455E-1,2.7901977E-1,2.3143008E-1,-3.6038718E-1,1.704828E-1,6.6018945E-1,3.8700867E-1,4.7253543E-1,4.7701118E-3,-1.0455857E-2,1.0616897E-2,-3.263187E-2,2.7774011E-3,-1.38085E-3,3.928684E-2,-6.7031644E-3,1.0916839E-2,-5.4741967E-3,-4.0753014E-2,-5.600976E-3,3.138728E-2,-4.585424E-2,-0E0,-2.4339383E-2,2.0841977E-2],"split_indices":[221,9,178,184,179,218,141,71,83,232,32,182,202,20,5,0,0,0,0,0,0,0,0,0,0,0,0,0,0,0,0],"split_type":[0,0,0,0,0,0,0,0,0,0,0,0,0,0,0,0,0,0,0,0,0,0,0,0,0,0,0,0,0,0,0],"sum_hessian":[3.5572806E2,2.7749585E2,7.823221E1,1.0926411E2,1.6823177E2,4.9094337E1,2.9137865E1,8.3016914E1,2.6247192E1,2.115264E1,1.4707912E2,2.5566595E1,2.3527744E1,2.1437904E1,7.6999617E0,4.2526012E1,4.0490902E1,2.0527029E1,5.720165E0,4.167806E0,1.6984833E1,4.4837227E1,1.0224189E2,1.8819239E1,6.7473555E0,1.3575817E1,9.951926E0,1.6088243E1,5.3496614E0,3.2260358E0,4.4739256E0],"tree_param":{"num_deleted":"0","num_feature":"246","num_nodes":"31","size_leaf_vector":"1"}},{"base_weights":[1.01549355E-2,1.12234004E-1,-1.107023E-1,-3.256958E-1,1.4902808E-1,-7.089724E-1,-7.5937614E-2,8.860351E-3,-6.807823E-1,5.086595E-2,3.6197704E-1,-9.985434E-3,-4.7113683E-2,4.190557E-2,-2.4445035E-1,-1.0248447E-2,-5.422699E-2,7.3625594E-3,-9.1887E-3,2.3363758E-2,-7.388533E-4,5.181774E-3,-2.790218E-2,-1.5889695E-2,1.7985314E-2],"categories":[],"categories_nodes":[],"categories_segments":[],"categories_sizes":[],"default_left":[0,0,0,0,0,0,0,0,0,0,0,0,0,0,0,0,0,0,0,0,0,0,0,0,0],"id":42,"left_children":[1,3,5,7,9,11,13,-1,15,17,19,-1,-1,21,23,-1,-1,-1,-1,-1,-1,-1,-1,-1,-1],"loss_changes":[4.4251184E0,3.2127726E0,3.3770099E0,2.9667501E0,3.732966E0,8.098326E-1,3.1429107E0,0E0,1.5283856E0,2.882597E0,2.296413E0,0E0,0E0,3.5246742E0,3.0380926E0,0E0,0E0,0E0,0E0,0E0,0E0,0E0,0E0,0E0,0E0],"parents":[2147483647,0,0,1,1,2,2,3,3,4,4,5,5,6,6,8,8,9,9,10,10,13,13,14,14],"right_children":[2,4,6,8,10,12,14,-1,16,18,20,-1,-1,22,24,-1,-1,-1,-1,-1,-1,-1,-1,-1,-1],"split_conditions":[1.9120039E-1,-1.3163579E0,-1.2303334E0,-1.7882065E-1,1.925122E-1,2.1464767E0,5.4241514E-1,8.860351E-3,-5.3326305E-2,4.634427E-1,2.0038698E0,-9.985434E-3,-4.7113683E-2,1.912004E0,8.390816E-1,-1.0248447E-2,-5.422699E-2,7.3625594E-3,-9.1887E-3,2.3363758E-2,-7.388533E-4,5.181774E-3,-2.790218E-2,-1.5889695E-2,1.7985314E-2],"split_indices":[0,216,232,3,8,110,119,0,159,184,213,0,0,0,3,0,0,0,0,0,0,0,0,0,0],"split_type":[0,0,0,0,0,0,0,0,0,0,0,0,0,0,0,0,0,0,0,0,0,0,0,0,0],"sum_hessian":[3.53218E2,1.919722E2,1.6124579E2,1.4059829E1,1.7791237E2,7.632206E0,1.5361357E2,5.9095545E0,8.150273E0,1.2294666E2,5.4965706E1,3.1157048E0,4.516501E0,9.0490364E1,6.3123215E1,4.5470586E0,3.6032155E0,8.771413E1,3.5232533E1,4.297882E1,1.1986886E1,8.294948E1,7.5408874E0,5.686002E1,6.2631955E0],"tree_param":{"num_deleted":"0","num_feature":"246","num_nodes":"25","size_leaf_vector":"1"}},{"base_weights":[-1.7288832E-2,1.3316853E-1,-1.0954949E-1,4.363085E-1,3.135176E-2,-3.6053106E-1,-2.7637258E-2,5.5748343E-1,-1.3714502E-2,2.0065333E-1,-1.8256618E-1,-5.552335E-1,1.3099528E-2,-6.8985276E-2,4.9238917E-1,1.1316645E-2,3.6913197E-2,1.3935736E-2,-2.8520871E-2,-2.2176763E-2,9.668008E-4,-4.835533E-3,-3.665736E-2,-2.8149486E-2,8.722792E-3,-1.1492165E-2,2.7558664E-3,3.7586726E-3,4.4131488E-2],"categories":[],"categories_nodes":[],"categories_segments":[],"categories_sizes":[],"default_left":[0,0,0,0,0,0,0,0,0,0,0,0,0,0,0,0,0,0,0,0,0,0,0,0,0,0,0,0,0],"id":43,"left_children":[1,3,5,7,9,11,13,15,-1,17,19,21,23,25,27,-1,-1,-1,-1,-1,-1,-1,-1,-1,-1,-1,-1,-1,-1],"loss_changes":[5.012904E0,4.196015E0,4.576233E0,3.1710835E0,3.836786E0,4.0536146E0,3.7312047E0,1.5736923E0,0E0,3.762444E0,2.517013E0,2.8296995E0,2.0080676E0,3.218764E0,1.9480538E0,0E0,0E0,0E0,0E0,0E0,0E0,0E0,0E0,0E0,0E0,0E0,0E0,0E0,0E0],"parents":[2147483647,0,0,1,1,2,2,3,3,4,4,5,5,6,6,7,7,9,9,10,10,11,11,12,12,13,13,14,14],"right_children":[2,4,6,8,10,12,14,16,-1,18,20,22,24,26,28,-1,-1,-1,-1,-1,-1,-1,-1,-1,-1,-1,-1,-1,-1],"split_conditions":[-1.9403987E-1,-3.7217256E-1,-2.3739429E-1,1.338432E0,-6.6690575E-3,-4.1647017E-2,2.0023212E0,-7.6583546E-1,-1.3714502E-2,8.355115E-1,-1.8471435E-1,-6.811341E-1,-2.3830453E-1,0E0,5.1793647E-1,1.1316645E-2,3.6913197E-2,1.3935736E-2,-2.8520871E-2,-2.2176763E-2,9.668008E-4,-4.835533E-3,-3.665736E-2,-2.8149486E-2,8.722792E-3,-1.1492165E-2,2.7558664E-3,3.7586726E-3,4.4131488E-2],"split_indices":[179,127,93,27,64,72,141,73,0,25,217,217,40,216,166,0,0,0,0,0,0,0,0,0,0,0,0,0,0],"split_type":[0,0,0,0,0,0,0,0,0,0,0,0,0,0,0,0,0,0,0,0,0,0,0,0,0,0,0,0,0],